double clamp01(double value) => value < 0.0 ? 0.0 : (value > 1.0 ? 1.0 : value);

double scoreP4(List<double> features) {
  final value = double score(List<double> input) {
    double var0;
    if (input[5] >= 0.527057) {
        if (input[7] >= 0.5205643) {
            if (input[2] >= 0.53197634) {
                if (input[9] >= 0.5090278) {
                    var0 = 0.0051178373;
                } else {
                    var0 = 0.0032257899;
                }
            } else {
                if (input[6] >= 0.53193206) {
                    var0 = 0.003274104;
                } else {
                    var0 = 0.0014074779;
                }
            }
        } else {
            if (input[8] >= 0.54651165) {
                if (input[3] >= 0.48576626) {
                    var0 = 0.0032133115;
                } else {
                    var0 = 0.0012847872;
                }
            } else {
                if (input[11] >= 0.54218495) {
                    var0 = 0.0014580415;
                } else {
                    var0 = -0.0003911537;
                }
            }
        }
    } else {
        if (input[9] >= 0.542696) {
            if (input[1] >= 0.5186403) {
                if (input[8] >= 0.5345758) {
                    var0 = 0.0032988493;
                } else {
                    var0 = 0.0014518347;
                }
            } else {
                if (input[11] >= 0.5296173) {
                    var0 = 0.0014550864;
                } else {
                    var0 = -0.0004710663;
                }
            }
        } else {
            if (input[10] >= 0.4809544) {
                if (input[7] >= 0.49673617) {
                    var0 = 0.0012899141;
                } else {
                    var0 = -0.0006335721;
                }
            } else {
                if (input[6] >= 0.51398647) {
                    var0 = -0.00055547996;
                } else {
                    var0 = -0.0024876522;
                }
            }
        }
    }
    double var1;
    if (input[4] >= 0.5346621) {
        if (input[3] >= 0.51814616) {
            if (input[2] >= 0.47461015) {
                if (input[10] >= 0.5319271) {
                    var1 = 0.0049068835;
                } else {
                    var1 = 0.0030643824;
                }
            } else {
                if (input[10] >= 0.47502437) {
                    var1 = 0.0028851673;
                } else {
                    var1 = 0.0009538001;
                }
            }
        } else {
            if (input[6] >= 0.55432075) {
                if (input[11] >= 0.5081937) {
                    var1 = 0.003215382;
                } else {
                    var1 = 0.0013475417;
                }
            } else {
                if (input[1] >= 0.48658824) {
                    var1 = 0.0012956869;
                } else {
                    var1 = -0.00053663354;
                }
            }
        }
    } else {
        if (input[6] >= 0.51392937) {
            if (input[3] >= 0.5116758) {
                if (input[7] >= 0.4785537) {
                    var1 = 0.0029576235;
                } else {
                    var1 = 0.0011170404;
                }
            } else {
                if (input[1] >= 0.50448644) {
                    var1 = 0.0012130586;
                } else {
                    var1 = -0.0006380259;
                }
            }
        } else {
            if (input[11] >= 0.5178572) {
                if (input[10] >= 0.5052798) {
                    var1 = 0.0012919093;
                } else {
                    var1 = -0.0006248394;
                }
            } else {
                if (input[2] >= 0.5513809) {
                    var1 = -0.00049056136;
                } else {
                    var1 = -0.0023011304;
                }
            }
        }
    }
    double var2;
    if (input[0] >= 0.52051294) {
        if (input[2] >= 0.5203147) {
            if (input[10] >= 0.52434814) {
                if (input[11] >= 0.54095674) {
                    var2 = 0.004878903;
                } else {
                    var2 = 0.003068365;
                }
            } else {
                if (input[7] >= 0.49621987) {
                    var2 = 0.0029325208;
                } else {
                    var2 = 0.0011208128;
                }
            }
        } else {
            if (input[8] >= 0.4979269) {
                if (input[9] >= 0.48447654) {
                    var2 = 0.0028554809;
                } else {
                    var2 = 0.0010081942;
                }
            } else {
                if (input[5] >= 0.52733743) {
                    var2 = 0.001164332;
                } else {
                    var2 = -0.00066961034;
                }
            }
        }
    } else {
        if (input[8] >= 0.5421841) {
            if (input[11] >= 0.5221446) {
                if (input[7] >= 0.5244375) {
                    var2 = 0.003034861;
                } else {
                    var2 = 0.0012315477;
                }
            } else {
                if (input[7] >= 0.50761306) {
                    var2 = 0.0011689815;
                } else {
                    var2 = -0.00062546774;
                }
            }
        } else {
            if (input[1] >= 0.547456) {
                if (input[2] >= 0.54890287) {
                    var2 = 0.0014101089;
                } else {
                    var2 = -0.00042861237;
                }
            } else {
                if (input[9] >= 0.4951951) {
                    var2 = -0.00060294796;
                } else {
                    var2 = -0.002448159;
                }
            }
        }
    }
    double var3;
    if (input[10] >= 0.47640413) {
        if (input[9] >= 0.48286712) {
            if (input[6] >= 0.48237264) {
                if (input[3] >= 0.58877575) {
                    var3 = 0.0045339223;
                } else {
                    var3 = 0.0027411685;
                }
            } else {
                if (input[7] >= 0.51745474) {
                    var3 = 0.0025427693;
                } else {
                    var3 = 0.0007393065;
                }
            }
        } else {
            if (input[8] >= 0.47328395) {
                if (input[3] >= 0.489556) {
                    var3 = 0.0024580795;
                } else {
                    var3 = 0.0006522609;
                }
            } else {
                if (input[6] >= 0.5604024) {
                    var3 = 0.0008252529;
                } else {
                    var3 = -0.0009149076;
                }
            }
        }
    } else {
        if (input[1] >= 0.5488348) {
            if (input[7] >= 0.5698115) {
                if (input[2] >= 0.48130906) {
                    var3 = 0.0028883948;
                } else {
                    var3 = 0.0011050289;
                }
            } else {
                if (input[3] >= 0.53509027) {
                    var3 = 0.0012813897;
                } else {
                    var3 = -0.00056750485;
                }
            }
        } else {
            if (input[6] >= 0.45735016) {
                if (input[3] >= 0.5374554) {
                    var3 = 0.0009522337;
                } else {
                    var3 = -0.00082670787;
                }
            } else {
                if (input[0] >= 0.53750134) {
                    var3 = -0.0008352832;
                } else {
                    var3 = -0.0026853248;
                }
            }
        }
    }
    double var4;
    if (input[5] >= 0.52603745) {
        if (input[0] >= 0.49708152) {
            if (input[8] >= 0.53899086) {
                if (input[11] >= 0.5746907) {
                    var4 = 0.004697903;
                } else {
                    var4 = 0.002889204;
                }
            } else {
                if (input[11] >= 0.5163725) {
                    var4 = 0.002745804;
                } else {
                    var4 = 0.0009792254;
                }
            }
        } else {
            if (input[9] >= 0.5658933) {
                if (input[4] >= 0.57630575) {
                    var4 = 0.003033139;
                } else {
                    var4 = 0.0012402346;
                }
            } else {
                if (input[10] >= 0.5120783) {
                    var4 = 0.0010875767;
                } else {
                    var4 = -0.0006750991;
                }
            }
        }
    } else {
        if (input[4] >= 0.48495245) {
            if (input[11] >= 0.5080254) {
                if (input[2] >= 0.5649792) {
                    var4 = 0.0028326572;
                } else {
                    var4 = 0.0010548934;
                }
            } else {
                if (input[0] >= 0.49945492) {
                    var4 = 0.00086768565;
                } else {
                    var4 = -0.0008953014;
                }
            }
        } else {
            if (input[0] >= 0.5844623) {
                if (input[11] >= 0.45877406) {
                    var4 = 0.00096875353;
                } else {
                    var4 = -0.00082361826;
                }
            } else {
                if (input[2] >= 0.5744816) {
                    var4 = -0.0004674011;
                } else {
                    var4 = -0.0022909967;
                }
            }
        }
    }
    double var5;
    if (input[7] >= 0.45495343) {
        if (input[11] >= 0.5054106) {
            if (input[4] >= 0.552664) {
                if (input[3] >= 0.526082) {
                    var5 = 0.0042866324;
                } else {
                    var5 = 0.0025521235;
                }
            } else {
                if (input[9] >= 0.5106926) {
                    var5 = 0.0025266744;
                } else {
                    var5 = 0.00083923433;
                }
            }
        } else {
            if (input[8] >= 0.5083542) {
                if (input[9] >= 0.46653876) {
                    var5 = 0.0023403321;
                } else {
                    var5 = 0.00059655716;
                }
            } else {
                if (input[0] >= 0.4970947) {
                    var5 = 0.0006949703;
                } else {
                    var5 = -0.0010254855;
                }
            }
        }
    } else {
        if (input[2] >= 0.54864687) {
            if (input[8] >= 0.4633238) {
                if (input[9] >= 0.58816266) {
                    var5 = 0.0026158777;
                } else {
                    var5 = 0.0008575584;
                }
            } else {
                if (input[5] >= 0.54778665) {
                    var5 = 0.0007248062;
                } else {
                    var5 = -0.0009816213;
                }
            }
        } else {
            if (input[0] >= 0.59239626) {
                if (input[11] >= 0.62839913) {
                    var5 = 0.0014166906;
                } else {
                    var5 = -0.0004100803;
                }
            } else {
                if (input[4] >= 0.47115868) {
                    var5 = -0.0008045577;
                } else {
                    var5 = -0.0025613194;
                }
            }
        }
    }
    double var6;
    if (input[6] >= 0.507222) {
        if (input[5] >= 0.5872111) {
            if (input[2] >= 0.51317036) {
                if (input[10] >= 0.502866) {
                    var6 = 0.004377984;
                } else {
                    var6 = 0.0026839802;
                }
            } else {
                if (input[4] >= 0.5383303) {
                    var6 = 0.0027596669;
                } else {
                    var6 = 0.0010583032;
                }
            }
        } else {
            if (input[3] >= 0.4765935) {
                if (input[8] >= 0.5989397) {
                    var6 = 0.0028229428;
                } else {
                    var6 = 0.0011311468;
                }
            } else {
                if (input[10] >= 0.5656688) {
                    var6 = 0.0010336656;
                } else {
                    var6 = -0.0006557057;
                }
            }
        }
    } else {
        if (input[3] >= 0.5551515) {
            if (input[0] >= 0.4314806) {
                if (input[9] >= 0.4988051) {
                    var6 = 0.0024089005;
                } else {
                    var6 = 0.00070715544;
                }
            } else {
                if (input[2] >= 0.63286376) {
                    var6 = 0.0010390693;
                } else {
                    var6 = -0.0007229069;
                }
            }
        } else {
            if (input[10] >= 0.42348847) {
                if (input[0] >= 0.58050853) {
                    var6 = 0.0009037731;
                } else {
                    var6 = -0.00080476166;
                }
            } else {
                if (input[11] >= 0.5687344) {
                    var6 = -0.00087889814;
                } else {
                    var6 = -0.002583815;
                }
            }
        }
    }
    double var7;
    if (input[1] >= 0.5186403) {
        if (input[4] >= 0.4596302) {
            if (input[5] >= 0.46385127) {
                if (input[10] >= 0.5830724) {
                    var7 = 0.0040858556;
                } else {
                    var7 = 0.0024001854;
                }
            } else {
                if (input[0] >= 0.47243717) {
                    var7 = 0.0021176075;
                } else {
                    var7 = 0.00043418733;
                }
            }
        } else {
            if (input[10] >= 0.5611541) {
                if (input[7] >= 0.57891643) {
                    var7 = 0.0026713035;
                } else {
                    var7 = 0.0009182662;
                }
            } else {
                if (input[8] >= 0.43551627) {
                    var7 = 0.0006126014;
                } else {
                    var7 = -0.0011252356;
                }
            }
        }
    } else {
        if (input[2] >= 0.5568242) {
            if (input[4] >= 0.4699993) {
                if (input[5] >= 0.48183692) {
                    var7 = 0.0023615498;
                } else {
                    var7 = 0.00069791084;
                }
            } else {
                if (input[7] >= 0.50611615) {
                    var7 = 0.00071623386;
                } else {
                    var7 = -0.0009280311;
                }
            }
        } else {
            if (input[8] >= 0.49978775) {
                if (input[7] >= 0.59537584) {
                    var7 = 0.0010472978;
                } else {
                    var7 = -0.0006133927;
                }
            } else {
                if (input[10] >= 0.6256743) {
                    var7 = -0.0004679518;
                } else {
                    var7 = -0.0022162902;
                }
            }
        }
    }
    double var8;
    if (input[1] >= 0.4627903) {
        if (input[11] >= 0.5034518) {
            if (input[8] >= 0.5825958) {
                if (input[2] >= 0.44914776) {
                    var8 = 0.0038875176;
                } else {
                    var8 = 0.0021827612;
                }
            } else {
                if (input[3] >= 0.59549415) {
                    var8 = 0.0026024044;
                } else {
                    var8 = 0.00094430853;
                }
            }
        } else {
            if (input[4] >= 0.48902887) {
                if (input[6] >= 0.5391755) {
                    var8 = 0.0022052915;
                } else {
                    var8 = 0.0005883069;
                }
            } else {
                if (input[5] >= 0.48194447) {
                    var8 = 0.00043997917;
                } else {
                    var8 = -0.001197421;
                }
            }
        }
    } else {
        if (input[8] >= 0.55549896) {
            if (input[10] >= 0.5498841) {
                if (input[2] >= 0.5906308) {
                    var8 = 0.002544116;
                } else {
                    var8 = 0.00094673963;
                }
            } else {
                if (input[3] >= 0.4617298) {
                    var8 = 0.00068284135;
                } else {
                    var8 = -0.0010098557;
                }
            }
        } else {
            if (input[4] >= 0.47476235) {
                if (input[6] >= 0.520319) {
                    var8 = 0.00062362215;
                } else {
                    var8 = -0.0010129547;
                }
            } else {
                if (input[3] >= 0.5351281) {
                    var8 = -0.00096360536;
                } else {
                    var8 = -0.0025793505;
                }
            }
        }
    }
    double var9;
    if (input[9] >= 0.57523894) {
        if (input[2] >= 0.48686478) {
            if (input[5] >= 0.50485957) {
                if (input[1] >= 0.5765803) {
                    var9 = 0.0041032764;
                } else {
                    var9 = 0.002468774;
                }
            } else {
                if (input[6] >= 0.5575681) {
                    var9 = 0.0024764505;
                } else {
                    var9 = 0.0008580767;
                }
            }
        } else {
            if (input[7] >= 0.5771718) {
                if (input[10] >= 0.56017184) {
                    var9 = 0.0026948964;
                } else {
                    var9 = 0.0010231864;
                }
            } else {
                if (input[5] >= 0.45473373) {
                    var9 = 0.0008013936;
                } else {
                    var9 = -0.00086288375;
                }
            }
        }
    } else {
        if (input[7] >= 0.5353607) {
            if (input[3] >= 0.5956043) {
                if (input[1] >= 0.6014588) {
                    var9 = 0.0029309536;
                } else {
                    var9 = 0.0012979173;
                }
            } else {
                if (input[11] >= 0.45409012) {
                    var9 = 0.00092136563;
                } else {
                    var9 = -0.0006753416;
                }
            }
        } else {
            if (input[5] >= 0.43545604) {
                if (input[3] >= 0.43723866) {
                    var9 = 0.000521601;
                } else {
                    var9 = -0.001118753;
                }
            } else {
                if (input[6] >= 0.45867407) {
                    var9 = -0.0010794335;
                } else {
                    var9 = -0.002740577;
                }
            }
        }
    }
    double var10;
    if (input[0] >= 0.49620017) {
        if (input[9] >= 0.44201583) {
            if (input[11] >= 0.49905077) {
                if (input[4] >= 0.45609713) {
                    var10 = 0.0034373887;
                } else {
                    var10 = 0.0017985951;
                }
            } else {
                if (input[8] >= 0.45449623) {
                    var10 = 0.0018424494;
                } else {
                    var10 = 0.00021593407;
                }
            }
        } else {
            if (input[1] >= 0.5463027) {
                if (input[10] >= 0.5181146) {
                    var10 = 0.00209878;
                } else {
                    var10 = 0.00046255294;
                }
            } else {
                if (input[7] >= 0.40359366) {
                    var10 = 0.00025970413;
                } else {
                    var10 = -0.0014659445;
                }
            }
        }
    } else {
        if (input[11] >= 0.42051387) {
            if (input[9] >= 0.45591062) {
                if (input[4] >= 0.5909505) {
                    var10 = 0.0020297396;
                } else {
                    var10 = 0.0004496196;
                }
            } else {
                if (input[10] >= 0.5633457) {
                    var10 = 0.00037623258;
                } else {
                    var10 = -0.0012218994;
                }
            }
        } else {
            if (input[1] >= 0.5627204) {
                if (input[8] >= 0.4088794) {
                    var10 = 0.00027037668;
                } else {
                    var10 = -0.0014309963;
                }
            } else {
                if (input[2] >= 0.4235922) {
                    var10 = -0.0012859866;
                } else {
                    var10 = -0.0030219094;
                }
            }
        }
    }
    double var11;
    if (input[6] >= 0.45954978) {
        if (input[3] >= 0.4541118) {
            if (input[0] >= 0.574753) {
                if (input[4] >= 0.55662954) {
                    var11 = 0.0037093402;
                } else {
                    var11 = 0.0021283792;
                }
            } else {
                if (input[1] >= 0.44011474) {
                    var11 = 0.0018742961;
                } else {
                    var11 = 0.0002948873;
                }
            }
        } else {
            if (input[7] >= 0.5521765) {
                if (input[8] >= 0.495911) {
                    var11 = 0.0019384242;
                } else {
                    var11 = 0.00036230404;
                }
            } else {
                if (input[11] >= 0.6017646) {
                    var11 = 0.0006592695;
                } else {
                    var11 = -0.0009577898;
                }
            }
        }
    } else {
        if (input[10] >= 0.44933933) {
            if (input[3] >= 0.46665636) {
                if (input[5] >= 0.5952638) {
                    var11 = 0.0020012397;
                } else {
                    var11 = 0.0003967595;
                }
            } else {
                if (input[4] >= 0.58105075) {
                    var11 = 0.00036405542;
                } else {
                    var11 = -0.0012209197;
                }
            }
        } else {
            if (input[5] >= 0.5591493) {
                if (input[7] >= 0.5846946) {
                    var11 = 0.0006250806;
                } else {
                    var11 = -0.0010283715;
                }
            } else {
                if (input[8] >= 0.44076082) {
                    var11 = -0.0012890575;
                } else {
                    var11 = -0.0029519245;
                }
            }
        }
    }
    double var12;
    if (input[2] >= 0.42860308) {
        if (input[7] >= 0.46000737) {
            if (input[8] >= 0.43156466) {
                if (input[1] >= 0.58159477) {
                    var12 = 0.003284366;
                } else {
                    var12 = 0.0017573677;
                }
            } else {
                if (input[4] >= 0.47446054) {
                    var12 = 0.0014630612;
                } else {
                    var12 = -0.00008303676;
                }
            }
        } else {
            if (input[8] >= 0.50686073) {
                if (input[11] >= 0.4321168) {
                    var12 = 0.0015649968;
                } else {
                    var12 = -0.000008129195;
                }
            } else {
                if (input[11] >= 0.53817034) {
                    var12 = 0.00028298068;
                } else {
                    var12 = -0.0012464564;
                }
            }
        }
    } else {
        if (input[9] >= 0.60644674) {
            if (input[5] >= 0.5862663) {
                if (input[7] >= 0.43183315) {
                    var12 = 0.002161412;
                } else {
                    var12 = 0.0005201283;
                }
            } else {
                if (input[4] >= 0.5511561) {
                    var12 = 0.00078304036;
                } else {
                    var12 = -0.00071997364;
                }
            }
        } else {
            if (input[8] >= 0.60605997) {
                if (input[11] >= 0.6387498) {
                    var12 = 0.0011453192;
                } else {
                    var12 = -0.0005346052;
                }
            } else {
                if (input[11] >= 0.47259295) {
                    var12 = -0.00090293185;
                } else {
                    var12 = -0.0024463153;
                }
            }
        }
    }
    double var13;
    if (input[10] >= 0.43690062) {
        if (input[3] >= 0.61966676) {
            if (input[6] >= 0.6004343) {
                if (input[9] >= 0.4841599) {
                    var13 = 0.0038025565;
                } else {
                    var13 = 0.0022585802;
                }
            } else {
                if (input[1] >= 0.44631907) {
                    var13 = 0.0021731486;
                } else {
                    var13 = 0.0006252715;
                }
            }
        } else {
            if (input[0] >= 0.5984646) {
                if (input[7] >= 0.6008328) {
                    var13 = 0.0024906213;
                } else {
                    var13 = 0.00096045743;
                }
            } else {
                if (input[6] >= 0.49852765) {
                    var13 = 0.0007317473;
                } else {
                    var13 = -0.00076269236;
                }
            }
        }
    } else {
        if (input[0] >= 0.59229386) {
            if (input[1] >= 0.62795186) {
                if (input[6] >= 0.5874807) {
                    var13 = 0.0025330738;
                } else {
                    var13 = 0.0009495699;
                }
            } else {
                if (input[8] >= 0.48855144) {
                    var13 = 0.0006782661;
                } else {
                    var13 = -0.00083759014;
                }
            }
        } else {
            if (input[5] >= 0.6126569) {
                if (input[3] >= 0.44044465) {
                    var13 = 0.00059965457;
                } else {
                    var13 = -0.0009567838;
                }
            } else {
                if (input[1] >= 0.6338701) {
                    var13 = -0.00047799785;
                } else {
                    var13 = -0.0020415594;
                }
            }
        }
    }
    double var14;
    if (input[4] >= 0.59182686) {
        if (input[5] >= 0.5901171) {
            if (input[8] >= 0.4730577) {
                if (input[11] >= 0.414839) {
                    var14 = 0.0035194492;
                } else {
                    var14 = 0.0019358638;
                }
            } else {
                if (input[7] >= 0.41978526) {
                    var14 = 0.0020282427;
                } else {
                    var14 = 0.00040743587;
                }
            }
        } else {
            if (input[1] >= 0.5914066) {
                if (input[6] >= 0.50235885) {
                    var14 = 0.0024558383;
                } else {
                    var14 = 0.00097147026;
                }
            } else {
                if (input[9] >= 0.40476906) {
                    var14 = 0.0007855589;
                } else {
                    var14 = -0.0008045317;
                }
            }
        }
    } else {
        if (input[5] >= 0.44314185) {
            if (input[6] >= 0.6318694) {
                if (input[9] >= 0.41065234) {
                    var14 = 0.0020875398;
                } else {
                    var14 = 0.00051168207;
                }
            } else {
                if (input[10] >= 0.5743557) {
                    var14 = 0.0008801814;
                } else {
                    var14 = -0.0006066117;
                }
            }
        } else {
            if (input[3] >= 0.59285975) {
                if (input[9] >= 0.5004494) {
                    var14 = 0.0006171541;
                } else {
                    var14 = -0.00086097955;
                }
            } else {
                if (input[6] >= 0.49872202) {
                    var14 = -0.0008716535;
                } else {
                    var14 = -0.002347911;
                }
            }
        }
    }
    double var15;
    if (input[2] >= 0.59447765) {
        if (input[10] >= 0.62707925) {
            if (input[1] >= 0.5591934) {
                if (input[0] >= 0.43544668) {
                    var15 = 0.0038113326;
                } else {
                    var15 = 0.0022618389;
                }
            } else {
                if (input[9] >= 0.6381415) {
                    var15 = 0.002810932;
                } else {
                    var15 = 0.0012472996;
                }
            }
        } else {
            if (input[11] >= 0.60623336) {
                if (input[6] >= 0.55806696) {
                    var15 = 0.002647056;
                } else {
                    var15 = 0.0011924943;
                }
            } else {
                if (input[9] >= 0.49542898) {
                    var15 = 0.0010210589;
                } else {
                    var15 = -0.00043619526;
                }
            }
        }
    } else {
        if (input[11] >= 0.5920187) {
            if (input[3] >= 0.5066199) {
                if (input[7] >= 0.6330373) {
                    var15 = 0.0025440434;
                } else {
                    var15 = 0.0010275694;
                }
            } else {
                if (input[10] >= 0.52376443) {
                    var15 = 0.0007938716;
                } else {
                    var15 = -0.00065552513;
                }
            }
        } else {
            if (input[7] >= 0.61348224) {
                if (input[1] >= 0.49052864) {
                    var15 = 0.000969729;
                } else {
                    var15 = -0.00048752362;
                }
            } else {
                if (input[9] >= 0.3914639) {
                    var15 = -0.00069697335;
                } else {
                    var15 = -0.0022706387;
                }
            }
        }
    }
    double var16;
    if (input[0] >= 0.42654744) {
        if (input[4] >= 0.418259) {
            if (input[5] >= 0.4212005) {
                if (input[1] >= 0.4410205) {
                    var16 = 0.002586771;
                } else {
                    var16 = 0.0011204751;
                }
            } else {
                if (input[8] >= 0.59342647) {
                    var16 = 0.0014411729;
                } else {
                    var16 = -0.00002750184;
                }
            }
        } else {
            if (input[2] >= 0.40889293) {
                if (input[1] >= 0.4272005) {
                    var16 = 0.0010628148;
                } else {
                    var16 = -0.00044113997;
                }
            } else {
                if (input[7] >= 0.4122273) {
                    var16 = -0.00046021695;
                } else {
                    var16 = -0.002041051;
                }
            }
        }
    } else {
        if (input[7] >= 0.55057555) {
            if (input[5] >= 0.6216475) {
                if (input[6] >= 0.43749768) {
                    var16 = 0.0017953131;
                } else {
                    var16 = 0.00032935533;
                }
            } else {
                if (input[2] >= 0.57479084) {
                    var16 = 0.0005968058;
                } else {
                    var16 = -0.0008218319;
                }
            }
        } else {
            if (input[8] >= 0.5995413) {
                if (input[1] >= 0.5589453) {
                    var16 = 0.00063722633;
                } else {
                    var16 = -0.0008510846;
                }
            } else {
                if (input[6] >= 0.5900184) {
                    var16 = -0.00081546954;
                } else {
                    var16 = -0.00226844;
                }
            }
        }
    }
    double var17;
    if (input[9] >= 0.6093146) {
        if (input[8] >= 0.5406618) {
            if (input[3] >= 0.4616712) {
                if (input[5] >= 0.5524132) {
                    var17 = 0.0034468456;
                } else {
                    var17 = 0.0020438791;
                }
            } else {
                if (input[10] >= 0.5911323) {
                    var17 = 0.00214501;
                } else {
                    var17 = 0.0006562367;
                }
            }
        } else {
            if (input[7] >= 0.4129834) {
                if (input[10] >= 0.637145) {
                    var17 = 0.002179738;
                } else {
                    var17 = 0.00070826407;
                }
            } else {
                if (input[11] >= 0.3924663) {
                    var17 = 0.00017926184;
                } else {
                    var17 = -0.0014001727;
                }
            }
        }
    } else {
        if (input[8] >= 0.45332515) {
            if (input[11] >= 0.39348575) {
                if (input[0] >= 0.47433364) {
                    var17 = 0.001547394;
                } else {
                    var17 = 0.0001584628;
                }
            } else {
                if (input[10] >= 0.50684404) {
                    var17 = 0.000112932816;
                } else {
                    var17 = -0.0012892073;
                }
            }
        } else {
            if (input[3] >= 0.59188056) {
                if (input[2] >= 0.6332779) {
                    var17 = 0.00095022406;
                } else {
                    var17 = -0.00057881285;
                }
            } else {
                if (input[7] >= 0.40488157) {
                    var17 = -0.0010096515;
                } else {
                    var17 = -0.0025053155;
                }
            }
        }
    }
    double var18;
    if (input[6] >= 0.6050291) {
        if (input[1] >= 0.5877077) {
            if (input[11] >= 0.6312267) {
                if (input[5] >= 0.60936475) {
                    var18 = 0.004075527;
                } else {
                    var18 = 0.0025726557;
                }
            } else {
                if (input[10] >= 0.5104176) {
                    var18 = 0.002324065;
                } else {
                    var18 = 0.000912271;
                }
            }
        } else {
            if (input[4] >= 0.6512696) {
                if (input[5] >= 0.42156857) {
                    var18 = 0.0023272983;
                } else {
                    var18 = 0.0008546176;
                }
            } else {
                if (input[10] >= 0.5661051) {
                    var18 = 0.0010769747;
                } else {
                    var18 = -0.00033868372;
                }
            }
        }
    } else {
        if (input[3] >= 0.46104196) {
            if (input[11] >= 0.39068827) {
                if (input[1] >= 0.5900263) {
                    var18 = 0.0017600725;
                } else {
                    var18 = 0.00035910393;
                }
            } else {
                if (input[8] >= 0.6067122) {
                    var18 = 0.00029531113;
                } else {
                    var18 = -0.001116869;
                }
            }
        } else {
            if (input[5] >= 0.58758986) {
                if (input[1] >= 0.4401439) {
                    var18 = 0.00042882896;
                } else {
                    var18 = -0.0010123492;
                }
            } else {
                if (input[8] >= 0.6364651) {
                    var18 = -0.0005185617;
                } else {
                    var18 = -0.0019622068;
                }
            }
        }
    }
    double var19;
    if (input[7] >= 0.6267078) {
        if (input[2] >= 0.5101128) {
            if (input[0] >= 0.41183108) {
                if (input[11] >= 0.6241086) {
                    var19 = 0.0034404357;
                } else {
                    var19 = 0.0019717652;
                }
            } else {
                if (input[4] >= 0.4069146) {
                    var19 = 0.001519848;
                } else {
                    var19 = -0.000026373396;
                }
            }
        } else {
            if (input[0] >= 0.6087593) {
                if (input[10] >= 0.6368178) {
                    var19 = 0.0024949897;
                } else {
                    var19 = 0.001001954;
                }
            } else {
                if (input[5] >= 0.61112577) {
                    var19 = 0.0009742849;
                } else {
                    var19 = -0.00041569024;
                }
            }
        }
    } else {
        if (input[2] >= 0.42481893) {
            if (input[4] >= 0.44963217) {
                if (input[0] >= 0.616889) {
                    var19 = 0.0018410952;
                } else {
                    var19 = 0.00045918967;
                }
            } else {
                if (input[5] >= 0.6194124) {
                    var19 = 0.00047444488;
                } else {
                    var19 = -0.0009178708;
                }
            }
        } else {
            if (input[0] >= 0.63819385) {
                if (input[10] >= 0.5549225) {
                    var19 = 0.00077658053;
                } else {
                    var19 = -0.0006424458;
                }
            } else {
                if (input[10] >= 0.39674038) {
                    var19 = -0.0010095203;
                } else {
                    var19 = -0.0024942518;
                }
            }
        }
    }
    double var20;
    if (input[9] >= 0.43909988) {
        if (input[11] >= 0.56275547) {
            if (input[8] >= 0.40732205) {
                if (input[10] >= 0.5429958) {
                    var20 = 0.002803324;
                } else {
                    var20 = 0.0014757676;
                }
            } else {
                if (input[10] >= 0.6523386) {
                    var20 = 0.0016978714;
                } else {
                    var20 = 0.00021007804;
                }
            }
        } else {
            if (input[1] >= 0.41904318) {
                if (input[10] >= 0.38345534) {
                    var20 = 0.0012043861;
                } else {
                    var20 = -0.00022408257;
                }
            } else {
                if (input[3] >= 0.6316998) {
                    var20 = 0.00031746487;
                } else {
                    var20 = -0.0011171956;
                }
            }
        }
    } else {
        if (input[3] >= 0.63218695) {
            if (input[8] >= 0.5073067) {
                if (input[7] >= 0.47169858) {
                    var20 = 0.0016801144;
                } else {
                    var20 = 0.0003064741;
                }
            } else {
                if (input[5] >= 0.46046075) {
                    var20 = 0.00031582895;
                } else {
                    var20 = -0.0010918078;
                }
            }
        } else {
            if (input[10] >= 0.45596385) {
                if (input[1] >= 0.390241) {
                    var20 = 0.000027126795;
                } else {
                    var20 = -0.0014480243;
                }
            } else {
                if (input[2] >= 0.49598435) {
                    var20 = -0.0011587165;
                } else {
                    var20 = -0.0025062773;
                }
            }
        }
    }
    double var21;
    if (input[6] >= 0.41924635) {
        if (input[8] >= 0.63365877) {
            if (input[5] >= 0.41848215) {
                if (input[0] >= 0.41371933) {
                    var21 = 0.0027007386;
                } else {
                    var21 = 0.001294458;
                }
            } else {
                if (input[0] >= 0.39323008) {
                    var21 = 0.0012452336;
                } else {
                    var21 = -0.00019747998;
                }
            }
        } else {
            if (input[2] >= 0.6317413) {
                if (input[5] >= 0.5878639) {
                    var21 = 0.0020810484;
                } else {
                    var21 = 0.0007369322;
                }
            } else {
                if (input[0] >= 0.39573157) {
                    var21 = 0.00035514656;
                } else {
                    var21 = -0.0010532982;
                }
            }
        }
    } else {
        if (input[7] >= 0.41992044) {
            if (input[5] >= 0.38262603) {
                if (input[0] >= 0.66768646) {
                    var21 = 0.0014108247;
                } else {
                    var21 = -0.000059167938;
                }
            } else {
                if (input[1] >= 0.5104033) {
                    var21 = -0.00043639552;
                } else {
                    var21 = -0.0018219628;
                }
            }
        } else {
            if (input[1] >= 0.62689906) {
                if (input[9] >= 0.38064384) {
                    var21 = -0.00008756584;
                } else {
                    var21 = -0.001707604;
                }
            } else {
                if (input[2] >= 0.41762477) {
                    var21 = -0.0014655712;
                } else {
                    var21 = -0.0028717723;
                }
            }
        }
    }
    double var22;
    if (input[3] >= 0.40210307) {
        if (input[10] >= 0.626982) {
            if (input[7] >= 0.6313186) {
                if (input[2] >= 0.40896028) {
                    var22 = 0.003025107;
                } else {
                    var22 = 0.0015977306;
                }
            } else {
                if (input[5] >= 0.4538476) {
                    var22 = 0.0017045087;
                } else {
                    var22 = 0.00038312288;
                }
            }
        } else {
            if (input[9] >= 0.60501766) {
                if (input[0] >= 0.45413345) {
                    var22 = 0.0016691615;
                } else {
                    var22 = 0.00034250712;
                }
            } else {
                if (input[5] >= 0.6172864) {
                    var22 = 0.0006696149;
                } else {
                    var22 = -0.00066535885;
                }
            }
        }
    } else {
        if (input[10] >= 0.41697782) {
            if (input[8] >= 0.52051556) {
                if (input[2] >= 0.5001294) {
                    var22 = 0.0010735391;
                } else {
                    var22 = -0.00022690899;
                }
            } else {
                if (input[11] >= 0.66213274) {
                    var22 = 0.00024685997;
                } else {
                    var22 = -0.0012164867;
                }
            }
        } else {
            if (input[11] >= 0.42289242) {
                if (input[6] >= 0.59987545) {
                    var22 = -0.00018115921;
                } else {
                    var22 = -0.0015309356;
                }
            } else {
                if (input[0] >= 0.6459789) {
                    var22 = -0.0014274373;
                } else {
                    var22 = -0.0028484357;
                }
            }
        }
    }
    double var23;
    if (input[4] >= 0.4123971) {
        if (input[7] >= 0.41129112) {
            if (input[11] >= 0.6234923) {
                if (input[1] >= 0.44067523) {
                    var23 = 0.0025649779;
                } else {
                    var23 = 0.0012450167;
                }
            } else {
                if (input[6] >= 0.6408783) {
                    var23 = 0.0016705422;
                } else {
                    var23 = 0.00032690685;
                }
            }
        } else {
            if (input[1] >= 0.6295412) {
                if (input[11] >= 0.38758063) {
                    var23 = 0.001196949;
                } else {
                    var23 = -0.00024781955;
                }
            } else {
                if (input[10] >= 0.64064294) {
                    var23 = 0.00035277914;
                } else {
                    var23 = -0.0010304191;
                }
            }
        }
    } else {
        if (input[1] >= 0.55448437) {
            if (input[11] >= 0.62311757) {
                if (input[0] >= 0.59493816) {
                    var23 = 0.0018162467;
                } else {
                    var23 = 0.0004472255;
                }
            } else {
                if (input[9] >= 0.42225304) {
                    var23 = 0.00010253164;
                } else {
                    var23 = -0.001237866;
                }
            }
        } else {
            if (input[6] >= 0.38930085) {
                if (input[7] >= 0.4140845) {
                    var23 = -0.00030867357;
                } else {
                    var23 = -0.001680613;
                }
            } else {
                if (input[0] >= 0.6097862) {
                    var23 = -0.0013169567;
                } else {
                    var23 = -0.00267636;
                }
            }
        }
    }
    double var24;
    if (input[4] >= 0.6129616) {
        if (input[5] >= 0.3977205) {
            if (input[3] >= 0.6208904) {
                if (input[9] >= 0.49119145) {
                    var24 = 0.0029959728;
                } else {
                    var24 = 0.0016873054;
                }
            } else {
                if (input[8] >= 0.3677584) {
                    var24 = 0.0014733317;
                } else {
                    var24 = 0.000064005384;
                }
            }
        } else {
            if (input[2] >= 0.44015676) {
                if (input[3] >= 0.5220574) {
                    var24 = 0.0013198951;
                } else {
                    var24 = 0.000042482563;
                }
            } else {
                if (input[6] >= 0.45572564) {
                    var24 = -0.00009594942;
                } else {
                    var24 = -0.0014730836;
                }
            }
        }
    } else {
        if (input[2] >= 0.63204527) {
            if (input[1] >= 0.6636309) {
                if (input[5] >= 0.57987815) {
                    var24 = 0.0024289358;
                } else {
                    var24 = 0.001121438;
                }
            } else {
                if (input[8] >= 0.64732945) {
                    var24 = 0.0012188876;
                } else {
                    var24 = -0.00013761847;
                }
            }
        } else {
            if (input[5] >= 0.57313967) {
                if (input[3] >= 0.58245003) {
                    var24 = 0.00086562405;
                } else {
                    var24 = -0.0004260722;
                }
            } else {
                if (input[6] >= 0.3965553) {
                    var24 = -0.0007413964;
                } else {
                    var24 = -0.0020699368;
                }
            }
        }
    }
    double var25;
    if (input[9] >= 0.38222408) {
        if (input[11] >= 0.38949317) {
            if (input[0] >= 0.54421806) {
                if (input[7] >= 0.6070678) {
                    var25 = 0.0025194164;
                } else {
                    var25 = 0.00124477;
                }
            } else {
                if (input[8] >= 0.43707234) {
                    var25 = 0.00096905325;
                } else {
                    var25 = -0.000316628;
                }
            }
        } else {
            if (input[8] >= 0.38279402) {
                if (input[7] >= 0.39615095) {
                    var25 = 0.000546673;
                } else {
                    var25 = -0.00081192673;
                }
            } else {
                if (input[10] >= 0.4479491) {
                    var25 = -0.00072488294;
                } else {
                    var25 = -0.0020879204;
                }
            }
        }
    } else {
        if (input[0] >= 0.62386763) {
            if (input[7] >= 0.3671199) {
                if (input[11] >= 0.6365937) {
                    var25 = 0.0014491247;
                } else {
                    var25 = 0.000099304736;
                }
            } else {
                if (input[2] >= 0.65577257) {
                    var25 = 0.000111970694;
                } else {
                    var25 = -0.001295089;
                }
            }
        } else {
            if (input[11] >= 0.6792129) {
                if (input[4] >= 0.49985194) {
                    var25 = 0.00049405085;
                } else {
                    var25 = -0.00077320763;
                }
            } else {
                if (input[8] >= 0.5876017) {
                    var25 = -0.0007705648;
                } else {
                    var25 = -0.0020193753;
                }
            }
        }
    }
    double var26;
    if (input[1] >= 0.43987024) {
        if (input[6] >= 0.64698493) {
            if (input[3] >= 0.65325963) {
                if (input[11] >= 0.4151331) {
                    var26 = 0.0030196721;
                } else {
                    var26 = 0.0016436237;
                }
            } else {
                if (input[4] >= 0.558993) {
                    var26 = 0.0018939245;
                } else {
                    var26 = 0.00066241785;
                }
            }
        } else {
            if (input[2] >= 0.4059253) {
                if (input[10] >= 0.64598215) {
                    var26 = 0.001635813;
                } else {
                    var26 = 0.00033860205;
                }
            } else {
                if (input[10] >= 0.40130404) {
                    var26 = -0.0001478027;
                } else {
                    var26 = -0.0014681444;
                }
            }
        }
    } else {
        if (input[2] >= 0.37157053) {
            if (input[10] >= 0.39833072) {
                if (input[3] >= 0.6233959) {
                    var26 = 0.0011141426;
                } else {
                    var26 = -0.00018275005;
                }
            } else {
                if (input[3] >= 0.5903264) {
                    var26 = -0.00030390944;
                } else {
                    var26 = -0.0015626847;
                }
            }
        } else {
            if (input[10] >= 0.57372224) {
                if (input[0] >= 0.40799826) {
                    var26 = -0.00035832482;
                } else {
                    var26 = -0.0017387737;
                }
            } else {
                if (input[4] >= 0.521044) {
                    var26 = -0.0014431243;
                } else {
                    var26 = -0.0027278;
                }
            }
        }
    }
    double var27;
    if (input[9] >= 0.6453583) {
        if (input[7] >= 0.4202439) {
            if (input[8] >= 0.63329005) {
                if (input[0] >= 0.43677327) {
                    var27 = 0.0028831754;
                } else {
                    var27 = 0.0015837067;
                }
            } else {
                if (input[1] >= 0.6801898) {
                    var27 = 0.0021041487;
                } else {
                    var27 = 0.0007699263;
                }
            }
        } else {
            if (input[0] >= 0.62311995) {
                if (input[5] >= 0.65864396) {
                    var27 = 0.002116843;
                } else {
                    var27 = 0.0007067068;
                }
            } else {
                if (input[3] >= 0.50616515) {
                    var27 = 0.00042366466;
                } else {
                    var27 = -0.0008151594;
                }
            }
        }
    } else {
        if (input[5] >= 0.43538016) {
            if (input[4] >= 0.6629938) {
                if (input[2] >= 0.63931644) {
                    var27 = 0.0020706847;
                } else {
                    var27 = 0.0008091678;
                }
            } else {
                if (input[1] >= 0.6595971) {
                    var27 = 0.0008318255;
                } else {
                    var27 = -0.00047032506;
                }
            }
        } else {
            if (input[4] >= 0.5246254) {
                if (input[0] >= 0.3803739) {
                    var27 = 0.00005782617;
                } else {
                    var27 = -0.0012920395;
                }
            } else {
                if (input[0] >= 0.46521017) {
                    var27 = -0.0010363664;
                } else {
                    var27 = -0.002284455;
                }
            }
        }
    }
    double var28;
    if (input[6] >= 0.38886118) {
        if (input[3] >= 0.40210694) {
            if (input[11] >= 0.6506659) {
                if (input[10] >= 0.42388082) {
                    var28 = 0.0023318632;
                } else {
                    var28 = 0.0010612054;
                }
            } else {
                if (input[10] >= 0.5819523) {
                    var28 = 0.001311055;
                } else {
                    var28 = 0.00012487445;
                }
            }
        } else {
            if (input[5] >= 0.6236081) {
                if (input[4] >= 0.34998465) {
                    var28 = 0.00089709304;
                } else {
                    var28 = -0.00048010176;
                }
            } else {
                if (input[0] >= 0.6604289) {
                    var28 = 0.00022715014;
                } else {
                    var28 = -0.0010747965;
                }
            }
        }
    } else {
        if (input[2] >= 0.6693586) {
            if (input[5] >= 0.6650425) {
                if (input[11] >= 0.41145843) {
                    var28 = 0.0016393369;
                } else {
                    var28 = 0.00025694526;
                }
            } else {
                if (input[4] >= 0.6531555) {
                    var28 = 0.0008121728;
                } else {
                    var28 = -0.0005303;
                }
            }
        } else {
            if (input[3] >= 0.62920547) {
                if (input[0] >= 0.67662364) {
                    var28 = 0.0007918941;
                } else {
                    var28 = -0.00058625406;
                }
            } else {
                if (input[10] >= 0.33107415) {
                    var28 = -0.0011329433;
                } else {
                    var28 = -0.0025655997;
                }
            }
        }
    }
    double var29;
    if (input[8] >= 0.38509926) {
        if (input[1] >= 0.64279205) {
            if (input[0] >= 0.59546417) {
                if (input[2] >= 0.64324653) {
                    var29 = 0.0030388853;
                } else {
                    var29 = 0.0017611949;
                }
            } else {
                if (input[10] >= 0.6019162) {
                    var29 = 0.0016978432;
                } else {
                    var29 = 0.000510723;
                }
            }
        } else {
            if (input[11] >= 0.3938685) {
                if (input[6] >= 0.6417358) {
                    var29 = 0.0014240651;
                } else {
                    var29 = 0.00018972183;
                }
            } else {
                if (input[2] >= 0.64574075) {
                    var29 = 0.00018719527;
                } else {
                    var29 = -0.0010791197;
                }
            }
        }
    } else {
        if (input[4] >= 0.3977502) {
            if (input[5] >= 0.6596463) {
                if (input[9] >= 0.42805827) {
                    var29 = 0.0010462895;
                } else {
                    var29 = -0.00023655666;
                }
            } else {
                if (input[10] >= 0.6492771) {
                    var29 = 0.00019577202;
                } else {
                    var29 = -0.0010672254;
                }
            }
        } else {
            if (input[11] >= 0.52073157) {
                if (input[6] >= 0.47782987) {
                    var29 = -0.00044300783;
                } else {
                    var29 = -0.0016146547;
                }
            } else {
                if (input[9] >= 0.6712962) {
                    var29 = -0.0011722383;
                } else {
                    var29 = -0.0025395823;
                }
            }
        }
    }
    double var30;
    if (input[7] >= 0.6375905) {
        if (input[4] >= 0.3637346) {
            if (input[8] >= 0.6169659) {
                if (input[5] >= 0.35756108) {
                    var30 = 0.002483822;
                } else {
                    var30 = 0.0011459353;
                }
            } else {
                if (input[9] >= 0.51213765) {
                    var30 = 0.0014896856;
                } else {
                    var30 = 0.0003547855;
                }
            }
        } else {
            if (input[1] >= 0.5000274) {
                if (input[11] >= 0.6571127) {
                    var30 = 0.0015221802;
                } else {
                    var30 = 0.00022027567;
                }
            } else {
                if (input[5] >= 0.60470366) {
                    var30 = 0.00021336944;
                } else {
                    var30 = -0.0010301367;
                }
            }
        }
    } else {
        if (input[8] >= 0.6668439) {
            if (input[3] >= 0.5373237) {
                if (input[1] >= 0.4616476) {
                    var30 = 0.0018033354;
                } else {
                    var30 = 0.00057626906;
                }
            } else {
                if (input[11] >= 0.35238963) {
                    var30 = 0.00047516864;
                } else {
                    var30 = -0.0008968131;
                }
            }
        } else {
            if (input[9] >= 0.6458427) {
                if (input[5] >= 0.46979743) {
                    var30 = 0.00077752053;
                } else {
                    var30 = -0.00044924804;
                }
            } else {
                if (input[11] >= 0.4737633) {
                    var30 = -0.00045929092;
                } else {
                    var30 = -0.0016099245;
                }
            }
        }
    }
    double var31;
    if (input[0] >= 0.37259984) {
        if (input[2] >= 0.3617679) {
            if (input[3] >= 0.6491541) {
                if (input[6] >= 0.6888477) {
                    var31 = 0.0026850118;
                } else {
                    var31 = 0.0013754681;
                }
            } else {
                if (input[6] >= 0.6394466) {
                    var31 = 0.0012906695;
                } else {
                    var31 = 0.00011523413;
                }
            }
        } else {
            if (input[5] >= 0.63135946) {
                if (input[6] >= 0.49601546) {
                    var31 = 0.00093327626;
                } else {
                    var31 = -0.00025689224;
                }
            } else {
                if (input[3] >= 0.5914234) {
                    var31 = -0.00012873113;
                } else {
                    var31 = -0.0012970283;
                }
            }
        }
    } else {
        if (input[11] >= 0.6237465) {
            if (input[2] >= 0.6318815) {
                if (input[6] >= 0.5580996) {
                    var31 = 0.0015017204;
                } else {
                    var31 = 0.00032345118;
                }
            } else {
                if (input[7] >= 0.5668149) {
                    var31 = 0.0002764801;
                } else {
                    var31 = -0.0008980144;
                }
            }
        } else {
            if (input[7] >= 0.35584313) {
                if (input[1] >= 0.34956434) {
                    var31 = -0.00048226374;
                } else {
                    var31 = -0.0018091901;
                }
            } else {
                if (input[1] >= 0.4215693) {
                    var31 = -0.0016964319;
                } else {
                    var31 = -0.0029438795;
                }
            }
        }
    }
    double var32;
    if (input[5] >= 0.35357934) {
        if (input[10] >= 0.38242492) {
            if (input[1] >= 0.34249696) {
                if (input[4] >= 0.67405033) {
                    var32 = 0.0020415264;
                } else {
                    var32 = 0.00081414595;
                }
            } else {
                if (input[2] >= 0.6847889) {
                    var32 = 0.0008031842;
                } else {
                    var32 = -0.00049011747;
                }
            }
        } else {
            if (input[9] >= 0.37829447) {
                if (input[4] >= 0.36415255) {
                    var32 = 0.00033364818;
                } else {
                    var32 = -0.00094876584;
                }
            } else {
                if (input[2] >= 0.5017487) {
                    var32 = -0.0007269111;
                } else {
                    var32 = -0.0018763352;
                }
            }
        }
    } else {
        if (input[4] >= 0.5177456) {
            if (input[1] >= 0.3867626) {
                if (input[10] >= 0.6821947) {
                    var32 = 0.0010762857;
                } else {
                    var32 = -0.00017982438;
                }
            } else {
                if (input[8] >= 0.33353505) {
                    var32 = -0.0007774445;
                } else {
                    var32 = -0.0022581087;
                }
            }
        } else {
            if (input[10] >= 0.36372256) {
                if (input[1] >= 0.35246995) {
                    var32 = -0.00069923536;
                } else {
                    var32 = -0.0020107809;
                }
            } else {
                if (input[8] >= 0.70048904) {
                    var32 = -0.0012901772;
                } else {
                    var32 = -0.0026171273;
                }
            }
        }
    }
    double var33;
    if (input[7] >= 0.3724887) {
        if (input[0] >= 0.67065763) {
            if (input[5] >= 0.62170255) {
                if (input[6] >= 0.67609704) {
                    var33 = 0.0030837627;
                } else {
                    var33 = 0.0017861817;
                }
            } else {
                if (input[3] >= 0.6459727) {
                    var33 = 0.0017995976;
                } else {
                    var33 = 0.0006022386;
                }
            }
        } else {
            if (input[3] >= 0.4045054) {
                if (input[8] >= 0.38894004) {
                    var33 = 0.00089900923;
                } else {
                    var33 = -0.00030923603;
                }
            } else {
                if (input[10] >= 0.6669315) {
                    var33 = 0.00023497801;
                } else {
                    var33 = -0.0009798334;
                }
            }
        }
    } else {
        if (input[4] >= 0.35112768) {
            if (input[11] >= 0.67314315) {
                if (input[3] >= 0.35086292) {
                    var33 = 0.0007858525;
                } else {
                    var33 = -0.0005265154;
                }
            } else {
                if (input[1] >= 0.44853532) {
                    var33 = -0.00030832677;
                } else {
                    var33 = -0.0014453802;
                }
            }
        } else {
            if (input[10] >= 0.32988092) {
                if (input[0] >= 0.64372724) {
                    var33 = -0.00060877245;
                } else {
                    var33 = -0.0017943941;
                }
            } else {
                if (input[1] >= 0.6896696) {
                    var33 = -0.0016526415;
                } else {
                    var33 = -0.0031830769;
                }
            }
        }
    }
    double var34;
    if (input[2] >= 0.6623118) {
        if (input[0] >= 0.62348807) {
            if (input[11] >= 0.37061164) {
                if (input[9] >= 0.68316317) {
                    var34 = 0.0029752916;
                } else {
                    var34 = 0.0017389538;
                }
            } else {
                if (input[6] >= 0.65757024) {
                    var34 = 0.0017654987;
                } else {
                    var34 = 0.0004033393;
                }
            }
        } else {
            if (input[6] >= 0.39256436) {
                if (input[7] >= 0.6711228) {
                    var34 = 0.0018195978;
                } else {
                    var34 = 0.0006209644;
                }
            } else {
                if (input[7] >= 0.3620387) {
                    var34 = 0.00010529398;
                } else {
                    var34 = -0.0012180768;
                }
            }
        }
    } else {
        if (input[9] >= 0.53471565) {
            if (input[10] >= 0.6654816) {
                if (input[6] >= 0.6798109) {
                    var34 = 0.002118737;
                } else {
                    var34 = 0.0008855747;
                }
            } else {
                if (input[11] >= 0.7032846) {
                    var34 = 0.000989116;
                } else {
                    var34 = -0.00028562476;
                }
            }
        } else {
            if (input[6] >= 0.6277461) {
                if (input[11] >= 0.35175145) {
                    var34 = 0.00034174314;
                } else {
                    var34 = -0.00095580705;
                }
            } else {
                if (input[1] >= 0.66132605) {
                    var34 = -0.00027614878;
                } else {
                    var34 = -0.0014451916;
                }
            }
        }
    }
    double var35;
    if (input[5] >= 0.66574025) {
        if (input[8] >= 0.6551318) {
            if (input[3] >= 0.698956) {
                if (input[11] >= 0.7260384) {
                    var35 = 0.003967111;
                } else {
                    var35 = 0.0024948393;
                }
            } else {
                if (input[2] >= 0.3799991) {
                    var35 = 0.0018423995;
                } else {
                    var35 = 0.0006060974;
                }
            }
        } else {
            if (input[3] >= 0.43794706) {
                if (input[10] >= 0.34710538) {
                    var35 = 0.0013461676;
                } else {
                    var35 = 0.000055439858;
                }
            } else {
                if (input[11] >= 0.47423464) {
                    var35 = 0.00037598;
                } else {
                    var35 = -0.0007300551;
                }
            }
        }
    } else {
        if (input[8] >= 0.6003529) {
            if (input[0] >= 0.7122495) {
                if (input[1] >= 0.5697737) {
                    var35 = 0.0021169914;
                } else {
                    var35 = 0.0009667759;
                }
            } else {
                if (input[11] >= 0.36925155) {
                    var35 = 0.00050637376;
                } else {
                    var35 = -0.00067029457;
                }
            }
        } else {
            if (input[6] >= 0.38921487) {
                if (input[2] >= 0.3617544) {
                    var35 = 0.00006100464;
                } else {
                    var35 = -0.0011549554;
                }
            } else {
                if (input[3] >= 0.3838668) {
                    var35 = -0.0010765627;
                } else {
                    var35 = -0.0022606424;
                }
            }
        }
    }
    double var36;
    if (input[7] >= 0.67108667) {
        if (input[3] >= 0.6269132) {
            if (input[0] >= 0.6231859) {
                if (input[8] >= 0.33039472) {
                    var36 = 0.0027213164;
                } else {
                    var36 = 0.0013952442;
                }
            } else {
                if (input[10] >= 0.4112728) {
                    var36 = 0.0016873964;
                } else {
                    var36 = 0.00055919925;
                }
            }
        } else {
            if (input[0] >= 0.34361377) {
                if (input[9] >= 0.6703288) {
                    var36 = 0.0017359711;
                } else {
                    var36 = 0.00056286895;
                }
            } else {
                if (input[9] >= 0.7115489) {
                    var36 = 0.00062117155;
                } else {
                    var36 = -0.0006585252;
                }
            }
        }
    } else {
        if (input[9] >= 0.36353093) {
            if (input[8] >= 0.3726384) {
                if (input[10] >= 0.66544443) {
                    var36 = 0.0012815706;
                } else {
                    var36 = 0.000122060206;
                }
            } else {
                if (input[1] >= 0.6740124) {
                    var36 = 0.00018669241;
                } else {
                    var36 = -0.0010662625;
                }
            }
        } else {
            if (input[6] >= 0.5539533) {
                if (input[1] >= 0.6689719) {
                    var36 = 0.00042271556;
                } else {
                    var36 = -0.0008275811;
                }
            } else {
                if (input[0] >= 0.41122514) {
                    var36 = -0.0011934576;
                } else {
                    var36 = -0.0023310718;
                }
            }
        }
    }
    double var37;
    if (input[4] >= 0.6566275) {
        if (input[9] >= 0.6457923) {
            if (input[3] >= 0.6896434) {
                if (input[6] >= 0.2900232) {
                    var37 = 0.0028835007;
                } else {
                    var37 = 0.0013340522;
                }
            } else {
                if (input[1] >= 0.66930676) {
                    var37 = 0.0022396233;
                } else {
                    var37 = 0.001074879;
                }
            }
        } else {
            if (input[1] >= 0.4051865) {
                if (input[3] >= 0.33954924) {
                    var37 = 0.0012154534;
                } else {
                    var37 = -0.000031126605;
                }
            } else {
                if (input[10] >= 0.34571597) {
                    var37 = 0.00011903633;
                } else {
                    var37 = -0.0011523678;
                }
            }
        }
    } else {
        if (input[11] >= 0.43777454) {
            if (input[1] >= 0.64582896) {
                if (input[10] >= 0.6694721) {
                    var37 = 0.0018021923;
                } else {
                    var37 = 0.0006023477;
                }
            } else {
                if (input[3] >= 0.36773837) {
                    var37 = 0.00014795545;
                } else {
                    var37 = -0.0010109309;
                }
            }
        } else {
            if (input[3] >= 0.6624385) {
                if (input[1] >= 0.39520678) {
                    var37 = 0.00027720985;
                } else {
                    var37 = -0.00089019747;
                }
            } else {
                if (input[1] >= 0.37395614) {
                    var37 = -0.0009217559;
                } else {
                    var37 = -0.0021076677;
                }
            }
        }
    }
    double var38;
    if (input[2] >= 0.46556997) {
        if (input[4] >= 0.3544386) {
            if (input[10] >= 0.6013146) {
                if (input[6] >= 0.3309868) {
                    var38 = 0.0017638315;
                } else {
                    var38 = 0.0005230876;
                }
            } else {
                if (input[8] >= 0.36650386) {
                    var38 = 0.00074854615;
                } else {
                    var38 = -0.00041117962;
                }
            }
        } else {
            if (input[6] >= 0.71885735) {
                if (input[5] >= 0.69591737) {
                    var38 = 0.0016261808;
                } else {
                    var38 = 0.00033887647;
                }
            } else {
                if (input[3] >= 0.67031574) {
                    var38 = 0.00022188312;
                } else {
                    var38 = -0.0009358913;
                }
            }
        }
    } else {
        if (input[6] >= 0.34869015) {
            if (input[11] >= 0.3318808) {
                if (input[10] >= 0.35296047) {
                    var38 = 0.0003650951;
                } else {
                    var38 = -0.00082431425;
                }
            } else {
                if (input[3] >= 0.51333666) {
                    var38 = -0.0006396672;
                } else {
                    var38 = -0.001707255;
                }
            }
        } else {
            if (input[4] >= 0.35186392) {
                if (input[10] >= 0.6661777) {
                    var38 = -0.00026346152;
                } else {
                    var38 = -0.001426076;
                }
            } else {
                if (input[9] >= 0.62202287) {
                    var38 = -0.0015830918;
                } else {
                    var38 = -0.002741365;
                }
            }
        }
    }
    double var39;
    if (input[11] >= 0.67428875) {
        if (input[7] >= 0.42356372) {
            if (input[8] >= 0.31916684) {
                if (input[9] >= 0.6945065) {
                    var39 = 0.0024330697;
                } else {
                    var39 = 0.0012668621;
                }
            } else {
                if (input[2] >= 0.3248101) {
                    var39 = 0.000585533;
                } else {
                    var39 = -0.000742566;
                }
            }
        } else {
            if (input[9] >= 0.6574758) {
                if (input[2] >= 0.7105093) {
                    var39 = 0.002005335;
                } else {
                    var39 = 0.0007165801;
                }
            } else {
                if (input[3] >= 0.35669455) {
                    var39 = 0.00017938005;
                } else {
                    var39 = -0.0010274573;
                }
            }
        }
    } else {
        if (input[7] >= 0.57338744) {
            if (input[6] >= 0.68549883) {
                if (input[8] >= 0.47623968) {
                    var39 = 0.0016544831;
                } else {
                    var39 = 0.00061302265;
                }
            } else {
                if (input[1] >= 0.620443) {
                    var39 = 0.0007510032;
                } else {
                    var39 = -0.0002925057;
                }
            }
        } else {
            if (input[3] >= 0.6976373) {
                if (input[1] >= 0.36889535) {
                    var39 = 0.000566982;
                } else {
                    var39 = -0.0006292323;
                }
            } else {
                if (input[9] >= 0.68140507) {
                    var39 = -0.00007272611;
                } else {
                    var39 = -0.0012151493;
                }
            }
        }
    }
    double var40;
    if (input[0] >= 0.36796618) {
        if (input[5] >= 0.38392782) {
            if (input[9] >= 0.33995804) {
                if (input[10] >= 0.4013167) {
                    var40 = 0.0013447534;
                } else {
                    var40 = 0.00027700103;
                }
            } else {
                if (input[4] >= 0.3918374) {
                    var40 = 0.00017668965;
                } else {
                    var40 = -0.0009320966;
                }
            }
        } else {
            if (input[7] >= 0.41414863) {
                if (input[11] >= 0.3470384) {
                    var40 = 0.0002487003;
                } else {
                    var40 = -0.0009077768;
                }
            } else {
                if (input[6] >= 0.6924461) {
                    var40 = -0.00018536484;
                } else {
                    var40 = -0.0013948008;
                }
            }
        }
    } else {
        if (input[4] >= 0.40666366) {
            if (input[5] >= 0.50924784) {
                if (input[8] >= 0.7073813) {
                    var40 = 0.0010469788;
                } else {
                    var40 = -0.00018010409;
                }
            } else {
                if (input[6] >= 0.65204084) {
                    var40 = -0.00013147319;
                } else {
                    var40 = -0.0012595345;
                }
            }
        } else {
            if (input[7] >= 0.66518044) {
                if (input[11] >= 0.45021766) {
                    var40 = -0.00021236954;
                } else {
                    var40 = -0.0013239932;
                }
            } else {
                if (input[10] >= 0.548072) {
                    var40 = -0.0012272396;
                } else {
                    var40 = -0.0022831594;
                }
            }
        }
    }
    double var41;
    if (input[0] >= 0.67283726) {
        if (input[4] >= 0.35529083) {
            if (input[3] >= 0.38063443) {
                if (input[6] >= 0.6002494) {
                    var41 = 0.00213457;
                } else {
                    var41 = 0.0010956251;
                }
            } else {
                if (input[10] >= 0.42675018) {
                    var41 = 0.0007593084;
                } else {
                    var41 = -0.00026341045;
                }
            }
        } else {
            if (input[6] >= 0.5953841) {
                if (input[8] >= 0.68411875) {
                    var41 = 0.0015324445;
                } else {
                    var41 = 0.00035495777;
                }
            } else {
                if (input[3] >= 0.31700322) {
                    var41 = -0.00013893211;
                } else {
                    var41 = -0.001506379;
                }
            }
        }
    } else {
        if (input[2] >= 0.6938509) {
            if (input[1] >= 0.67629135) {
                if (input[11] >= 0.60599065) {
                    var41 = 0.0020887381;
                } else {
                    var41 = 0.0010387729;
                }
            } else {
                if (input[10] >= 0.5319011) {
                    var41 = 0.0008510012;
                } else {
                    var41 = -0.00013154533;
                }
            }
        } else {
            if (input[8] >= 0.66215545) {
                if (input[1] >= 0.3544035) {
                    var41 = 0.0005670173;
                } else {
                    var41 = -0.0005957219;
                }
            } else {
                if (input[7] >= 0.3439954) {
                    var41 = -0.0005265578;
                } else {
                    var41 = -0.0016784495;
                }
            }
        }
    }
    double var42;
    if (input[5] >= 0.68312174) {
        if (input[6] >= 0.42147297) {
            if (input[2] >= 0.3232335) {
                if (input[1] >= 0.38548496) {
                    var42 = 0.0018248813;
                } else {
                    var42 = 0.0007447634;
                }
            } else {
                if (input[4] >= 0.71662617) {
                    var42 = 0.0012749684;
                } else {
                    var42 = 0.00002019116;
                }
            }
        } else {
            if (input[11] >= 0.33042353) {
                if (input[3] >= 0.33718693) {
                    var42 = 0.0007620386;
                } else {
                    var42 = -0.00047193913;
                }
            } else {
                if (input[4] >= 0.68483126) {
                    var42 = 0.00009743706;
                } else {
                    var42 = -0.0010879927;
                }
            }
        }
    } else {
        if (input[4] >= 0.69168437) {
            if (input[6] >= 0.34882247) {
                if (input[9] >= 0.32456547) {
                    var42 = 0.0011724865;
                } else {
                    var42 = -0.000040778505;
                }
            } else {
                if (input[2] >= 0.35760093) {
                    var42 = 0.00006126736;
                } else {
                    var42 = -0.0010781706;
                }
            }
        } else {
            if (input[3] >= 0.33926356) {
                if (input[2] >= 0.3214677) {
                    var42 = 0.000039240513;
                } else {
                    var42 = -0.0011417419;
                }
            } else {
                if (input[6] >= 0.4672037) {
                    var42 = -0.0009377247;
                } else {
                    var42 = -0.0019501456;
                }
            }
        }
    }
    double var43;
    if (input[8] >= 0.3273091) {
        if (input[10] >= 0.68463) {
            if (input[6] >= 0.6802442) {
                if (input[5] >= 0.3404936) {
                    var43 = 0.0022071893;
                } else {
                    var43 = 0.0009983002;
                }
            } else {
                if (input[4] >= 0.45963493) {
                    var43 = 0.0012446214;
                } else {
                    var43 = 0.00025308496;
                }
            }
        } else {
            if (input[9] >= 0.66778576) {
                if (input[2] >= 0.35399145) {
                    var43 = 0.0010943302;
                } else {
                    var43 = -0.000035573674;
                }
            } else {
                if (input[5] >= 0.34208596) {
                    var43 = 0.00001857679;
                } else {
                    var43 = -0.0011008555;
                }
            }
        }
    } else {
        if (input[11] >= 0.36205015) {
            if (input[9] >= 0.37040478) {
                if (input[2] >= 0.40300733) {
                    var43 = 0.0000959243;
                } else {
                    var43 = -0.00094620406;
                }
            } else {
                if (input[6] >= 0.27599955) {
                    var43 = -0.001087723;
                } else {
                    var43 = -0.0024816154;
                }
            }
        } else {
            if (input[9] >= 0.42519617) {
                if (input[7] >= 0.4662453) {
                    var43 = -0.0008317507;
                } else {
                    var43 = -0.0018597998;
                }
            } else {
                if (input[3] >= 0.6207465) {
                    var43 = -0.0016790669;
                } else {
                    var43 = -0.0027972339;
                }
            }
        }
    }
    double var44;
    if (input[1] >= 0.35256737) {
        if (input[11] >= 0.33103526) {
            if (input[7] >= 0.38141665) {
                if (input[9] >= 0.3151672) {
                    var44 = 0.0011356631;
                } else {
                    var44 = -0.00003745185;
                }
            } else {
                if (input[0] >= 0.30801436) {
                    var44 = 0.00009037688;
                } else {
                    var44 = -0.0011185602;
                }
            }
        } else {
            if (input[0] >= 0.5615556) {
                if (input[10] >= 0.3309943) {
                    var44 = 0.00027549494;
                } else {
                    var44 = -0.00093658717;
                }
            } else {
                if (input[9] >= 0.34484655) {
                    var44 = -0.0007056982;
                } else {
                    var44 = -0.0018086806;
                }
            }
        }
    } else {
        if (input[10] >= 0.32990864) {
            if (input[3] >= 0.70214796) {
                if (input[7] >= 0.58845043) {
                    var44 = 0.00095830776;
                } else {
                    var44 = -0.000067307716;
                }
            } else {
                if (input[0] >= 0.46376264) {
                    var44 = -0.00036994345;
                } else {
                    var44 = -0.0013406199;
                }
            }
        } else {
            if (input[11] >= 0.6782803) {
                if (input[3] >= 0.75437856) {
                    var44 = 0.00040277175;
                } else {
                    var44 = -0.0010998251;
                }
            } else {
                if (input[7] >= 0.6361723) {
                    var44 = -0.0012742763;
                } else {
                    var44 = -0.002329161;
                }
            }
        }
    }
    double var45;
    if (input[4] >= 0.33751985) {
        if (input[1] >= 0.69648933) {
            if (input[6] >= 0.67096233) {
                if (input[9] >= 0.718017) {
                    var45 = 0.00282264;
                } else {
                    var45 = 0.0016743793;
                }
            } else {
                if (input[10] >= 0.4435314) {
                    var45 = 0.0012201027;
                } else {
                    var45 = 0.00023739223;
                }
            }
        } else {
            if (input[2] >= 0.6012262) {
                if (input[3] >= 0.43673378) {
                    var45 = 0.0010115651;
                } else {
                    var45 = 0.00003767232;
                }
            } else {
                if (input[5] >= 0.3979482) {
                    var45 = 0.000014969962;
                } else {
                    var45 = -0.001002999;
                }
            }
        }
    } else {
        if (input[6] >= 0.58998597) {
            if (input[9] >= 0.71776015) {
                if (input[1] >= 0.31795114) {
                    var45 = 0.00094850175;
                } else {
                    var45 = -0.00027838818;
                }
            } else {
                if (input[0] >= 0.40872324) {
                    var45 = -0.00010938052;
                } else {
                    var45 = -0.0011558671;
                }
            }
        } else {
            if (input[1] >= 0.6878536) {
                if (input[10] >= 0.73543155) {
                    var45 = 0.0006721819;
                } else {
                    var45 = -0.00059839175;
                }
            } else {
                if (input[2] >= 0.69804454) {
                    var45 = -0.00058278174;
                } else {
                    var45 = -0.0017175341;
                }
            }
        }
    }
    double var46;
    if (input[8] >= 0.70691895) {
        if (input[11] >= 0.68627465) {
            if (input[6] >= 0.36102253) {
                if (input[2] >= 0.7004165) {
                    var46 = 0.0028605112;
                } else {
                    var46 = 0.0017161681;
                }
            } else {
                if (input[7] >= 0.54569006) {
                    var46 = 0.001428076;
                } else {
                    var46 = 0.00036725643;
                }
            }
        } else {
            if (input[0] >= 0.68258995) {
                if (input[2] >= 0.47924298) {
                    var46 = 0.001824896;
                } else {
                    var46 = 0.0008446311;
                }
            } else {
                if (input[6] >= 0.6938696) {
                    var46 = 0.0011651233;
                } else {
                    var46 = 0.00008322462;
                }
            }
        }
    } else {
        if (input[3] >= 0.62266624) {
            if (input[11] >= 0.71279013) {
                if (input[7] >= 0.7150691) {
                    var46 = 0.0022212323;
                } else {
                    var46 = 0.0010779119;
                }
            } else {
                if (input[6] >= 0.71479285) {
                    var46 = 0.0010751092;
                } else {
                    var46 = -0.000057513495;
                }
            }
        } else {
            if (input[0] >= 0.65632415) {
                if (input[2] >= 0.6846774) {
                    var46 = 0.00095987844;
                } else {
                    var46 = -0.00009611084;
                }
            } else {
                if (input[7] >= 0.6650092) {
                    var46 = -0.00009717338;
                } else {
                    var46 = -0.001111632;
                }
            }
        }
    }
    double var47;
    if (input[6] >= 0.334522) {
        if (input[4] >= 0.71504104) {
            if (input[5] >= 0.65009713) {
                if (input[3] >= 0.55199647) {
                    var47 = 0.0023918117;
                } else {
                    var47 = 0.0014095491;
                }
            } else {
                if (input[1] >= 0.5615916) {
                    var47 = 0.0013591181;
                } else {
                    var47 = 0.00042462238;
                }
            }
        } else {
            if (input[10] >= 0.3972639) {
                if (input[7] >= 0.6932911) {
                    var47 = 0.0011511954;
                } else {
                    var47 = 0.00011303589;
                }
            } else {
                if (input[3] >= 0.64900875) {
                    var47 = 0.00007207727;
                } else {
                    var47 = -0.00090888736;
                }
            }
        }
    } else {
        if (input[10] >= 0.6920764) {
            if (input[3] >= 0.72774196) {
                if (input[1] >= 0.29992378) {
                    var47 = 0.0011820288;
                } else {
                    var47 = -0.0001919878;
                }
            } else {
                if (input[5] >= 0.7049935) {
                    var47 = 0.0006236194;
                } else {
                    var47 = -0.00047208095;
                }
            }
        } else {
            if (input[5] >= 0.30145913) {
                if (input[11] >= 0.7073324) {
                    var47 = 0.000034553883;
                } else {
                    var47 = -0.0010762954;
                }
            } else {
                if (input[4] >= 0.69437337) {
                    var47 = -0.0011556975;
                } else {
                    var47 = -0.0023034867;
                }
            }
        }
    }
    double var48;
    if (input[0] >= 0.31752068) {
        if (input[1] >= 0.3155585) {
            if (input[11] >= 0.5917795) {
                if (input[8] >= 0.3387929) {
                    var48 = 0.001303672;
                } else {
                    var48 = 0.0002388623;
                }
            } else {
                if (input[2] >= 0.6844697) {
                    var48 = 0.0009002013;
                } else {
                    var48 = -0.00011471127;
                }
            }
        } else {
            if (input[9] >= 0.714392) {
                if (input[2] >= 0.40223327) {
                    var48 = 0.0005813142;
                } else {
                    var48 = -0.00049740524;
                }
            } else {
                if (input[8] >= 0.32864347) {
                    var48 = -0.00061331433;
                } else {
                    var48 = -0.0017371435;
                }
            }
        }
    } else {
        if (input[3] >= 0.3108455) {
            if (input[9] >= 0.3282846) {
                if (input[2] >= 0.39098263) {
                    var48 = -0.000067070854;
                } else {
                    var48 = -0.0010489246;
                }
            } else {
                if (input[2] >= 0.30615962) {
                    var48 = -0.0012358421;
                } else {
                    var48 = -0.0024463004;
                }
            }
        } else {
            if (input[2] >= 0.32526654) {
                if (input[11] >= 0.69960976) {
                    var48 = -0.00069144444;
                } else {
                    var48 = -0.0017778941;
                }
            } else {
                if (input[6] >= 0.38656044) {
                    var48 = -0.0023578408;
                } else {
                    var48 = -0.0033622433;
                }
            }
        }
    }
    double var49;
    if (input[7] >= 0.3239811) {
        if (input[10] >= 0.73455596) {
            if (input[8] >= 0.6694497) {
                if (input[3] >= 0.31528264) {
                    var49 = 0.002106134;
                } else {
                    var49 = 0.0009812012;
                }
            } else {
                if (input[2] >= 0.30971822) {
                    var49 = 0.0011126985;
                } else {
                    var49 = -0.000025720834;
                }
            }
        } else {
            if (input[8] >= 0.44030315) {
                if (input[4] >= 0.4962135) {
                    var49 = 0.00081121124;
                } else {
                    var49 = -0.000076494085;
                }
            } else {
                if (input[11] >= 0.65874004) {
                    var49 = 0.00018051287;
                } else {
                    var49 = -0.0007909896;
                }
            }
        }
    } else {
        if (input[3] >= 0.3118484) {
            if (input[10] >= 0.30609292) {
                if (input[9] >= 0.6096202) {
                    var49 = 0.00022627416;
                } else {
                    var49 = -0.0006944306;
                }
            } else {
                if (input[9] >= 0.66880465) {
                    var49 = -0.0007521807;
                } else {
                    var49 = -0.0018004751;
                }
            }
        } else {
            if (input[2] >= 0.32223344) {
                if (input[9] >= 0.6945119) {
                    var49 = -0.00063484;
                } else {
                    var49 = -0.0017449779;
                }
            } else {
                if (input[1] >= 0.7067491) {
                    var49 = -0.0017034479;
                } else {
                    var49 = -0.0029019632;
                }
            }
        }
    }
    double var50;
    if (input[5] >= 0.7012056) {
        if (input[3] >= 0.3669386) {
            if (input[6] >= 0.3248162) {
                if (input[1] >= 0.7203328) {
                    var50 = 0.0021809204;
                } else {
                    var50 = 0.0011093575;
                }
            } else {
                if (input[10] >= 0.34361535) {
                    var50 = 0.00050032506;
                } else {
                    var50 = -0.0006181445;
                }
            }
        } else {
            if (input[4] >= 0.5409678) {
                if (input[8] >= 0.6835289) {
                    var50 = 0.001353349;
                } else {
                    var50 = 0.00030193254;
                }
            } else {
                if (input[11] >= 0.75542825) {
                    var50 = 0.0007311998;
                } else {
                    var50 = -0.0005264848;
                }
            }
        }
    } else {
        if (input[1] >= 0.6968667) {
            if (input[0] >= 0.7422885) {
                if (input[7] >= 0.6430619) {
                    var50 = 0.002166892;
                } else {
                    var50 = 0.0011587215;
                }
            } else {
                if (input[6] >= 0.67197454) {
                    var50 = 0.001052614;
                } else {
                    var50 = 0.00008253084;
                }
            }
        } else {
            if (input[6] >= 0.7144265) {
                if (input[11] >= 0.6144155) {
                    var50 = 0.0009598735;
                } else {
                    var50 = 0.000037769252;
                }
            } else {
                if (input[10] >= 0.66452366) {
                    var50 = 0.000012172418;
                } else {
                    var50 = -0.0009315554;
                }
            }
        }
    }
    double var51;
    if (input[9] >= 0.32928777) {
        if (input[3] >= 0.69639134) {
            if (input[1] >= 0.5451953) {
                if (input[7] >= 0.5241019) {
                    var51 = 0.0019415178;
                } else {
                    var51 = 0.0010452863;
                }
            } else {
                if (input[11] >= 0.3794191) {
                    var51 = 0.0008984253;
                } else {
                    var51 = -0.000103523365;
                }
            }
        } else {
            if (input[7] >= 0.71014345) {
                if (input[4] >= 0.35231724) {
                    var51 = 0.0010683825;
                } else {
                    var51 = 0.00005039418;
                }
            } else {
                if (input[10] >= 0.33082134) {
                    var51 = 0.00003562928;
                } else {
                    var51 = -0.0010001741;
                }
            }
        }
    } else {
        if (input[5] >= 0.36806792) {
            if (input[3] >= 0.3395543) {
                if (input[7] >= 0.547467) {
                    var51 = 0.00019384772;
                } else {
                    var51 = -0.00067748496;
                }
            } else {
                if (input[11] >= 0.68450934) {
                    var51 = -0.00050684833;
                } else {
                    var51 = -0.0015815025;
                }
            }
        } else {
            if (input[8] >= 0.66570103) {
                if (input[3] >= 0.6619202) {
                    var51 = -0.000049567312;
                } else {
                    var51 = -0.0010892247;
                }
            } else {
                if (input[4] >= 0.599049) {
                    var51 = -0.0012087;
                } else {
                    var51 = -0.0021652493;
                }
            }
        }
    }
    double var52;
    if (input[2] >= 0.31378376) {
        if (input[0] >= 0.68940604) {
            if (input[5] >= 0.6389394) {
                if (input[4] >= 0.58326566) {
                    var52 = 0.002143936;
                } else {
                    var52 = 0.0012462134;
                }
            } else {
                if (input[8] >= 0.710847) {
                    var52 = 0.0014695294;
                } else {
                    var52 = 0.00045844584;
                }
            }
        } else {
            if (input[9] >= 0.7177028) {
                if (input[5] >= 0.33421302) {
                    var52 = 0.0010646204;
                } else {
                    var52 = -0.000020494826;
                }
            } else {
                if (input[8] >= 0.50652397) {
                    var52 = 0.00018809467;
                } else {
                    var52 = -0.0006561904;
                }
            }
        }
    } else {
        if (input[9] >= 0.69496536) {
            if (input[8] >= 0.74194944) {
                if (input[5] >= 0.44116998) {
                    var52 = 0.0012427724;
                } else {
                    var52 = 0.00021699061;
                }
            } else {
