double clamp01(double value) => value < 0.0 ? 0.0 : (value > 1.0 ? 1.0 : value);

double scoreP5(List<double> features) {
  return clamp01(_scoreP5Impl(features));
}

double _scoreP5Impl(List<double> input) {
    double var0;
    if (input[1] >= 0.5204071) {
        if (input[5] >= 0.5921563) {
            if (input[4] >= 0.58426225) {
                if (input[9] >= 0.5872307) {
                    var0 = 0.00437799;
                } else {
                    var0 = 0.0029652165;
                }
            } else {
                if (input[6] >= 0.46148083) {
                    var0 = 0.002866401;
                } else {
                    var0 = 0.0013166283;
                }
            }
        } else {
            if (input[10] >= 0.48937327) {
                if (input[12] >= 0.5212597) {
                    var0 = 0.0028185637;
                } else {
                    var0 = 0.0012614009;
                }
            } else {
                if (input[13] >= 0.6125674) {
                    var0 = 0.0017202174;
                } else {
                    var0 = 0.00012854625;
                }
            }
        }
    } else {
        if (input[3] >= 0.4926303) {
            if (input[9] >= 0.52709496) {
                if (input[14] >= 0.5987873) {
                    var0 = 0.0030034354;
                } else {
                    var0 = 0.001481424;
                }
            } else {
                if (input[4] >= 0.50873584) {
                    var0 = 0.0013478219;
                } else {
                    var0 = -0.00024401351;
                }
            }
        } else {
            if (input[8] >= 0.53742707) {
                if (input[13] >= 0.3793261) {
                    var0 = 0.0011743105;
                } else {
                    var0 = -0.0005860184;
                }
            } else {
                if (input[11] >= 0.42807275) {
                    var0 = -0.00022845523;
                } else {
                    var0 = -0.0019214075;
                }
            }
        }
    }
    double var1;
    if (input[2] >= 0.5371057) {
        if (input[14] >= 0.47412854) {
            if (input[9] >= 0.6855854) {
                if (input[15] >= 0.7284435) {
                    var1 = 0.0051040896;
                } else {
                    var1 = 0.0032003655;
                }
            } else {
                if (input[12] >= 0.33199507) {
                    var1 = 0.0025060838;
                } else {
                    var1 = 0.0007959641;
                }
            }
        } else {
            if (input[17] >= 0.47113258) {
                if (input[0] >= 0.6188433) {
                    var1 = 0.0026954026;
                } else {
                    var1 = 0.001107218;
                }
            } else {
                if (input[16] >= 0.4725839) {
                    var1 = 0.00091991975;
                } else {
                    var1 = -0.0005448007;
                }
            }
        }
    } else {
        if (input[7] >= 0.46058193) {
            if (input[5] >= 0.56402546) {
                if (input[1] >= 0.4044744) {
                    var1 = 0.0024811393;
                } else {
                    var1 = 0.00092759664;
                }
            } else {
                if (input[14] >= 0.49580476) {
                    var1 = 0.0012599016;
                } else {
                    var1 = -0.00019870851;
                }
            }
        } else {
            if (input[12] >= 0.59290564) {
                if (input[16] >= 0.62493706) {
                    var1 = 0.001786431;
                } else {
                    var1 = 0.00021962501;
                }
            } else {
                if (input[13] >= 0.42226547) {
                    var1 = -0.00019056504;
                } else {
                    var1 = -0.0016497181;
                }
            }
        }
    }
    double var2;
    if (input[12] >= 0.43992978) {
        if (input[0] >= 0.5241085) {
            if (input[1] >= 0.35698873) {
                if (input[8] >= 0.5717813) {
                    var2 = 0.0034231779;
                } else {
                    var2 = 0.0021498092;
                }
            } else {
                if (input[2] >= 0.5808836) {
                    var2 = 0.0021208355;
                } else {
                    var2 = 0.00060883386;
                }
            }
        } else {
            if (input[16] >= 0.5419458) {
                if (input[11] >= 0.591305) {
                    var2 = 0.0026828821;
                } else {
                    var2 = 0.0011924339;
                }
            } else {
                if (input[8] >= 0.57232076) {
                    var2 = 0.0012252643;
                } else {
                    var2 = -0.00019600807;
                }
            }
        }
    } else {
        if (input[11] >= 0.52723753) {
            if (input[2] >= 0.38826805) {
                if (input[0] >= 0.4610499) {
                    var2 = 0.0020584366;
                } else {
                    var2 = 0.00064342597;
                }
            } else {
                if (input[1] >= 0.6614697) {
                    var2 = 0.001424596;
                } else {
                    var2 = -0.00047209632;
                }
            }
        } else {
            if (input[7] >= 0.4936148) {
                if (input[10] >= 0.5313918) {
                    var2 = 0.0010751663;
                } else {
                    var2 = -0.00047310887;
                }
            } else {
                if (input[13] >= 0.59074676) {
                    var2 = -0.00010926188;
                } else {
                    var2 = -0.0016313577;
                }
            }
        }
    }
    double var3;
    if (input[14] >= 0.49406442) {
        if (input[12] >= 0.5221469) {
            if (input[5] >= 0.63528305) {
                if (input[6] >= 0.56156415) {
                    var3 = 0.004010388;
                } else {
                    var3 = 0.0025711504;
                }
            } else {
                if (input[9] >= 0.49137568) {
                    var3 = 0.002485633;
                } else {
                    var3 = 0.0011491803;
                }
            }
        } else {
            if (input[13] >= 0.5068257) {
                if (input[3] >= 0.49884716) {
                    var3 = 0.0023338983;
                } else {
                    var3 = 0.0009611949;
                }
            } else {
                if (input[4] >= 0.49745667) {
                    var3 = 0.0010067223;
                } else {
                    var3 = -0.0005199458;
                }
            }
        }
    } else {
        if (input[10] >= 0.5550823) {
            if (input[3] >= 0.4866532) {
                if (input[1] >= 0.65178466) {
                    var3 = 0.002753727;
                } else {
                    var3 = 0.0012814342;
                }
            } else {
                if (input[4] >= 0.43672878) {
                    var3 = 0.0008971383;
                } else {
                    var3 = -0.00064569566;
                }
            }
        } else {
            if (input[11] >= 0.54525524) {
                if (input[9] >= 0.45164132) {
                    var3 = 0.0011646767;
                } else {
                    var3 = -0.00033544665;
                }
            } else {
                if (input[0] >= 0.5285026) {
                    var3 = -0.00011034447;
                } else {
                    var3 = -0.0015408202;
                }
            }
        }
    }
    double var4;
    if (input[10] >= 0.5552002) {
        if (input[2] >= 0.46240833) {
            if (input[16] >= 0.55705154) {
                if (input[9] >= 0.45473984) {
                    var4 = 0.0035437688;
                } else {
                    var4 = 0.0020326448;
                }
            } else {
                if (input[6] >= 0.5373728) {
                    var4 = 0.002444027;
                } else {
                    var4 = 0.0010284112;
                }
            }
        } else {
            if (input[4] >= 0.5719485) {
                if (input[13] >= 0.4806255) {
                    var4 = 0.0022898663;
                } else {
                    var4 = 0.0007977651;
                }
            } else {
                if (input[17] >= 0.4884646) {
                    var4 = 0.00096085254;
                } else {
                    var4 = -0.0003813492;
                }
            }
        }
    } else {
        if (input[16] >= 0.46629518) {
            if (input[3] >= 0.49268973) {
                if (input[14] >= 0.4602868) {
                    var4 = 0.0021438834;
                } else {
                    var4 = 0.00080422784;
                }
            } else {
                if (input[1] >= 0.52657104) {
                    var4 = 0.001014213;
                } else {
                    var4 = -0.00038668458;
                }
            }
        } else {
            if (input[9] >= 0.46193033) {
                if (input[11] >= 0.5780408) {
                    var4 = 0.0010999056;
                } else {
                    var4 = -0.00023920069;
                }
            } else {
                if (input[14] >= 0.56709653) {
                    var4 = -0.00024501473;
                } else {
                    var4 = -0.001606572;
                }
            }
        }
    }
    double var5;
    if (input[2] >= 0.5163039) {
        if (input[16] >= 0.52075493) {
            if (input[0] >= 0.4925123) {
                if (input[5] >= 0.5563024) {
                    var5 = 0.0035078684;
                } else {
                    var5 = 0.0021123404;
                }
            } else {
                if (input[1] >= 0.68543816) {
                    var5 = 0.0025771675;
                } else {
                    var5 = 0.0011437244;
                }
            }
        } else {
            if (input[6] >= 0.43235883) {
                if (input[10] >= 0.36588705) {
                    var5 = 0.0019113123;
                } else {
                    var5 = 0.00035778264;
                }
            } else {
                if (input[13] >= 0.38302225) {
                    var5 = 0.0006095771;
                } else {
                    var5 = -0.0010706786;
                }
            }
        }
    } else {
        if (input[13] >= 0.5435685) {
            if (input[7] >= 0.6405917) {
                if (input[14] >= 0.25871915) {
                    var5 = 0.0022368245;
                } else {
                    var5 = 0.00012013984;
                }
            } else {
                if (input[15] >= 0.5125319) {
                    var5 = 0.001190631;
                } else {
                    var5 = -0.00014545694;
                }
            }
        } else {
            if (input[17] >= 0.52743506) {
                if (input[15] >= 0.5675179) {
                    var5 = 0.0012150683;
                } else {
                    var5 = -0.00016853785;
                }
            } else {
                if (input[5] >= 0.58847684) {
                    var5 = -0.000048300517;
                } else {
                    var5 = -0.0014114948;
                }
            }
        }
    }
    double var6;
    if (input[11] >= 0.55778223) {
        if (input[0] >= 0.49967462) {
            if (input[9] >= 0.45413774) {
                if (input[17] >= 0.38718182) {
                    var6 = 0.0030702848;
                } else {
                    var6 = 0.0015628192;
                }
            } else {
                if (input[1] >= 0.48620957) {
                    var6 = 0.0019812845;
                } else {
                    var6 = 0.0006875168;
                }
            }
        } else {
            if (input[13] >= 0.62384105) {
                if (input[15] >= 0.4546728) {
                    var6 = 0.0023022813;
                } else {
                    var6 = 0.000842398;
                }
            } else {
                if (input[12] >= 0.34274727) {
                    var6 = 0.0008671288;
                } else {
                    var6 = -0.00082184345;
                }
            }
        }
    } else {
        if (input[1] >= 0.5074967) {
            if (input[6] >= 0.64541924) {
                if (input[15] >= 0.652455) {
                    var6 = 0.003049888;
                } else {
                    var6 = 0.0014030286;
                }
            } else {
                if (input[9] >= 0.6536194) {
                    var6 = 0.0015087912;
                } else {
                    var6 = 0.00012602523;
                }
            }
        } else {
            if (input[4] >= 0.48025733) {
                if (input[7] >= 0.4123346) {
                    var6 = 0.00081654737;
                } else {
                    var6 = -0.00054035266;
                }
            } else {
                if (input[15] >= 0.57357967) {
                    var6 = -0.00020329778;
                } else {
                    var6 = -0.0016547113;
                }
            }
        }
    }
    double var7;
    if (input[8] >= 0.44597912) {
        if (input[4] >= 0.57652795) {
            if (input[16] >= 0.6396285) {
                if (input[10] >= 0.58880377) {
                    var7 = 0.003815436;
                } else {
                    var7 = 0.0023468367;
                }
            } else {
                if (input[5] >= 0.47631738) {
                    var7 = 0.0022258451;
                } else {
                    var7 = 0.00092869706;
                }
            }
        } else {
            if (input[13] >= 0.6558016) {
                if (input[15] >= 0.50349164) {
                    var7 = 0.0023664813;
                } else {
                    var7 = 0.0009915853;
                }
            } else {
                if (input[9] >= 0.37755218) {
                    var7 = 0.00083862105;
                } else {
                    var7 = -0.00055919186;
                }
            }
        }
    } else {
        if (input[12] >= 0.5943967) {
            if (input[13] >= 0.58339703) {
                if (input[16] >= 0.5540868) {
                    var7 = 0.0025200055;
                } else {
                    var7 = 0.0010288173;
                }
            } else {
                if (input[0] >= 0.6147915) {
                    var7 = 0.0013760884;
                } else {
                    var7 = -0.00020585778;
                }
            }
        } else {
            if (input[4] >= 0.4076739) {
                if (input[0] >= 0.6286439) {
                    var7 = 0.0010374201;
                } else {
                    var7 = -0.00042084354;
                }
            } else {
                if (input[6] >= 0.5376808) {
                    var7 = -0.0004796269;
                } else {
                    var7 = -0.002028333;
                }
            }
        }
    }
    double var8;
    if (input[7] >= 0.46139342) {
        if (input[9] >= 0.52371705) {
            if (input[3] >= 0.3839143) {
                if (input[17] >= 0.46640784) {
                    var8 = 0.0027682034;
                } else {
                    var8 = 0.0015112968;
                }
            } else {
                if (input[12] >= 0.5441876) {
                    var8 = 0.0016558694;
                } else {
                    var8 = 0.00024003854;
                }
            }
        } else {
            if (input[10] >= 0.5885005) {
                if (input[4] >= 0.5662749) {
                    var8 = 0.002250062;
                } else {
                    var8 = 0.000876454;
                }
            } else {
                if (input[12] >= 0.334323) {
                    var8 = 0.00059729523;
                } else {
                    var8 = -0.000946731;
                }
            }
        }
    } else {
        if (input[12] >= 0.59345055) {
            if (input[4] >= 0.5154257) {
                if (input[16] >= 0.41381812) {
                    var8 = 0.0020281337;
                } else {
                    var8 = 0.00048282873;
                }
            } else {
                if (input[8] >= 0.29181546) {
                    var8 = 0.0005550892;
                } else {
                    var8 = -0.0013033308;
                }
            }
        } else {
            if (input[0] >= 0.5450483) {
                if (input[10] >= 0.6170833) {
                    var8 = 0.001183874;
                } else {
                    var8 = -0.00018664995;
                }
            } else {
                if (input[11] >= 0.4191786) {
                    var8 = -0.00042925982;
                } else {
                    var8 = -0.0017460154;
                }
            }
        }
    }
    double var9;
    if (input[8] >= 0.51638055) {
        if (input[17] >= 0.61032295) {
            if (input[11] >= 0.4642172) {
                if (input[7] >= 0.4605046) {
                    var9 = 0.0031455297;
                } else {
                    var9 = 0.0017972648;
                }
            } else {
                if (input[3] >= 0.5159246) {
                    var9 = 0.0021122936;
                } else {
                    var9 = 0.00065159437;
                }
            }
        } else {
            if (input[9] >= 0.4008094) {
                if (input[14] >= 0.61535823) {
                    var9 = 0.002184914;
                } else {
                    var9 = 0.00081973214;
                }
            } else {
                if (input[4] >= 0.5379741) {
                    var9 = 0.000754826;
                } else {
                    var9 = -0.000731738;
                }
            }
        }
    } else {
        if (input[3] >= 0.4810725) {
            if (input[16] >= 0.5848738) {
                if (input[0] >= 0.42600685) {
                    var9 = 0.0020160584;
                } else {
                    var9 = 0.00050395256;
                }
            } else {
                if (input[6] >= 0.402599) {
                    var9 = 0.00061198487;
                } else {
                    var9 = -0.0006516098;
                }
            }
        } else {
            if (input[1] >= 0.52032554) {
                if (input[15] >= 0.49992573) {
                    var9 = 0.00080513523;
                } else {
                    var9 = -0.000694729;
                }
            } else {
                if (input[4] >= 0.35943627) {
                    var9 = -0.0007268473;
                } else {
                    var9 = -0.0023364297;
                }
            }
        }
    }
    double var10;
    if (input[6] >= 0.5599364) {
        if (input[3] >= 0.516896) {
            if (input[8] >= 0.3025163) {
                if (input[1] >= 0.41913456) {
                    var10 = 0.0026249816;
                } else {
                    var10 = 0.001323857;
                }
            } else {
                if (input[10] >= 0.41162062) {
                    var10 = 0.001165419;
                } else {
                    var10 = -0.00035718965;
                }
            }
        } else {
            if (input[14] >= 0.4670838) {
                if (input[0] >= 0.621393) {
                    var10 = 0.0021356358;
                } else {
                    var10 = 0.0008131915;
                }
            } else {
                if (input[10] >= 0.46678728) {
                    var10 = 0.00049880426;
                } else {
                    var10 = -0.0008668205;
                }
            }
        }
    } else {
        if (input[12] >= 0.44744378) {
            if (input[14] >= 0.5214044) {
                if (input[8] >= 0.43725532) {
                    var10 = 0.0017088329;
                } else {
                    var10 = 0.0004622778;
                }
            } else {
                if (input[17] >= 0.5583097) {
                    var10 = 0.000847611;
                } else {
                    var10 = -0.00050377555;
                }
            }
        } else {
            if (input[7] >= 0.6180557) {
                if (input[5] >= 0.35219407) {
                    var10 = 0.0006769458;
                } else {
                    var10 = -0.000991029;
                }
            } else {
                if (input[9] >= 0.61132205) {
                    var10 = -0.00013173587;
                } else {
                    var10 = -0.0014101646;
                }
            }
        }
    }
    double var11;
    if (input[2] >= 0.58066106) {
        if (input[17] >= 0.46858475) {
            if (input[10] >= 0.5775674) {
                if (input[12] >= 0.47194698) {
                    var11 = 0.003162398;
                } else {
                    var11 = 0.0017599512;
                }
            } else {
                if (input[13] >= 0.4204743) {
                    var11 = 0.0017173501;
                } else {
                    var11 = 0.0004190391;
                }
            }
        } else {
            if (input[4] >= 0.633158) {
                if (input[6] >= 0.4823268) {
                    var11 = 0.002214833;
                } else {
                    var11 = 0.0006876293;
                }
            } else {
                if (input[13] >= 0.69045407) {
                    var11 = 0.0013739744;
                } else {
                    var11 = -0.000118924225;
                }
            }
        }
    } else {
        if (input[1] >= 0.5206795) {
            if (input[5] >= 0.5655035) {
                if (input[7] >= 0.47427028) {
                    var11 = 0.0019871548;
                } else {
                    var11 = 0.00068798335;
                }
            } else {
                if (input[8] >= 0.5209306) {
                    var11 = 0.0008659713;
                } else {
                    var11 = -0.00035778742;
                }
            }
        } else {
            if (input[11] >= 0.54408777) {
                if (input[15] >= 0.38969657) {
                    var11 = 0.0007138891;
                } else {
                    var11 = -0.0007667492;
                }
            } else {
                if (input[8] >= 0.61145234) {
                    var11 = -0.00009357532;
                } else {
                    var11 = -0.0014423399;
                }
            }
        }
    }
    double var12;
    if (input[11] >= 0.5659304) {
        if (input[10] >= 0.38480628) {
            if (input[0] >= 0.4265659) {
                if (input[7] >= 0.5098189) {
                    var12 = 0.0026490751;
                } else {
                    var12 = 0.0014077944;
                }
            } else {
                if (input[2] >= 0.44934964) {
                    var12 = 0.0013353558;
                } else {
                    var12 = -0.000013649045;
                }
            }
        } else {
            if (input[12] >= 0.6226244) {
                if (input[8] >= 0.48778594) {
                    var12 = 0.0018689735;
                } else {
                    var12 = 0.00047226826;
                }
            } else {
                if (input[9] >= 0.45645577) {
                    var12 = 0.00042117096;
                } else {
                    var12 = -0.0008044767;
                }
            }
        }
    } else {
        if (input[13] >= 0.4533472) {
            if (input[16] >= 0.711833) {
                if (input[6] >= 0.4706279) {
                    var12 = 0.0022601003;
                } else {
                    var12 = 0.0009174015;
                }
            } else {
                if (input[9] >= 0.68863183) {
                    var12 = 0.0013141136;
                } else {
                    var12 = -0.000024250168;
                }
            }
        } else {
            if (input[10] >= 0.4748476) {
                if (input[5] >= 0.31700787) {
                    var12 = 0.0003421017;
                } else {
                    var12 = -0.0011728591;
                }
            } else {
                if (input[3] >= 0.4275406) {
                    var12 = -0.00066813244;
                } else {
                    var12 = -0.0019316267;
                }
            }
        }
    }
    double var13;
    if (input[14] >= 0.4945024) {
        if (input[13] >= 0.6271787) {
            if (input[3] >= 0.5463581) {
                if (input[10] >= 0.5068406) {
                    var13 = 0.003045096;
                } else {
                    var13 = 0.0018114574;
                }
            } else {
                if (input[8] >= 0.7406776) {
                    var13 = 0.0024434985;
                } else {
                    var13 = 0.0009718269;
                }
            }
        } else {
            if (input[8] >= 0.59493613) {
                if (input[9] >= 0.4008094) {
                    var13 = 0.001802233;
                } else {
                    var13 = 0.0004257096;
                }
            } else {
                if (input[16] >= 0.49820665) {
                    var13 = 0.00079520047;
                } else {
                    var13 = -0.0003762844;
                }
            }
        }
    } else {
        if (input[4] >= 0.43264538) {
            if (input[3] >= 0.4866532) {
                if (input[5] >= 0.47582322) {
                    var13 = 0.0014538193;
                } else {
                    var13 = 0.000266657;
                }
            } else {
                if (input[13] >= 0.6941616) {
                    var13 = 0.0010335778;
                } else {
                    var13 = -0.00065598014;
                }
            }
        } else {
            if (input[17] >= 0.4782992) {
                if (input[15] >= 0.71752036) {
                    var13 = 0.0008224197;
                } else {
                    var13 = -0.0005636189;
                }
            } else {
                if (input[8] >= 0.4595744) {
                    var13 = -0.00086789136;
                } else {
                    var13 = -0.0023437045;
                }
            }
        }
    }
    double var14;
    if (input[5] >= 0.5622511) {
        if (input[1] >= 0.3831404) {
            if (input[4] >= 0.5764469) {
                if (input[17] >= 0.6190475) {
                    var14 = 0.0030138649;
                } else {
                    var14 = 0.0017544068;
                }
            } else {
                if (input[6] >= 0.3994677) {
                    var14 = 0.0014302101;
                } else {
                    var14 = 0.00012901022;
                }
            }
        } else {
            if (input[12] >= 0.3014409) {
                if (input[7] >= 0.39518005) {
                    var14 = 0.0010502017;
                } else {
                    var14 = -0.0003164063;
                }
            } else {
                if (input[13] >= 0.3550105) {
                    var14 = -0.0004352501;
                } else {
                    var14 = -0.0022547261;
                }
            }
        }
    } else {
        if (input[12] >= 0.5050398) {
            if (input[10] >= 0.43472552) {
                if (input[3] >= 0.7162023) {
                    var14 = 0.002093271;
                } else {
                    var14 = 0.0007009381;
                }
            } else {
                if (input[17] >= 0.4543829) {
                    var14 = 0.00039686414;
                } else {
                    var14 = -0.00089615607;
                }
            }
        } else {
            if (input[14] >= 0.4242072) {
                if (input[7] >= 0.66163105) {
                    var14 = 0.0009048484;
                } else {
                    var14 = -0.0004219233;
                }
            } else {
                if (input[10] >= 0.41968402) {
                    var14 = -0.00078457885;
                } else {
                    var14 = -0.0022611087;
                }
            }
        }
    }
    double var15;
    if (input[7] >= 0.46061364) {
        if (input[14] >= 0.59902287) {
            if (input[9] >= 0.45020056) {
                if (input[2] >= 0.5115263) {
                    var15 = 0.0025208977;
                } else {
                    var15 = 0.0014192107;
                }
            } else {
                if (input[4] >= 0.3128295) {
                    var15 = 0.0012163068;
                } else {
                    var15 = -0.0005596549;
                }
            }
        } else {
            if (input[10] >= 0.58107996) {
                if (input[5] >= 0.5655569) {
                    var15 = 0.001895062;
                } else {
                    var15 = 0.00064876716;
                }
            } else {
                if (input[6] >= 0.5030017) {
                    var15 = 0.00066467264;
                } else {
                    var15 = -0.0005207346;
                }
            }
        }
    } else {
        if (input[2] >= 0.5434506) {
            if (input[5] >= 0.55659336) {
                if (input[0] >= 0.46102434) {
                    var15 = 0.0016495395;
                } else {
                    var15 = 0.00038513474;
                }
            } else {
                if (input[13] >= 0.5319985) {
                    var15 = 0.00049373094;
                } else {
                    var15 = -0.0006620147;
                }
            }
        } else {
            if (input[16] >= 0.49641734) {
                if (input[8] >= 0.4375624) {
                    var15 = 0.00036933256;
                } else {
                    var15 = -0.0009127214;
                }
            } else {
                if (input[17] >= 0.5803604) {
                    var15 = -0.0005133139;
                } else {
                    var15 = -0.001687886;
                }
            }
        }
    }
    double var16;
    if (input[16] >= 0.506582) {
        if (input[3] >= 0.4987275) {
            if (input[15] >= 0.49358612) {
                if (input[2] >= 0.6455958) {
                    var16 = 0.00283465;
                } else {
                    var16 = 0.001557179;
                }
            } else {
                if (input[9] >= 0.45564657) {
                    var16 = 0.0013490568;
                } else {
                    var16 = 0.00009568176;
                }
            }
        } else {
            if (input[1] >= 0.38601038) {
                if (input[15] >= 0.5060469) {
                    var16 = 0.0012810186;
                } else {
                    var16 = 0.00020389687;
                }
            } else {
                if (input[2] >= 0.49928892) {
                    var16 = 0.00022082191;
                } else {
                    var16 = -0.0012184549;
                }
            }
        }
    } else {
        if (input[17] >= 0.45087355) {
            if (input[13] >= 0.3801351) {
                if (input[12] >= 0.6317216) {
                    var16 = 0.0015197038;
                } else {
                    var16 = 0.00035325336;
                }
            } else {
                if (input[12] >= 0.34381205) {
                    var16 = -0.0001680102;
                } else {
                    var16 = -0.0017404304;
                }
            }
        } else {
            if (input[15] >= 0.6129581) {
                if (input[14] >= 0.59282446) {
                    var16 = 0.0007176756;
                } else {
                    var16 = -0.00047966305;
                }
            } else {
                if (input[11] >= 0.5437261) {
                    var16 = -0.00051381794;
                } else {
                    var16 = -0.0017035506;
                }
            }
        }
    }
    double var17;
    if (input[15] >= 0.4520672) {
        if (input[6] >= 0.509266) {
            if (input[2] >= 0.5981691) {
                if (input[5] >= 0.64263815) {
                    var17 = 0.0029498765;
                } else {
                    var17 = 0.001646867;
                }
            } else {
                if (input[0] >= 0.5739627) {
                    var17 = 0.0016267246;
                } else {
                    var17 = 0.00044922114;
                }
            }
        } else {
            if (input[11] >= 0.56209934) {
                if (input[0] >= 0.4179718) {
                    var17 = 0.0013209331;
                } else {
                    var17 = 0.00017487931;
                }
            } else {
                if (input[7] >= 0.5216423) {
                    var17 = 0.00046394928;
                } else {
                    var17 = -0.00076283567;
                }
            }
        }
    } else {
        if (input[9] >= 0.49380285) {
            if (input[8] >= 0.4021017) {
                if (input[4] >= 0.5105313) {
                    var17 = 0.0012529212;
                } else {
                    var17 = 0.0001126286;
                }
            } else {
                if (input[11] >= 0.32706815) {
                    var17 = -0.00025448055;
                } else {
                    var17 = -0.0018314152;
                }
            }
        } else {
            if (input[2] >= 0.4337151) {
                if (input[17] >= 0.47364822) {
                    var17 = 0.00014685685;
                } else {
                    var17 = -0.0010553688;
                }
            } else {
                if (input[11] >= 0.3442926) {
                    var17 = -0.0011271746;
                } else {
                    var17 = -0.0026743691;
                }
            }
        }
    }
    double var18;
    if (input[8] >= 0.4222427) {
        if (input[10] >= 0.588845) {
            if (input[17] >= 0.39219782) {
                if (input[0] >= 0.6316695) {
                    var18 = 0.0025779384;
                } else {
                    var18 = 0.0013530039;
                }
            } else {
                if (input[12] >= 0.6715414) {
                    var18 = 0.0015144785;
                } else {
                    var18 = 0.00020350947;
                }
            }
        } else {
            if (input[5] >= 0.4633972) {
                if (input[1] >= 0.36315835) {
                    var18 = 0.001138857;
                } else {
                    var18 = -0.00015522575;
                }
            } else {
                if (input[7] >= 0.6621141) {
                    var18 = 0.000589918;
                } else {
                    var18 = -0.000632761;
                }
            }
        }
    } else {
        if (input[11] >= 0.552757) {
            if (input[15] >= 0.72328055) {
                if (input[10] >= 0.65400237) {
                    var18 = 0.0024431336;
                } else {
                    var18 = 0.0008963919;
                }
            } else {
                if (input[17] >= 0.68790746) {
                    var18 = 0.000973473;
                } else {
                    var18 = -0.0002621849;
                }
            }
        } else {
            if (input[5] >= 0.44738287) {
                if (input[4] >= 0.36184558) {
                    var18 = 0.000058570058;
                } else {
                    var18 = -0.0013283801;
                }
            } else {
                if (input[1] >= 0.47690082) {
                    var18 = -0.00094513164;
                } else {
                    var18 = -0.002251101;
                }
            }
        }
    }
    double var19;
    if (input[15] >= 0.57605207) {
        if (input[0] >= 0.574161) {
            if (input[4] >= 0.45884442) {
                if (input[17] >= 0.26125407) {
                    var19 = 0.0022868027;
                } else {
                    var19 = 0.00054820353;
                }
            } else {
                if (input[13] >= 0.36314154) {
                    var19 = 0.001342366;
                } else {
                    var19 = -0.000035565303;
                }
            }
        } else {
            if (input[13] >= 0.47283095) {
                if (input[16] >= 0.71226823) {
                    var19 = 0.002042846;
                } else {
                    var19 = 0.0007015198;
                }
            } else {
                if (input[14] >= 0.35465348) {
                    var19 = 0.00024411838;
                } else {
                    var19 = -0.0010060862;
                }
            }
        }
    } else {
        if (input[11] >= 0.5246229) {
            if (input[12] >= 0.592353) {
                if (input[8] >= 0.52261734) {
                    var19 = 0.0018049545;
                } else {
                    var19 = 0.0006024597;
                }
            } else {
                if (input[3] >= 0.41042328) {
                    var19 = 0.00048272306;
                } else {
                    var19 = -0.0008039059;
                }
            }
        } else {
            if (input[16] >= 0.5792328) {
                if (input[0] >= 0.39733624) {
                    var19 = 0.0005389118;
                } else {
                    var19 = -0.00070201204;
                }
            } else {
                if (input[3] >= 0.42526996) {
                    var19 = -0.000531798;
                } else {
                    var19 = -0.0016875109;
                }
            }
        }
    }
    double var20;
    if (input[9] >= 0.53324664) {
        if (input[5] >= 0.40411842) {
            if (input[2] >= 0.5150287) {
                if (input[0] >= 0.50512564) {
                    var20 = 0.0021928356;
                } else {
                    var20 = 0.0011887228;
                }
            } else {
                if (input[17] >= 0.5828844) {
                    var20 = 0.0013800074;
                } else {
                    var20 = 0.00027731192;
                }
            }
        } else {
            if (input[7] >= 0.681709) {
                if (input[3] >= 0.38816428) {
                    var20 = 0.0016474134;
                } else {
                    var20 = -0.000078863726;
                }
            } else {
                if (input[1] >= 0.46976382) {
                    var20 = 0.000356921;
                } else {
                    var20 = -0.00096109795;
                }
            }
        }
    } else {
        if (input[1] >= 0.6777148) {
            if (input[16] >= 0.45250013) {
                if (input[5] >= 0.74135447) {
                    var20 = 0.0024219253;
                } else {
                    var20 = 0.0009091168;
                }
            } else {
                if (input[8] >= 0.4962656) {
                    var20 = 0.00061019603;
                } else {
                    var20 = -0.000707603;
                }
            }
        } else {
            if (input[17] >= 0.44004095) {
                if (input[8] >= 0.586552) {
                    var20 = 0.00066134694;
                } else {
                    var20 = -0.00041303883;
                }
            } else {
                if (input[4] >= 0.48002648) {
                    var20 = -0.0005635728;
                } else {
                    var20 = -0.0017121615;
                }
            }
        }
    }
    double var21;
    if (input[6] >= 0.5625527) {
        if (input[3] >= 0.52829045) {
            if (input[9] >= 0.45413774) {
                if (input[11] >= 0.54752797) {
                    var21 = 0.0023517564;
                } else {
                    var21 = 0.0013415219;
                }
            } else {
                if (input[15] >= 0.50555694) {
                    var21 = 0.0013901853;
                } else {
                    var21 = 0.00013413317;
                }
            }
        } else {
            if (input[12] >= 0.52077717) {
                if (input[0] >= 0.5731405) {
                    var21 = 0.0015957002;
                } else {
                    var21 = 0.00042004592;
                }
            } else {
                if (input[14] >= 0.582836) {
                    var21 = 0.00054679776;
                } else {
                    var21 = -0.00071993435;
                }
            }
        }
    } else {
        if (input[12] >= 0.5336418) {
            if (input[16] >= 0.44516635) {
                if (input[3] >= 0.47920772) {
                    var21 = 0.0013419498;
                } else {
                    var21 = 0.00025610716;
                }
            } else {
                if (input[15] >= 0.6632128) {
                    var21 = 0.00075080927;
                } else {
                    var21 = -0.00054790877;
                }
            }
        } else {
            if (input[4] >= 0.3969473) {
                if (input[7] >= 0.46183878) {
                    var21 = 0.00028461972;
                } else {
                    var21 = -0.00092213386;
                }
            } else {
                if (input[8] >= 0.4115345) {
                    var21 = -0.0008786768;
                } else {
                    var21 = -0.0020964178;
                }
            }
        }
    }
    double var22;
    if (input[13] >= 0.40356284) {
        if (input[16] >= 0.46653187) {
            if (input[4] >= 0.65450025) {
                if (input[0] >= 0.37820393) {
                    var22 = 0.0021299042;
                } else {
                    var22 = 0.0009984131;
                }
            } else {
                if (input[7] >= 0.41061452) {
                    var22 = 0.0010920373;
                } else {
                    var22 = 0.000008520959;
                }
            }
        } else {
            if (input[12] >= 0.43995914) {
                if (input[9] >= 0.36781204) {
                    var22 = 0.000834501;
                } else {
                    var22 = -0.00040623624;
                }
            } else {
                if (input[11] >= 0.49432805) {
                    var22 = -0.000067506495;
                } else {
                    var22 = -0.0011993457;
                }
            }
        }
    } else {
        if (input[14] >= 0.6156287) {
            if (input[17] >= 0.3261094) {
                if (input[15] >= 0.31843597) {
                    var22 = 0.00090483757;
                } else {
                    var22 = -0.00038475703;
                }
            } else {
                if (input[7] >= 0.5063685) {
                    var22 = 0.00003451732;
                } else {
                    var22 = -0.0016078296;
                }
            }
        } else {
            if (input[11] >= 0.48412666) {
                if (input[3] >= 0.6190983) {
                    var22 = 0.00041267823;
                } else {
                    var22 = -0.0006830869;
                }
            } else {
                if (input[15] >= 0.32561243) {
                    var22 = -0.0010197853;
                } else {
                    var22 = -0.002419394;
                }
            }
        }
    }
    double var23;
    if (input[1] >= 0.5220541) {
        if (input[14] >= 0.45176572) {
            if (input[5] >= 0.6299788) {
                if (input[12] >= 0.74854124) {
                    var23 = 0.0030032436;
                } else {
                    var23 = 0.0015977669;
                }
            } else {
                if (input[10] >= 0.6236054) {
                    var23 = 0.0014507988;
                } else {
                    var23 = 0.00042130525;
                }
            }
        } else {
            if (input[13] >= 0.6759053) {
                if (input[8] >= 0.65952015) {
                    var23 = 0.0020027715;
                } else {
                    var23 = 0.0006037603;
                }
            } else {
                if (input[0] >= 0.6495459) {
                    var23 = 0.0006996038;
                } else {
                    var23 = -0.000493176;
                }
            }
        }
    } else {
        if (input[3] >= 0.44451863) {
            if (input[14] >= 0.3242737) {
                if (input[13] >= 0.32507774) {
                    var23 = 0.000753433;
                } else {
                    var23 = -0.0005920721;
                }
            } else {
                if (input[0] >= 0.4583717) {
                    var23 = -0.0002432514;
                } else {
                    var23 = -0.0015812124;
                }
            }
        } else {
            if (input[4] >= 0.47267473) {
                if (input[16] >= 0.49525225) {
                    var23 = 0.00018115104;
                } else {
                    var23 = -0.0010084219;
                }
            } else {
                if (input[2] >= 0.53262836) {
                    var23 = -0.00088740175;
                } else {
                    var23 = -0.0020344486;
                }
            }
        }
    }
    double var24;
    if (input[4] >= 0.4805339) {
        if (input[5] >= 0.44049484) {
            if (input[12] >= 0.5249141) {
                if (input[1] >= 0.337309) {
                    var24 = 0.0018006077;
                } else {
                    var24 = 0.0006137859;
                }
            } else {
                if (input[1] >= 0.6862341) {
                    var24 = 0.0014533213;
                } else {
                    var24 = 0.0002700302;
                }
            }
        } else {
            if (input[14] >= 0.47586507) {
                if (input[6] >= 0.6047533) {
                    var24 = 0.0012504286;
                } else {
                    var24 = 0.00012357242;
                }
            } else {
                if (input[16] >= 0.64837056) {
                    var24 = 0.0004444106;
                } else {
                    var24 = -0.0009249544;
                }
            }
        }
    } else {
        if (input[11] >= 0.46839353) {
            if (input[14] >= 0.6923802) {
                if (input[15] >= 0.6488287) {
                    var24 = 0.0019397726;
                } else {
                    var24 = 0.00062788196;
                }
            } else {
                if (input[13] >= 0.36813766) {
                    var24 = 0.00019395517;
                } else {
                    var24 = -0.000947569;
                }
            }
        } else {
            if (input[7] >= 0.6887995) {
                if (input[13] >= 0.4788891) {
                    var24 = 0.0007642343;
                } else {
                    var24 = -0.00056292047;
                }
            } else {
                if (input[0] >= 0.5850768) {
                    var24 = -0.000447608;
                } else {
                    var24 = -0.0015677908;
                }
            }
        }
    }
    double var25;
    if (input[2] >= 0.32001102) {
        if (input[10] >= 0.5888137) {
            if (input[7] >= 0.50101364) {
                if (input[15] >= 0.44810382) {
                    var25 = 0.0019674664;
                } else {
                    var25 = 0.00089550205;
                }
            } else {
                if (input[13] >= 0.3244347) {
                    var25 = 0.00083398004;
                } else {
                    var25 = -0.0004657212;
                }
            }
        } else {
            if (input[6] >= 0.6847506) {
                if (input[13] >= 0.5940394) {
                    var25 = 0.0016388306;
                } else {
                    var25 = 0.00052712345;
                }
            } else {
                if (input[1] >= 0.45486718) {
                    var25 = 0.00022258614;
                } else {
                    var25 = -0.000725355;
                }
            }
        }
    } else {
        if (input[17] >= 0.5754859) {
            if (input[3] >= 0.7627424) {
                if (input[4] >= 0.27803725) {
                    var25 = 0.001828189;
                } else {
                    var25 = -0.00023358708;
                }
            } else {
                if (input[5] >= 0.34711602) {
                    var25 = 0.000061342704;
                } else {
                    var25 = -0.0011932736;
                }
            }
        } else {
            if (input[6] >= 0.6956532) {
                if (input[12] >= 0.3970217) {
                    var25 = 0.000514166;
                } else {
                    var25 = -0.0014156514;
                }
            } else {
                if (input[4] >= 0.43031228) {
                    var25 = -0.0009094143;
                } else {
                    var25 = -0.0021445912;
                }
            }
        }
    }
    double var26;
    if (input[17] >= 0.60888004) {
        if (input[13] >= 0.34523976) {
            if (input[2] >= 0.30329227) {
                if (input[10] >= 0.3316126) {
                    var26 = 0.0016135889;
                } else {
                    var26 = 0.00044764997;
                }
            } else {
                if (input[8] >= 0.5142453) {
                    var26 = 0.00091923226;
                } else {
                    var26 = -0.0005590426;
                }
            }
        } else {
            if (input[2] >= 0.5511744) {
                if (input[11] >= 0.6886817) {
                    var26 = 0.0018293731;
                } else {
                    var26 = 0.00015656343;
                }
            } else {
                if (input[6] >= 0.63368165) {
                    var26 = 0.00024245767;
                } else {
                    var26 = -0.00090475136;
                }
            }
        }
    } else {
        if (input[2] >= 0.66238123) {
            if (input[11] >= 0.2719974) {
                if (input[3] >= 0.40517622) {
                    var26 = 0.0012077276;
                } else {
                    var26 = 0.00010225016;
                }
            } else {
                if (input[16] >= 0.5800115) {
                    var26 = 0.00030563658;
                } else {
                    var26 = -0.0011410016;
                }
            }
        } else {
            if (input[7] >= 0.50647885) {
                if (input[15] >= 0.62397397) {
                    var26 = 0.0007214307;
                } else {
                    var26 = -0.0003001315;
                }
            } else {
                if (input[15] >= 0.49429864) {
                    var26 = -0.0004597223;
                } else {
                    var26 = -0.0014067002;
                }
            }
        }
    }
    double var27;
    if (input[9] >= 0.5269153) {
        if (input[10] >= 0.3899959) {
            if (input[15] >= 0.31032795) {
                if (input[6] >= 0.6173697) {
                    var27 = 0.001868583;
                } else {
                    var27 = 0.00088713336;
                }
            } else {
                if (input[17] >= 0.6077708) {
                    var27 = 0.000833109;
                } else {
                    var27 = -0.00041651502;
                }
            }
        } else {
            if (input[7] >= 0.41288435) {
                if (input[17] >= 0.5986932) {
                    var27 = 0.0010079067;
                } else {
                    var27 = -0.00005254913;
                }
            } else {
                if (input[14] >= 0.40279227) {
                    var27 = -0.00035043425;
                } else {
                    var27 = -0.0016944723;
                }
            }
        }
    } else {
        if (input[14] >= 0.4454537) {
            if (input[1] >= 0.72165537) {
                if (input[3] >= 0.44130868) {
                    var27 = 0.001554894;
                } else {
                    var27 = 0.0002755061;
                }
            } else {
                if (input[11] >= 0.5969385) {
                    var27 = 0.00055590004;
                } else {
                    var27 = -0.00046361724;
                }
            }
        } else {
            if (input[12] >= 0.47497433) {
                if (input[8] >= 0.6471422) {
                    var27 = 0.00038235437;
                } else {
                    var27 = -0.00071249943;
                }
            } else {
                if (input[1] >= 0.5853702) {
                    var27 = -0.00072085153;
                } else {
                    var27 = -0.0018359352;
                }
            }
        }
    }
    double var28;
    if (input[0] >= 0.5599694) {
        if (input[12] >= 0.45057884) {
            if (input[1] >= 0.30377176) {
                if (input[9] >= 0.37759525) {
                    var28 = 0.0016305153;
                } else {
                    var28 = 0.000618717;
                }
            } else {
                if (input[15] >= 0.36781734) {
                    var28 = 0.0004921699;
                } else {
                    var28 = -0.00092425424;
                }
            }
        } else {
            if (input[10] >= 0.3548072) {
                if (input[14] >= 0.6908918) {
                    var28 = 0.0012615129;
                } else {
                    var28 = 0.00015948711;
                }
            } else {
                if (input[6] >= 0.32212284) {
                    var28 = -0.00032456146;
                } else {
                    var28 = -0.0018223436;
                }
            }
        }
    } else {
        if (input[8] >= 0.5281002) {
            if (input[16] >= 0.3883292) {
                if (input[2] >= 0.50623107) {
                    var28 = 0.0010792126;
                } else {
                    var28 = 0.00009643765;
                }
            } else {
                if (input[11] >= 0.61404103) {
                    var28 = 0.0003304092;
                } else {
                    var28 = -0.00087646884;
                }
            }
        } else {
            if (input[5] >= 0.37013882) {
                if (input[10] >= 0.5003798) {
                    var28 = 0.00019052596;
                } else {
                    var28 = -0.0008268205;
                }
            } else {
                if (input[2] >= 0.6287667) {
                    var28 = -0.00066058955;
                } else {
                    var28 = -0.0019090334;
                }
            }
        }
    }
    double var29;
    if (input[17] >= 0.45069313) {
        if (input[13] >= 0.3998558) {
            if (input[5] >= 0.6617187) {
                if (input[7] >= 0.5494603) {
                    var29 = 0.00222038;
                } else {
                    var29 = 0.0010969513;
                }
            } else {
                if (input[8] >= 0.4639644) {
                    var29 = 0.00093821937;
                } else {
                    var29 = 0.000014291639;
                }
            }
        } else {
            if (input[3] >= 0.63567466) {
                if (input[15] >= 0.41004187) {
                    var29 = 0.00090682297;
                } else {
                    var29 = -0.000265883;
                }
            } else {
                if (input[5] >= 0.60526013) {
                    var29 = 0.00020252107;
                } else {
                    var29 = -0.0008626815;
                }
            }
        }
    } else {
        if (input[4] >= 0.4735695) {
            if (input[3] >= 0.40642396) {
                if (input[6] >= 0.45240954) {
                    var29 = 0.0008461992;
                } else {
                    var29 = -0.0001988529;
                }
            } else {
                if (input[14] >= 0.7123626) {
                    var29 = 0.00031526308;
                } else {
                    var29 = -0.00094867876;
                }
            }
        } else {
            if (input[15] >= 0.50425005) {
                if (input[14] >= 0.69907427) {
                    var29 = 0.00049762265;
                } else {
                    var29 = -0.0007354332;
                }
            } else {
                if (input[6] >= 0.70169675) {
                    var29 = -0.00047928398;
                } else {
                    var29 = -0.0017200928;
                }
            }
        }
    }
    double var30;
    if (input[0] >= 0.6181879) {
        if (input[15] >= 0.3825691) {
            if (input[6] >= 0.68396735) {
                if (input[8] >= 0.545256) {
                    var30 = 0.0025428839;
                } else {
                    var30 = 0.0013090618;
                }
            } else {
                if (input[4] >= 0.44595134) {
                    var30 = 0.0012144982;
                } else {
                    var30 = 0.00021810859;
                }
            }
        } else {
            if (input[13] >= 0.3864171) {
                if (input[2] >= 0.63749754) {
                    var30 = 0.0013185942;
                } else {
                    var30 = 0.000032938024;
                }
            } else {
                if (input[6] >= 0.4112724) {
                    var30 = -0.00022695649;
                } else {
                    var30 = -0.0015684896;
                }
            }
        }
    } else {
        if (input[13] >= 0.6271874) {
            if (input[14] >= 0.3166922) {
                if (input[3] >= 0.6028712) {
                    var30 = 0.0014371593;
                } else {
                    var30 = 0.0003731445;
                }
            } else {
                if (input[6] >= 0.70395386) {
                    var30 = 0.0006828568;
                } else {
                    var30 = -0.00083344046;
                }
            }
        } else {
            if (input[5] >= 0.7186561) {
                if (input[3] >= 0.6354422) {
                    var30 = 0.0011918072;
                } else {
                    var30 = 0.000020139089;
                }
            } else {
                if (input[7] >= 0.6563504) {
                    var30 = 0.00007436128;
                } else {
                    var30 = -0.0009293375;
                }
            }
        }
    }
    double var31;
    if (input[16] >= 0.5138737) {
        if (input[1] >= 0.3317399) {
            if (input[11] >= 0.5918293) {
                if (input[6] >= 0.4699241) {
                    var31 = 0.0018129213;
                } else {
                    var31 = 0.00082379265;
                }
            } else {
                if (input[17] >= 0.43761617) {
                    var31 = 0.0008295848;
                } else {
                    var31 = -0.00012795682;
                }
            }
        } else {
            if (input[3] >= 0.5297622) {
                if (input[14] >= 0.35535222) {
                    var31 = 0.00062355486;
                } else {
                    var31 = -0.00075052935;
                }
            } else {
                if (input[11] >= 0.43605137) {
                    var31 = -0.000258177;
                } else {
                    var31 = -0.0014841902;
                }
            }
        }
    } else {
        if (input[3] >= 0.43211535) {
            if (input[4] >= 0.6772021) {
                if (input[2] >= 0.5483586) {
                    var31 = 0.0014161761;
                } else {
                    var31 = 0.00032756047;
                }
            } else {
                if (input[7] >= 0.3724007) {
                    var31 = 0.00010138334;
                } else {
                    var31 = -0.0009100247;
                }
            }
        } else {
            if (input[13] >= 0.68354285) {
                if (input[2] >= 0.3427751) {
                    var31 = 0.00030062595;
                } else {
                    var31 = -0.001301858;
                }
            } else {
                if (input[17] >= 0.49568328) {
                    var31 = -0.0006504599;
                } else {
                    var31 = -0.0017290558;
                }
            }
        }
    }
    double var32;
    if (input[11] >= 0.4758938) {
        if (input[10] >= 0.3963174) {
            if (input[0] >= 0.42600685) {
                if (input[16] >= 0.5568299) {
                    var32 = 0.0016217174;
                } else {
                    var32 = 0.00072017;
                }
            } else {
                if (input[15] >= 0.72329044) {
                    var32 = 0.0012348489;
                } else {
                    var32 = -0.000022793765;
                }
            }
        } else {
            if (input[15] >= 0.6881226) {
                if (input[7] >= 0.15579176) {
                    var32 = 0.0008693171;
                } else {
                    var32 = -0.001566156;
                }
            } else {
                if (input[8] >= 0.50766385) {
                    var32 = 0.0001268525;
                } else {
                    var32 = -0.00086718495;
                }
            }
        }
    } else {
        if (input[7] >= 0.68228334) {
            if (input[13] >= 0.40675157) {
                if (input[2] >= 0.37690803) {
                    var32 = 0.0011379772;
                } else {
                    var32 = 0.000017588818;
                }
            } else {
                if (input[3] >= 0.21484667) {
                    var32 = -0.000021405973;
                } else {
                    var32 = -0.0017042342;
                }
            }
        } else {
            if (input[14] >= 0.47945514) {
                if (input[6] >= 0.41128284) {
                    var32 = 0.00017611428;
                } else {
                    var32 = -0.000848126;
                }
            } else {
                if (input[10] >= 0.45848334) {
                    var32 = -0.00067471666;
                } else {
                    var32 = -0.0017379149;
                }
            }
        }
    }
    double var33;
    if (input[2] >= 0.32001102) {
        if (input[8] >= 0.6528034) {
            if (input[9] >= 0.4204555) {
                if (input[0] >= 0.3982193) {
                    var33 = 0.0016317818;
                } else {
                    var33 = 0.00062365306;
                }
            } else {
                if (input[13] >= 0.7343872) {
                    var33 = 0.0014289409;
                } else {
                    var33 = 0.000043823155;
                }
            }
        } else {
            if (input[10] >= 0.5158235) {
                if (input[12] >= 0.51912355) {
                    var33 = 0.0009583097;
                } else {
                    var33 = 0.000059626163;
                }
            } else {
                if (input[1] >= 0.39846528) {
                    var33 = -0.00006051732;
                } else {
                    var33 = -0.000991429;
                }
            }
        }
    } else {
        if (input[14] >= 0.57041323) {
            if (input[17] >= 0.26327747) {
                if (input[10] >= 0.6519284) {
                    var33 = 0.00093904114;
                } else {
                    var33 = -0.0002092223;
                }
            } else {
                if (input[12] >= 0.34391332) {
                    var33 = -0.00091784925;
                } else {
                    var33 = -0.0023508184;
                }
            }
        } else {
            if (input[10] >= 0.63236547) {
                if (input[8] >= 0.2789024) {
                    var33 = -0.00007150488;
                } else {
                    var33 = -0.001636015;
                }
            } else {
                if (input[7] >= 0.3927441) {
                    var33 = -0.0010053983;
                } else {
                    var33 = -0.00219463;
                }
            }
        }
    }
    double var34;
    if (input[2] >= 0.5801314) {
        if (input[15] >= 0.45292267) {
            if (input[5] >= 0.5600524) {
                if (input[17] >= 0.382859) {
                    var34 = 0.001820993;
                } else {
                    var34 = 0.0006983795;
                }
            } else {
                if (input[4] >= 0.6333524) {
                    var34 = 0.0013064974;
                } else {
                    var34 = 0.00020342838;
                }
            }
        } else {
            if (input[8] >= 0.5189482) {
                if (input[14] >= 0.4752416) {
                    var34 = 0.0009213944;
                } else {
                    var34 = -0.00004781048;
                }
            } else {
                if (input[12] >= 0.3891008) {
                    var34 = -0.000024926769;
                } else {
                    var34 = -0.0010972539;
                }
            }
        }
    } else {
        if (input[1] >= 0.72060025) {
            if (input[8] >= 0.42961615) {
                if (input[5] >= 0.67188394) {
                    var34 = 0.0018354424;
                } else {
                    var34 = 0.00060441624;
                }
            } else {
                if (input[3] >= 0.7291012) {
                    var34 = 0.00088287506;
                } else {
                    var34 = -0.0003926063;
                }
            }
        } else {
            if (input[9] >= 0.57753116) {
                if (input[5] >= 0.38738322) {
                    var34 = 0.00044668745;
                } else {
                    var34 = -0.0006321952;
                }
            } else {
                if (input[15] >= 0.47878197) {
                    var34 = -0.00036022093;
                } else {
                    var34 = -0.0012489894;
                }
            }
        }
    }
    double var35;
    if (input[4] >= 0.36380702) {
        if (input[3] >= 0.6282375) {
            if (input[6] >= 0.5665077) {
                if (input[8] >= 0.3214016) {
                    var35 = 0.0016964291;
                } else {
                    var35 = 0.00045115352;
                }
            } else {
                if (input[13] >= 0.5984566) {
                    var35 = 0.0011630582;
                } else {
                    var35 = 0.00018437569;
                }
            }
        } else {
            if (input[8] >= 0.57204604) {
                if (input[0] >= 0.6565337) {
                    var35 = 0.0012569589;
                } else {
                    var35 = 0.00027928106;
                }
            } else {
                if (input[16] >= 0.47965187) {
                    var35 = 0.00011442532;
                } else {
                    var35 = -0.0007780839;
                }
            }
        }
    } else {
        if (input[8] >= 0.3964702) {
            if (input[0] >= 0.3985639) {
                if (input[9] >= 0.5443901) {
                    var35 = 0.00063342415;
                } else {
                    var35 = -0.00034024904;
                }
            } else {
                if (input[1] >= 0.3317989) {
                    var35 = -0.0006430596;
                } else {
                    var35 = -0.0020704537;
                }
            }
        } else {
            if (input[7] >= 0.7966209) {
                if (input[17] >= 0.5651113) {
                    var35 = 0.0010145458;
                } else {
                    var35 = -0.0006509827;
                }
            } else {
                if (input[14] >= 0.4154969) {
                    var35 = -0.00094875286;
                } else {
                    var35 = -0.0020701357;
                }
            }
        }
    }
    double var36;
    if (input[7] >= 0.5079373) {
        if (input[10] >= 0.6258337) {
            if (input[4] >= 0.5585424) {
                if (input[16] >= 0.7483437) {
                    var36 = 0.0027598108;
                } else {
                    var36 = 0.0013846463;
                }
            } else {
                if (input[5] >= 0.6700312) {
                    var36 = 0.0014775249;
                } else {
                    var36 = 0.0003543802;
                }
            }
        } else {
            if (input[14] >= 0.6533621) {
                if (input[16] >= 0.35150823) {
                    var36 = 0.0011337096;
                } else {
                    var36 = 0.00006444588;
                }
            } else {
                if (input[11] >= 0.29446796) {
                    var36 = 0.00015289291;
                } else {
                    var36 = -0.001008679;
                }
            }
        }
    } else {
        if (input[0] >= 0.59700954) {
            if (input[13] >= 0.310804) {
                if (input[16] >= 0.27432874) {
                    var36 = 0.00070736953;
                } else {
                    var36 = -0.000623031;
                }
            } else {
                if (input[9] >= 0.42932516) {
                    var36 = -0.00019514565;
                } else {
                    var36 = -0.0012508264;
                }
            }
        } else {
            if (input[1] >= 0.66563284) {
                if (input[14] >= 0.6313598) {
                    var36 = 0.00079851603;
                } else {
                    var36 = -0.00029971113;
                }
            } else {
                if (input[9] >= 0.7381251) {
                    var36 = 0.000008235469;
                } else {
                    var36 = -0.0011096118;
                }
            }
        }
    }
    double var37;
    if (input[12] >= 0.33479005) {
        if (input[6] >= 0.5029875) {
            if (input[5] >= 0.6422008) {
                if (input[17] >= 0.4840629) {
                    var37 = 0.0017515388;
                } else {
                    var37 = 0.0007829977;
                }
            } else {
                if (input[8] >= 0.3535745) {
                    var37 = 0.0006879771;
                } else {
                    var37 = -0.00033450077;
                }
            }
        } else {
            if (input[3] >= 0.44429144) {
                if (input[17] >= 0.58133113) {
                    var37 = 0.0008032544;
                } else {
                    var37 = -0.000119463155;
                }
            } else {
                if (input[15] >= 0.52695394) {
                    var37 = -0.000181055;
                } else {
                    var37 = -0.0010619186;
                }
            }
        }
    } else {
        if (input[5] >= 0.34994245) {
            if (input[11] >= 0.4469079) {
                if (input[13] >= 0.35553175) {
                    var37 = 0.00033776002;
                } else {
                    var37 = -0.0007445218;
                }
            } else {
                if (input[10] >= 0.5671298) {
                    var37 = -0.00036432256;
                } else {
                    var37 = -0.0013806542;
                }
            }
        } else {
            if (input[17] >= 0.6691608) {
                if (input[16] >= 0.5093972) {
                    var37 = 0.00046777353;
                } else {
                    var37 = -0.001461355;
                }
            } else {
                if (input[14] >= 0.6286094) {
                    var37 = -0.0009566659;
                } else {
                    var37 = -0.002137905;
                }
            }
        }
    }
    double var38;
    if (input[15] >= 0.6646918) {
        if (input[9] >= 0.7066598) {
            if (input[13] >= 0.6406284) {
                if (input[7] >= 0.4957732) {
                    var38 = 0.0029586668;
                } else {
                    var38 = 0.0016458902;
                }
            } else {
                if (input[14] >= 0.23131242) {
                    var38 = 0.0012693664;
                } else {
                    var38 = -0.00042872125;
                }
            }
        } else {
            if (input[7] >= 0.35362488) {
                if (input[8] >= 0.56802154) {
                    var38 = 0.0013022837;
                } else {
                    var38 = 0.00035456815;
                }
            } else {
                if (input[10] >= 0.68238175) {
                    var38 = 0.0005614652;
                } else {
                    var38 = -0.0005297135;
                }
            }
        }
    } else {
        if (input[9] >= 0.39278716) {
            if (input[5] >= 0.44215873) {
                if (input[11] >= 0.66103405) {
                    var38 = 0.0010753068;
                } else {
                    var38 = 0.00018017796;
                }
            } else {
                if (input[7] >= 0.6577957) {
                    var38 = 0.0002978226;
                } else {
                    var38 = -0.000734462;
                }
            }
        } else {
            if (input[13] >= 0.65958667) {
                if (input[3] >= 0.48171645) {
                    var38 = 0.0003625047;
                } else {
                    var38 = -0.0007262115;
                }
            } else {
                if (input[12] >= 0.38921183) {
                    var38 = -0.0006988155;
                } else {
                    var38 = -0.0016513444;
                }
            }
        }
    }
    double var39;
    if (input[3] >= 0.49940634) {
        if (input[16] >= 0.52359045) {
            if (input[11] >= 0.27741325) {
                if (input[15] >= 0.5145577) {
                    var39 = 0.0014420159;
                } else {
                    var39 = 0.00060511194;
                }
            } else {
                if (input[2] >= 0.63193464) {
                    var39 = 0.000633669;
                } else {
                    var39 = -0.0004794114;
                }
            }
        } else {
            if (input[12] >= 0.26848173) {
                if (input[1] >= 0.5696951) {
                    var39 = 0.00070122187;
                } else {
                    var39 = -0.00015438283;
                }
            } else {
                if (input[6] >= 0.2646203) {
                    var39 = -0.0006690219;
                } else {
                    var39 = -0.0020991487;
                }
            }
        }
    } else {
        if (input[14] >= 0.4945024) {
            if (input[6] >= 0.46274948) {
                if (input[0] >= 0.621393) {
                    var39 = 0.0010629677;
                } else {
                    var39 = 0.00009931127;
                }
            } else {
                if (input[9] >= 0.6916369) {
                    var39 = 0.00030091603;
                } else {
                    var39 = -0.00071886386;
                }
            }
        } else {
            if (input[13] >= 0.6930186) {
                if (input[1] >= 0.5507911) {
                    var39 = 0.00060050417;
                } else {
                    var39 = -0.0005329793;
                }
            } else {
                if (input[12] >= 0.1932976) {
                    var39 = -0.00086186646;
                } else {
                    var39 = -0.0023033149;
                }
            }
        }
    }
    double var40;
    if (input[17] >= 0.45069313) {
        if (input[1] >= 0.3324998) {
            if (input[14] >= 0.46673453) {
                if (input[6] >= 0.40911287) {
                    var40 = 0.001230798;
                } else {
                    var40 = 0.00038588923;
                }
            } else {
                if (input[7] >= 0.6643915) {
                    var40 = 0.0008649121;
                } else {
                    var40 = -0.00012526261;
                }
            }
        } else {
            if (input[8] >= 0.78441703) {
                if (input[3] >= 0.7540529) {
                    var40 = 0.0020597947;
                } else {
                    var40 = 0.0006160098;
                }
            } else {
                if (input[15] >= 0.52812344) {
                    var40 = 0.000008630942;
                } else {
                    var40 = -0.00087656296;
                }
            }
        }
    } else {
        if (input[9] >= 0.5830266) {
            if (input[8] >= 0.28932703) {
                if (input[3] >= 0.30076975) {
                    var40 = 0.00058553217;
                } else {
                    var40 = -0.0005853274;
                }
            } else {
                if (input[1] >= 0.60191745) {
                    var40 = -0.00019091173;
                } else {
                    var40 = -0.0013732415;
                }
            }
        } else {
            if (input[6] >= 0.4628494) {
                if (input[3] >= 0.41706687) {
                    var40 = -0.00003684446;
                } else {
                    var40 = -0.0010301445;
                }
            } else {
                if (input[14] >= 0.62022936) {
                    var40 = -0.0006044612;
                } else {
                    var40 = -0.001619841;
                }
            }
        }
    }
    double var41;
    if (input[12] >= 0.5944828) {
        if (input[16] >= 0.69967014) {
            if (input[6] >= 0.31394434) {
                if (input[7] >= 0.2746693) {
                    var41 = 0.001643723;
                } else {
                    var41 = 0.0003562047;
                }
            } else {
                if (input[5] >= 0.5775176) {
                    var41 = 0.0011304792;
                } else {
                    var41 = -0.00020167303;
                }
            }
        } else {
            if (input[6] >= 0.65719074) {
                if (input[2] >= 0.6611935) {
                    var41 = 0.0017317539;
                } else {
                    var41 = 0.0006872297;
                }
            } else {
                if (input[15] >= 0.3157236) {
                    var41 = 0.00029574972;
                } else {
                    var41 = -0.0007339143;
                }
            }
        }
    } else {
        if (input[0] >= 0.6260603) {
            if (input[4] >= 0.44595134) {
                if (input[15] >= 0.44295272) {
                    var41 = 0.0010815904;
                } else {
                    var41 = 0.00011250564;
                }
            } else {
                if (input[10] >= 0.65457463) {
                    var41 = 0.00064578943;
                } else {
                    var41 = -0.00054918835;
                }
            }
        } else {
            if (input[9] >= 0.54156244) {
                if (input[2] >= 0.43311888) {
                    var41 = 0.00027930763;
                } else {
                    var41 = -0.0006164576;
                }
            } else {
                if (input[17] >= 0.64505434) {
                    var41 = -0.00022437051;
                } else {
                    var41 = -0.0011740252;
                }
            }
        }
    }
    double var42;
    if (input[4] >= 0.5675161) {
        if (input[0] >= 0.5341592) {
            if (input[5] >= 0.32982144) {
                if (input[16] >= 0.6040486) {
                    var42 = 0.0016192384;
                } else {
                    var42 = 0.000816779;
                }
            } else {
                if (input[17] >= 0.5934396) {
                    var42 = 0.00091831555;
                } else {
                    var42 = -0.0002623653;
                }
            }
        } else {
            if (input[15] >= 0.43382782) {
                if (input[13] >= 0.626675) {
                    var42 = 0.0010677892;
                } else {
                    var42 = 0.00016429398;
                }
            } else {
                if (input[14] >= 0.42611718) {
                    var42 = -0.000058500722;
                } else {
                    var42 = -0.0010917807;
                }
            }
        }
    } else {
        if (input[6] >= 0.41092288) {
            if (input[17] >= 0.5247539) {
                if (input[15] >= 0.45400143) {
                    var42 = 0.00077103905;
                } else {
                    var42 = -0.000086035994;
                }
            } else {
                if (input[9] >= 0.4008266) {
                    var42 = -0.000022778897;
                } else {
                    var42 = -0.0009886529;
                }
            }
        } else {
            if (input[5] >= 0.6983422) {
                if (input[13] >= 0.33836567) {
                    var42 = 0.00026836625;
                } else {
                    var42 = -0.0008768576;
                }
            } else {
                if (input[12] >= 0.5347514) {
                    var42 = -0.000541154;
                } else {
                    var42 = -0.0014492025;
                }
            }
        }
    }
    double var43;
    if (input[10] >= 0.599344) {
        if (input[13] >= 0.32428354) {
            if (input[15] >= 0.5061784) {
                if (input[14] >= 0.28781018) {
                    var43 = 0.0013232047;
                } else {
                    var43 = 0.00010537016;
                }
            } else {
                if (input[11] >= 0.32572228) {
                    var43 = 0.0005492674;
                } else {
                    var43 = -0.00054964155;
                }
            }
        } else {
            if (input[9] >= 0.63815904) {
                if (input[2] >= 0.22914493) {
                    var43 = 0.0006949227;
                } else {
                    var43 = -0.00084345334;
                }
            } else {
                if (input[0] >= 0.47454196) {
                    var43 = -0.00014897526;
                } else {
                    var43 = -0.0011249596;
                }
            }
        }
    } else {
        if (input[7] >= 0.67047787) {
            if (input[13] >= 0.46872455) {
                if (input[2] >= 0.47911388) {
                    var43 = 0.0011744726;
                } else {
                    var43 = 0.00024938837;
                }
            } else {
                if (input[8] >= 0.7679256) {
                    var43 = 0.0011101923;
                } else {
                    var43 = -0.00035204005;
                }
            }
        } else {
            if (input[11] >= 0.43086284) {
                if (input[6] >= 0.6825552) {
                    var43 = 0.00054113014;
                } else {
                    var43 = -0.00035679084;
                }
            } else {
                if (input[0] >= 0.55017555) {
                    var43 = -0.00053564203;
                } else {
                    var43 = -0.0014108762;
                }
            }
        }
    }
    double var44;
    if (input[2] >= 0.6529938) {
        if (input[12] >= 0.44993806) {
            if (input[7] >= 0.3543647) {
                if (input[15] >= 0.5010469) {
                    var44 = 0.0015776794;
                } else {
                    var44 = 0.00068701874;
                }
            } else {
                if (input[8] >= 0.42205447) {
                    var44 = 0.00059477834;
                } else {
                    var44 = -0.0005439453;
                }
            }
        } else {
            if (input[11] >= 0.65091515) {
                if (input[9] >= 0.531726) {
                    var44 = 0.0012768409;
                } else {
                    var44 = 0.00041014623;
                }
            } else {
                if (input[8] >= 0.35530722) {
                    var44 = 0.00007869564;
                } else {
                    var44 = -0.00096979085;
                }
            }
        }
    } else {
        if (input[4] >= 0.5566015) {
            if (input[3] >= 0.7135627) {
                if (input[13] >= 0.5997949) {
                    var44 = 0.0015984265;
                } else {
                    var44 = 0.0005413554;
                }
            } else {
                if (input[8] >= 0.5863297) {
                    var44 = 0.00048355322;
                } else {
                    var44 = -0.00027225493;
                }
            }
        } else {
            if (input[17] >= 0.63652563) {
                if (input[8] >= 0.23889405) {
                    var44 = 0.00022163182;
                } else {
                    var44 = -0.0011131496;
                }
            } else {
                if (input[10] >= 0.34966114) {
                    var44 = -0.0005110234;
                } else {
                    var44 = -0.0014687296;
                }
            }
        }
    }
    double var45;
    if (input[11] >= 0.5930104) {
        if (input[0] >= 0.4354111) {
            if (input[16] >= 0.6006098) {
                if (input[8] >= 0.73914707) {
                    var45 = 0.0023175105;
                } else {
                    var45 = 0.0011238517;
                }
            } else {
                if (input[14] >= 0.69302917) {
                    var45 = 0.0011936547;
                } else {
                    var45 = 0.00022206701;
                }
            }
        } else {
            if (input[17] >= 0.32218122) {
                if (input[9] >= 0.73680586) {
                    var45 = 0.0010000495;
                } else {
                    var45 = 0.00001951187;
                }
            } else {
                if (input[5] >= 0.58907545) {
                    var45 = -0.00011108647;
                } else {
                    var45 = -0.0013729406;
                }
            }
        }
    } else {
        if (input[5] >= 0.39788368) {
            if (input[9] >= 0.6889653) {
                if (input[13] >= 0.68810916) {
                    var45 = 0.0014645226;
                } else {
                    var45 = 0.00040086458;
                }
            } else {
                if (input[12] >= 0.6821281) {
                    var45 = 0.00047890915;
                } else {
                    var45 = -0.0004087092;
                }
            }
        } else {
            if (input[8] >= 0.4560477) {
                if (input[15] >= 0.37273532) {
                    var45 = -0.00013564274;
                } else {
                    var45 = -0.0011347786;
                }
            } else {
                if (input[9] >= 0.59231293) {
                    var45 = -0.000736348;
                } else {
                    var45 = -0.001736571;
                }
            }
        }
    }
    double var46;
    if (input[13] >= 0.54861975) {
        if (input[7] >= 0.37317032) {
            if (input[15] >= 0.42647815) {
                if (input[17] >= 0.7739998) {
                    var46 = 0.0019135118;
                } else {
                    var46 = 0.00081660034;
                }
            } else {
                if (input[6] >= 0.58376265) {
                    var46 = 0.00077295;
                } else {
                    var46 = -0.0002071088;
                }
            }
        } else {
            if (input[16] >= 0.69834656) {
                if (input[6] >= 0.40964383) {
                    var46 = 0.0010725834;
                } else {
                    var46 = -0.00014135448;
                }
            } else {
                if (input[2] >= 0.44902506) {
                    var46 = -0.000028629103;
                } else {
                    var46 = -0.0009527995;
                }
            }
        }
    } else {
        if (input[1] >= 0.5220541) {
            if (input[16] >= 0.6235837) {
                if (input[11] >= 0.6973695) {
                    var46 = 0.0014294767;
                } else {
                    var46 = 0.0004133128;
                }
            } else {
                if (input[6] >= 0.32624283) {
                    var46 = 0.00003410043;
                } else {
                    var46 = -0.00092527695;
                }
            }
        } else {
            if (input[17] >= 0.668641) {
                if (input[8] >= 0.2993933) {
                    var46 = 0.000274203;
                } else {
                    var46 = -0.0010067134;
                }
            } else {
                if (input[3] >= 0.6413312) {
                    var46 = -0.00028393752;
                } else {
                    var46 = -0.0011452428;
                }
            }
        }
    }
    double var47;
    if (input[14] >= 0.5997236) {
        if (input[4] >= 0.709604) {
            if (input[12] >= 0.31302446) {
                if (input[17] >= 0.26100624) {
                    var47 = 0.0016190051;
                } else {
                    var47 = 0.00020193777;
                }
            } else {
                if (input[1] >= 0.4860072) {
                    var47 = 0.00079648866;
                } else {
                    var47 = -0.0004956615;
                }
            }
        } else {
            if (input[13] >= 0.5268414) {
                if (input[2] >= 0.32148427) {
                    var47 = 0.0008845216;
                } else {
                    var47 = -0.00020912709;
                }
            } else {
                if (input[9] >= 0.41362292) {
                    var47 = 0.0002091185;
                } else {
                    var47 = -0.00062859996;
                }
            }
        }
    } else {
        if (input[1] >= 0.71775246) {
            if (input[6] >= 0.6648741) {
                if (input[10] >= 0.6767085) {
                    var47 = 0.0019275834;
                } else {
                    var47 = 0.0008399696;
                }
            } else {
                if (input[11] >= 0.6933073) {
                    var47 = 0.0009166532;
                } else {
                    var47 = -0.000048070655;
                }
            }
        } else {
            if (input[17] >= 0.6406328) {
                if (input[4] >= 0.4074634) {
                    var47 = 0.00044338172;
                } else {
                    var47 = -0.0004685436;
                }
            } else {
                if (input[7] >= 0.6288702) {
                    var47 = -0.000106142325;
                } else {
                    var47 = -0.0009115895;
                }
            }
        }
    }
    double var48;
    if (input[5] >= 0.6335495) {
        if (input[7] >= 0.55704194) {
            if (input[13] >= 0.55537087) {
                if (input[11] >= 0.39590758) {
                    var48 = 0.0017200588;
                } else {
                    var48 = 0.0007953112;
                }
            } else {
                if (input[14] >= 0.34921026) {
                    var48 = 0.00082098093;
                } else {
                    var48 = -0.00018163331;
                }
            }
        } else {
            if (input[6] >= 0.21708366) {
                if (input[1] >= 0.33643234) {
                    var48 = 0.00056527735;
                } else {
                    var48 = -0.00035225807;
                }
            } else {
                if (input[3] >= 0.59155583) {
                    var48 = -0.00035274526;
                } else {
                    var48 = -0.0015609163;
                }
            }
        }
    } else {
        if (input[16] >= 0.6507834) {
            if (input[8] >= 0.35276443) {
                if (input[15] >= 0.6601048) {
                    var48 = 0.0011553903;
                } else {
                    var48 = 0.00031863077;
                }
            } else {
                if (input[17] >= 0.49943003) {
                    var48 = 0.00016037318;
                } else {
                    var48 = -0.0009903603;
                }
            }
        } else {
            if (input[3] >= 0.4380953) {
                if (input[10] >= 0.41581333) {
                    var48 = 0.00013957666;
                } else {
                    var48 = -0.00068490783;
                }
            } else {
                if (input[9] >= 0.5774983) {
                    var48 = -0.0004776361;
                } else {
                    var48 = -0.0012456549;
                }
            }
        }
    }
    double var49;
    if (input[2] >= 0.3199787) {
        if (input[6] >= 0.40949202) {
            if (input[0] >= 0.51264393) {
                if (input[14] >= 0.39973572) {
                    var49 = 0.0010680754;
                } else {
                    var49 = 0.00028489248;
                }
            } else {
                if (input[7] >= 0.4965073) {
                    var49 = 0.00047609344;
                } else {
                    var49 = -0.00028258376;
                }
            }
        } else {
            if (input[5] >= 0.6346817) {
                if (input[13] >= 0.36178726) {
                    var49 = 0.00057513505;
                } else {
                    var49 = -0.00036545657;
                }
            } else {
                if (input[16] >= 0.51439065) {
                    var49 = -0.0001447617;
                } else {
                    var49 = -0.0009045423;
                }
            }
        }
    } else {
        if (input[11] >= 0.3884152) {
            if (input[10] >= 0.6492198) {
                if (input[17] >= 0.26458478) {
                    var49 = 0.00041563378;
                } else {
                    var49 = -0.0011814582;
                }
            } else {
                if (input[4] >= 0.43188432) {
                    var49 = -0.00032489953;
                } else {
                    var49 = -0.0012341602;
                }
            }
        } else {
            if (input[1] >= 0.43679) {
                if (input[14] >= 0.28302246) {
                    var49 = -0.00055887655;
                } else {
                    var49 = -0.0018621972;
                }
            } else {
                if (input[9] >= 0.7432686) {
                    var49 = -0.000568806;
                } else {
                    var49 = -0.0020370479;
                }
            }
        }
    }
    double var50;
    if (input[4] >= 0.52662003) {
        if (input[17] >= 0.32284698) {
            if (input[12] >= 0.4505447) {
                if (input[16] >= 0.3904672) {
                    var50 = 0.0011047054;
                } else {
                    var50 = 0.00024031413;
                }
            } else {
                if (input[15] >= 0.3861453) {
                    var50 = 0.00036461407;
                } else {
                    var50 = -0.000552399;
                }
            }
        } else {
            if (input[13] >= 0.7588346) {
                if (input[3] >= 0.81548977) {
                    var50 = 0.0023418455;
                } else {
                    var50 = 0.00053083815;
                }
            } else {
                if (input[5] >= 0.321833) {
                    var50 = -0.00028308152;
                } else {
                    var50 = -0.0012224762;
                }
            }
        }
    } else {
        if (input[1] >= 0.4027377) {
            if (input[12] >= 0.672086) {
                if (input[14] >= 0.5991057) {
                    var50 = 0.0010624029;
                } else {
                    var50 = 0.00020171743;
                }
            } else {
                if (input[6] >= 0.4114404) {
                    var50 = -0.0000369848;
                } else {
                    var50 = -0.00082369294;
                }
            }
        } else {
            if (input[5] >= 0.443098) {
                if (input[3] >= 0.46982372) {
                    var50 = -0.00014498185;
                } else {
                    var50 = -0.0009843855;
                }
            } else {
                if (input[8] >= 0.4118754) {
                    var50 = -0.00093154865;
                } else {
                    var50 = -0.0020776442;
                }
            }
        }
    }
    double var51;
    if (input[10] >= 0.613984) {
        if (input[0] >= 0.57468843) {
            if (input[8] >= 0.29948425) {
                if (input[7] >= 0.2589305) {
                    var51 = 0.0012054709;
                } else {
                    var51 = 0.000100934885;
                }
            } else {
                if (input[11] >= 0.75911653) {
                    var51 = 0.0012244212;
                } else {
                    var51 = -0.00019128871;
                }
            }
        } else {
            if (input[14] >= 0.299122) {
                if (input[12] >= 0.31246978) {
                    var51 = 0.000547384;
                } else {
                    var51 = -0.0004166039;
                }
            } else {
                if (input[11] >= 0.32548693) {
                    var51 = -0.00038527182;
                } else {
                    var51 = -0.0016920479;
                }
            }
        }
    } else {
        if (input[1] >= 0.4717462) {
            if (input[3] >= 0.6941838) {
                if (input[17] >= 0.33444387) {
                    var51 = 0.0009258578;
                } else {
                    var51 = -0.00014854285;
                }
            } else {
                if (input[9] >= 0.3054464) {
                    var51 = 0.000039684022;
                } else {
                    var51 = -0.0009002157;
                }
            }
        } else {
            if (input[0] >= 0.45170373) {
                if (input[13] >= 0.29339826) {
                    var51 = -0.00014651228;
                } else {
                    var51 = -0.0011965239;
                }
            } else {
                if (input[11] >= 0.6972298) {
                    var51 = -0.00036950156;
                } else {
                    var51 = -0.0013424839;
                }
            }
        }
    }
    double var52;
    if (input[5] >= 0.40489388) {
        if (input[8] >= 0.31808102) {
            if (input[13] >= 0.682173) {
                if (input[9] >= 0.56006336) {
                    var52 = 0.0014980778;
                } else {
                    var52 = 0.00060315925;
                }
            } else {
                if (input[3] >= 0.6358315) {
                    var52 = 0.0007085679;
                } else {
                    var52 = -0.000016024065;
                }
            }
        } else {
            if (input[10] >= 0.672117) {
                if (input[11] >= 0.8031242) {
                    var52 = 0.0014173493;
                } else {
                    var52 = 0.00004589008;
                }
            } else {
                if (input[4] >= 0.3083591) {
                    var52 = -0.0004524608;
                } else {
                    var52 = -0.0013839297;
                }
            }
        }
    } else {
