double clamp01(double value) => value < 0.0 ? 0.0 : (value > 1.0 ? 1.0 : value);

double scoreP2(List<double> features) {
  final value = ((List<double> input) {
    double var0;
    if (input[10] >= 0.5030426) {
        if (input[13] >= 0.5554497) {
            if (input[14] >= 0.53931653) {
                if (input[12] >= 0.4950121) {
                    var0 = 0.0038783234;
                } else {
                    var0 = 0.0024193164;
                }
            } else {
                if (input[11] >= 0.50785965) {
                    var0 = 0.0025770974;
                } else {
                    var0 = 0.0012123841;
                }
            }
        } else {
            if (input[1] >= 0.57369745) {
                if (input[2] >= 0.47329915) {
                    var0 = 0.002634302;
                } else {
                    var0 = 0.0011157888;
                }
            } else {
                if (input[14] >= 0.611665) {
                    var0 = 0.001451931;
                } else {
                    var0 = 0.00010694309;
                }
            }
        }
    } else {
        if (input[11] >= 0.5344987) {
            if (input[4] >= 0.53251517) {
                if (input[9] >= 0.5461009) {
                    var0 = 0.002666715;
                } else {
                    var0 = 0.0013820417;
                }
            } else {
                if (input[3] >= 0.6362405) {
                    var0 = 0.0015820023;
                } else {
                    var0 = -0.00009444727;
                }
            }
        } else {
            if (input[4] >= 0.60578024) {
                if (input[8] >= 0.4320892) {
                    var0 = 0.0012284664;
                } else {
                    var0 = -0.00036885877;
                }
            } else {
                if (input[13] >= 0.52842927) {
                    var0 = -0.000017205437;
                } else {
                    var0 = -0.001407401;
                }
            }
        }
    }
    double var1;
    if (input[3] >= 0.49177024) {
        if (input[7] >= 0.47006303) {
            if (input[2] >= 0.4547447) {
                if (input[0] >= 0.40781122) {
                    var1 = 0.0031901698;
                } else {
                    var1 = 0.0017409517;
                }
            } else {
                if (input[5] >= 0.59973556) {
                    var1 = 0.002256251;
                } else {
                    var1 = 0.00087664986;
                }
            }
        } else {
            if (input[13] >= 0.54297376) {
                if (input[8] >= 0.5025977) {
                    var1 = 0.002341593;
                } else {
                    var1 = 0.00087539334;
                }
            } else {
                if (input[0] >= 0.46107233) {
                    var1 = 0.0008410324;
                } else {
                    var1 = -0.00055806816;
                }
            }
        }
    } else {
        if (input[10] >= 0.62076056) {
            if (input[14] >= 0.5488516) {
                if (input[8] >= 0.57322013) {
                    var1 = 0.0029183805;
                } else {
                    var1 = 0.0014204885;
                }
            } else {
                if (input[6] >= 0.551142) {
                    var1 = 0.0015076044;
                } else {
                    var1 = -0.00010604656;
                }
            }
        } else {
            if (input[4] >= 0.6557281) {
                if (input[6] >= 0.45300126) {
                    var1 = 0.0015576485;
                } else {
                    var1 = 0.00002861134;
                }
            } else {
                if (input[12] >= 0.41609436) {
                    var1 = -0.00006184915;
                } else {
                    var1 = -0.0014444379;
                }
            }
        }
    }
    double var2;
    if (input[10] >= 0.45559043) {
        if (input[13] >= 0.5603529) {
            if (input[1] >= 0.52930486) {
                if (input[6] >= 0.4526904) {
                    var2 = 0.0034676553;
                } else {
                    var2 = 0.0021034607;
                }
            } else {
                if (input[2] >= 0.4074692) {
                    var2 = 0.0021341972;
                } else {
                    var2 = 0.0005662906;
                }
            }
        } else {
            if (input[9] >= 0.5376842) {
                if (input[3] >= 0.34619004) {
                    var2 = 0.0020618462;
                } else {
                    var2 = 0.00044892618;
                }
            } else {
                if (input[12] >= 0.45726138) {
                    var2 = 0.0009345799;
                } else {
                    var2 = -0.00046876256;
                }
            }
        }
    } else {
        if (input[11] >= 0.5344368) {
            if (input[1] >= 0.57419133) {
                if (input[2] >= 0.36208594) {
                    var2 = 0.0022204437;
                } else {
                    var2 = 0.00043915326;
                }
            } else {
                if (input[12] >= 0.5639721) {
                    var2 = 0.0011566252;
                } else {
                    var2 = -0.00027489814;
                }
            }
        } else {
            if (input[3] >= 0.5172043) {
                if (input[8] >= 0.55439794) {
                    var2 = 0.0010832415;
                } else {
                    var2 = -0.0004178998;
                }
            } else {
                if (input[1] >= 0.3742481) {
                    var2 = -0.00065830135;
                } else {
                    var2 = -0.0020064504;
                }
            }
        }
    }
    double var3;
    if (input[11] >= 0.54058456) {
        if (input[9] >= 0.54206234) {
            if (input[5] >= 0.5402845) {
                if (input[10] >= 0.4257179) {
                    var3 = 0.0033685218;
                } else {
                    var3 = 0.0020113236;
                }
            } else {
                if (input[1] >= 0.56065357) {
                    var3 = 0.002386625;
                } else {
                    var3 = 0.0011123517;
                }
            }
        } else {
            if (input[6] >= 0.43652365) {
                if (input[8] >= 0.57613707) {
                    var3 = 0.0023710895;
                } else {
                    var3 = 0.0009794062;
                }
            } else {
                if (input[3] >= 0.4839191) {
                    var3 = 0.00083485927;
                } else {
                    var3 = -0.0006656527;
                }
            }
        }
    } else {
        if (input[12] >= 0.4477713) {
            if (input[8] >= 0.6113554) {
                if (input[6] >= 0.5381105) {
                    var3 = 0.0025228765;
                } else {
                    var3 = 0.0011257002;
                }
            } else {
                if (input[6] >= 0.6088257) {
                    var3 = 0.0012614228;
                } else {
                    var3 = -0.000052553252;
                }
            }
        } else {
            if (input[10] >= 0.55689514) {
                if (input[14] >= 0.5922432) {
                    var3 = 0.0012598396;
                } else {
                    var3 = -0.0002752352;
                }
            } else {
                if (input[6] >= 0.54478955) {
                    var3 = -0.00025828564;
                } else {
                    var3 = -0.001601534;
                }
            }
        }
    }
    double var4;
    if (input[14] >= 0.5443499) {
        if (input[6] >= 0.53737354) {
            if (input[7] >= 0.5261359) {
                if (input[0] >= 0.45666698) {
                    var4 = 0.0034146958;
                } else {
                    var4 = 0.0020608248;
                }
            } else {
                if (input[12] >= 0.5523432) {
                    var4 = 0.0023814042;
                } else {
                    var4 = 0.00096804614;
                }
            }
        } else {
            if (input[8] >= 0.5296047) {
                if (input[9] >= 0.54826295) {
                    var4 = 0.0024177923;
                } else {
                    var4 = 0.0009635472;
                }
            } else {
                if (input[12] >= 0.36882418) {
                    var4 = 0.00069878425;
                } else {
                    var4 = -0.00081790466;
                }
            }
        }
    } else {
        if (input[12] >= 0.60237014) {
            if (input[5] >= 0.49149215) {
                if (input[8] >= 0.5537722) {
                    var4 = 0.0024489032;
                } else {
                    var4 = 0.0011172066;
                }
            } else {
                if (input[11] >= 0.54553676) {
                    var4 = 0.0011250421;
                } else {
                    var4 = -0.00025991446;
                }
            }
        } else {
            if (input[0] >= 0.47720444) {
                if (input[3] >= 0.49189672) {
                    var4 = 0.0010319267;
                } else {
                    var4 = -0.00028293158;
                }
            } else {
                if (input[7] >= 0.6150476) {
                    var4 = 0.00006965605;
                } else {
                    var4 = -0.0013981252;
                }
            }
        }
    }
    double var5;
    if (input[1] >= 0.57369745) {
        if (input[2] >= 0.38908774) {
            if (input[11] >= 0.62000144) {
                if (input[4] >= 0.521253) {
                    var5 = 0.0035149027;
                } else {
                    var5 = 0.002172493;
                }
            } else {
                if (input[14] >= 0.58845294) {
                    var5 = 0.002395436;
                } else {
                    var5 = 0.0010139808;
                }
            }
        } else {
            if (input[7] >= 0.58919895) {
                if (input[14] >= 0.45898846) {
                    var5 = 0.0021872718;
                } else {
                    var5 = 0.0006468997;
                }
            } else {
                if (input[13] >= 0.4484742) {
                    var5 = 0.00059891405;
                } else {
                    var5 = -0.0009166146;
                }
            }
        }
    } else {
        if (input[12] >= 0.5058825) {
            if (input[4] >= 0.6274177) {
                if (input[2] >= 0.57759565) {
                    var5 = 0.0026478048;
                } else {
                    var5 = 0.0012540937;
                }
            } else {
                if (input[2] >= 0.48989725) {
                    var5 = 0.0010391531;
                } else {
                    var5 = -0.00016353269;
                }
            }
        } else {
            if (input[14] >= 0.59196645) {
                if (input[0] >= 0.6533741) {
                    var5 = 0.0016054463;
                } else {
                    var5 = 0.000040514886;
                }
            } else {
                if (input[4] >= 0.5615041) {
                    var5 = -0.000027815015;
                } else {
                    var5 = -0.0013508978;
                }
            }
        }
    }
    double var6;
    if (input[9] >= 0.54627466) {
        if (input[4] >= 0.5485688) {
            if (input[3] >= 0.47985864) {
                if (input[2] >= 0.40456524) {
                    var6 = 0.0031100556;
                } else {
                    var6 = 0.0016904218;
                }
            } else {
                if (input[14] >= 0.45268872) {
                    var6 = 0.0019336873;
                } else {
                    var6 = 0.00048021204;
                }
            }
        } else {
            if (input[6] >= 0.56847036) {
                if (input[13] >= 0.571627) {
                    var6 = 0.0023841823;
                } else {
                    var6 = 0.0011271641;
                }
            } else {
                if (input[2] >= 0.45194417) {
                    var6 = 0.0009171511;
                } else {
                    var6 = -0.00044733868;
                }
            }
        }
    } else {
        if (input[13] >= 0.526692) {
            if (input[1] >= 0.47679323) {
                if (input[14] >= 0.63266397) {
                    var6 = 0.0025284092;
                } else {
                    var6 = 0.0010187001;
                }
            } else {
                if (input[8] >= 0.5194764) {
                    var6 = 0.0008227887;
                } else {
                    var6 = -0.00052215595;
                }
            }
        } else {
            if (input[6] >= 0.6238428) {
                if (input[10] >= 0.60587037) {
                    var6 = 0.0015636843;
                } else {
                    var6 = 0.000032160075;
                }
            } else {
                if (input[3] >= 0.6185682) {
                    var6 = 0.00012244789;
                } else {
                    var6 = -0.0012382077;
                }
            }
        }
    }
    double var7;
    if (input[2] >= 0.5723959) {
        if (input[7] >= 0.5100285) {
            if (input[1] >= 0.4999776) {
                if (input[6] >= 0.45379663) {
                    var7 = 0.0031521306;
                } else {
                    var7 = 0.0019227993;
                }
            } else {
                if (input[9] >= 0.4583532) {
                    var7 = 0.0019248566;
                } else {
                    var7 = 0.0005303891;
                }
            }
        } else {
            if (input[4] >= 0.5656624) {
                if (input[5] >= 0.5504223) {
                    var7 = 0.002311545;
                } else {
                    var7 = 0.00088144833;
                }
            } else {
                if (input[11] >= 0.7246386) {
                    var7 = 0.0015486999;
                } else {
                    var7 = -0.00008381083;
                }
            }
        }
    } else {
        if (input[6] >= 0.5275984) {
            if (input[0] >= 0.46423495) {
                if (input[1] >= 0.59539574) {
                    var7 = 0.0021397066;
                } else {
                    var7 = 0.000898938;
                }
            } else {
                if (input[14] >= 0.46622124) {
                    var7 = 0.0007097163;
                } else {
                    var7 = -0.00071755674;
                }
            }
        } else {
            if (input[13] >= 0.44834554) {
                if (input[4] >= 0.7119127) {
                    var7 = 0.0013050096;
                } else {
                    var7 = -0.00009877663;
                }
            } else {
                if (input[5] >= 0.55316067) {
                    var7 = -0.00034143156;
                } else {
                    var7 = -0.0017052286;
                }
            }
        }
    }
    double var8;
    if (input[4] >= 0.5297355) {
        if (input[0] >= 0.5663363) {
            if (input[13] >= 0.50917566) {
                if (input[7] >= 0.5551573) {
                    var8 = 0.0032081422;
                } else {
                    var8 = 0.0020617663;
                }
            } else {
                if (input[1] >= 0.59526086) {
                    var8 = 0.0021506909;
                } else {
                    var8 = 0.00088861556;
                }
            }
        } else {
            if (input[11] >= 0.4539808) {
                if (input[7] >= 0.5694598) {
                    var8 = 0.0020675703;
                } else {
                    var8 = 0.0007740225;
                }
            } else {
                if (input[12] >= 0.4881174) {
                    var8 = 0.0006741768;
                } else {
                    var8 = -0.0007312169;
                }
            }
        }
    } else {
        if (input[9] >= 0.5360567) {
            if (input[13] >= 0.5595668) {
                if (input[11] >= 0.59711057) {
                    var8 = 0.0022944713;
                } else {
                    var8 = 0.0010118055;
                }
            } else {
                if (input[1] >= 0.48454702) {
                    var8 = 0.0008902412;
                } else {
                    var8 = -0.0004215891;
                }
            }
        } else {
            if (input[12] >= 0.46243936) {
                if (input[5] >= 0.4818514) {
                    var8 = 0.0007252121;
                } else {
                    var8 = -0.00063022645;
                }
            } else {
                if (input[8] >= 0.4822572) {
                    var8 = -0.0005645998;
                } else {
                    var8 = -0.0020323154;
                }
            }
        }
    }
    double var9;
    if (input[10] >= 0.587769) {
        if (input[1] >= 0.5912504) {
            if (input[3] >= 0.6139499) {
                if (input[13] >= 0.5213132) {
                    var9 = 0.0036447782;
                } else {
                    var9 = 0.0023291025;
                }
            } else {
                if (input[9] >= 0.4437582) {
                    var9 = 0.002181005;
                } else {
                    var9 = 0.0008854234;
                }
            }
        } else {
            if (input[8] >= 0.49583238) {
                if (input[12] >= 0.47874177) {
                    var9 = 0.0020322825;
                } else {
                    var9 = 0.00086055585;
                }
            } else {
                if (input[6] >= 0.6034224) {
                    var9 = 0.0011498311;
                } else {
                    var9 = -0.00019254391;
                }
            }
        }
    } else {
        if (input[11] >= 0.41426837) {
            if (input[4] >= 0.53239447) {
                if (input[7] >= 0.45599744) {
                    var9 = 0.0017665187;
                } else {
                    var9 = 0.00051133503;
                }
            } else {
                if (input[12] >= 0.37583303) {
                    var9 = 0.0004400819;
                } else {
                    var9 = -0.00082576583;
                }
            }
        } else {
            if (input[8] >= 0.5546747) {
                if (input[4] >= 0.3819768) {
                    var9 = 0.0005696794;
                } else {
                    var9 = -0.0009233515;
                }
            } else {
                if (input[2] >= 0.63000214) {
                    var9 = -0.00027580129;
                } else {
                    var9 = -0.0016125301;
                }
            }
        }
    }
    double var10;
    if (input[10] >= 0.4568236) {
        if (input[14] >= 0.5443499) {
            if (input[7] >= 0.5500097) {
                if (input[8] >= 0.564744) {
                    var10 = 0.003077039;
                } else {
                    var10 = 0.0017796241;
                }
            } else {
                if (input[6] >= 0.61855763) {
                    var10 = 0.002031741;
                } else {
                    var10 = 0.0007502926;
                }
            }
        } else {
            if (input[11] >= 0.49786383) {
                if (input[7] >= 0.48096675) {
                    var10 = 0.0016631021;
                } else {
                    var10 = 0.00047655922;
                }
            } else {
                if (input[3] >= 0.5652927) {
                    var10 = 0.00070373627;
                } else {
                    var10 = -0.0005109086;
                }
            }
        }
    } else {
        if (input[3] >= 0.50568527) {
            if (input[8] >= 0.5028572) {
                if (input[14] >= 0.4890838) {
                    var10 = 0.0016998627;
                } else {
                    var10 = 0.00042144954;
                }
            } else {
                if (input[6] >= 0.5425998) {
                    var10 = 0.0006076637;
                } else {
                    var10 = -0.0006616857;
                }
            }
        } else {
            if (input[9] >= 0.5039957) {
                if (input[1] >= 0.43759793) {
                    var10 = 0.0004506559;
                } else {
                    var10 = -0.00079167477;
                }
            } else {
                if (input[8] >= 0.39387667) {
                    var10 = -0.00078473147;
                } else {
                    var10 = -0.0021907042;
                }
            }
        }
    }
    double var11;
    if (input[8] >= 0.52361465) {
        if (input[2] >= 0.5029185) {
            if (input[5] >= 0.490494) {
                if (input[10] >= 0.643153) {
                    var11 = 0.0030980976;
                } else {
                    var11 = 0.0018341925;
                }
            } else {
                if (input[14] >= 0.5314038) {
                    var11 = 0.0016998159;
                } else {
                    var11 = 0.00038636467;
                }
            }
        } else {
            if (input[14] >= 0.47180116) {
                if (input[3] >= 0.542107) {
                    var11 = 0.0017864372;
                } else {
                    var11 = 0.0005063316;
                }
            } else {
                if (input[6] >= 0.44475198) {
                    var11 = 0.0004438316;
                } else {
                    var11 = -0.00087374187;
                }
            }
        }
    } else {
        if (input[6] >= 0.5747373) {
            if (input[9] >= 0.41748273) {
                if (input[5] >= 0.541018) {
                    var11 = 0.0018056236;
                } else {
                    var11 = 0.00061092846;
                }
            } else {
                if (input[7] >= 0.46641403) {
                    var11 = 0.00048681974;
                } else {
                    var11 = -0.0008634116;
                }
            }
        } else {
            if (input[9] >= 0.46264333) {
                if (input[13] >= 0.65661705) {
                    var11 = 0.0010044327;
                } else {
                    var11 = -0.00030224462;
                }
            } else {
                if (input[5] >= 0.57886636) {
                    var11 = -0.00029309833;
                } else {
                    var11 = -0.0017485966;
                }
            }
        }
    }
    double var12;
    if (input[2] >= 0.4788314) {
        if (input[9] >= 0.4581912) {
            if (input[5] >= 0.61627877) {
                if (input[4] >= 0.553039) {
                    var12 = 0.0029120126;
                } else {
                    var12 = 0.0016800509;
                }
            } else {
                if (input[1] >= 0.56639457) {
                    var12 = 0.0018153148;
                } else {
                    var12 = 0.0005686716;
                }
            }
        } else {
            if (input[14] >= 0.6191037) {
                if (input[1] >= 0.5028362) {
                    var12 = 0.0017988265;
                } else {
                    var12 = 0.00046195355;
                }
            } else {
                if (input[8] >= 0.43989885) {
                    var12 = 0.00039272188;
                } else {
                    var12 = -0.0007957955;
                }
            }
        }
    } else {
        if (input[3] >= 0.60706294) {
            if (input[13] >= 0.5605521) {
                if (input[14] >= 0.7237518) {
                    var12 = 0.002491197;
                } else {
                    var12 = 0.001092376;
                }
            } else {
                if (input[9] >= 0.51614183) {
                    var12 = 0.0008120052;
                } else {
                    var12 = -0.00043694023;
                }
            }
        } else {
            if (input[0] >= 0.41384) {
                if (input[1] >= 0.47746113) {
                    var12 = 0.00044279927;
                } else {
                    var12 = -0.0006802926;
                }
            } else {
                if (input[11] >= 0.6225334) {
                    var12 = -0.00036655573;
                } else {
                    var12 = -0.0017925147;
                }
            }
        }
    }
    double var13;
    if (input[0] >= 0.39742094) {
        if (input[13] >= 0.52468264) {
            if (input[4] >= 0.5533048) {
                if (input[12] >= 0.5453141) {
                    var13 = 0.0027308285;
                } else {
                    var13 = 0.0015518902;
                }
            } else {
                if (input[9] >= 0.43821007) {
                    var13 = 0.0014129513;
                } else {
                    var13 = 0.00026808886;
                }
            }
        } else {
            if (input[1] >= 0.4748764) {
                if (input[9] >= 0.5065808) {
                    var13 = 0.0014814995;
                } else {
                    var13 = 0.00027949616;
                }
            } else {
                if (input[14] >= 0.5326544) {
                    var13 = 0.00039104812;
                } else {
                    var13 = -0.0008451378;
                }
            }
        }
    } else {
        if (input[12] >= 0.4570133) {
            if (input[10] >= 0.6174978) {
                if (input[8] >= 0.7217662) {
                    var13 = 0.0022467459;
                } else {
                    var13 = 0.00067681744;
                }
            } else {
                if (input[2] >= 0.4850484) {
                    var13 = 0.00035877872;
                } else {
                    var13 = -0.0008631318;
                }
            }
        } else {
            if (input[14] >= 0.59411335) {
                if (input[10] >= 0.6114706) {
                    var13 = 0.0006689348;
                } else {
                    var13 = -0.0006901246;
                }
            } else {
                if (input[7] >= 0.47033638) {
                    var13 = -0.0008603857;
                } else {
                    var13 = -0.00220584;
                }
            }
        }
    }
    double var14;
    if (input[11] >= 0.537676) {
        if (input[8] >= 0.32828367) {
            if (input[7] >= 0.55896807) {
                if (input[10] >= 0.5367224) {
                    var14 = 0.002577506;
                } else {
                    var14 = 0.0014319662;
                }
            } else {
                if (input[4] >= 0.46784967) {
                    var14 = 0.0013776214;
                } else {
                    var14 = 0.0002191731;
                }
            }
        } else {
            if (input[3] >= 0.6603713) {
                if (input[6] >= 0.48551297) {
                    var14 = 0.0017212391;
                } else {
                    var14 = 0.00012873688;
                }
            } else {
                if (input[12] >= 0.46156275) {
                    var14 = 0.00017694583;
                } else {
                    var14 = -0.001063039;
                }
            }
        }
    } else {
        if (input[3] >= 0.618311) {
            if (input[7] >= 0.5065546) {
                if (input[10] >= 0.40784317) {
                    var14 = 0.0017887866;
                } else {
                    var14 = 0.00045999233;
                }
            } else {
                if (input[13] >= 0.5685885) {
                    var14 = 0.00088637444;
                } else {
                    var14 = -0.00043911758;
                }
            }
        } else {
            if (input[1] >= 0.57371736) {
                if (input[8] >= 0.48234263) {
                    var14 = 0.00081542676;
                } else {
                    var14 = -0.00036697488;
                }
            } else {
                if (input[0] >= 0.36597088) {
                    var14 = -0.00046020444;
                } else {
                    var14 = -0.0017219179;
                }
            }
        }
    }
    double var15;
    if (input[5] >= 0.5501398) {
        if (input[3] >= 0.4870181) {
            if (input[10] >= 0.41316944) {
                if (input[8] >= 0.3971989) {
                    var15 = 0.0023856345;
                } else {
                    var15 = 0.001085038;
                }
            } else {
                if (input[1] >= 0.39361256) {
                    var15 = 0.0011863641;
                } else {
                    var15 = -0.00011976861;
                }
            }
        } else {
            if (input[6] >= 0.6427684) {
                if (input[7] >= 0.49094003) {
                    var15 = 0.0018471895;
                } else {
                    var15 = 0.0006047989;
                }
            } else {
                if (input[13] >= 0.38075954) {
                    var15 = 0.0004533737;
                } else {
                    var15 = -0.00081660476;
                }
            }
        }
    } else {
        if (input[12] >= 0.39625865) {
            if (input[10] >= 0.38047624) {
                if (input[13] >= 0.42582113) {
                    var15 = 0.0011595937;
                } else {
                    var15 = -0.00005746843;
                }
            } else {
                if (input[11] >= 0.40544042) {
                    var15 = -0.00008984334;
                } else {
                    var15 = -0.0014243013;
                }
            }
        } else {
            if (input[8] >= 0.52074575) {
                if (input[4] >= 0.6557281) {
                    var15 = 0.0007237758;
                } else {
                    var15 = -0.00062117993;
                }
            } else {
                if (input[1] >= 0.5457167) {
                    var15 = -0.00067231315;
                } else {
                    var15 = -0.0019828526;
                }
            }
        }
    }
    double var16;
    if (input[5] >= 0.49027902) {
        if (input[7] >= 0.4712961) {
            if (input[12] >= 0.5272013) {
                if (input[8] >= 0.48979422) {
                    var16 = 0.0025129446;
                } else {
                    var16 = 0.0013729619;
                }
            } else {
                if (input[10] >= 0.6777433) {
                    var16 = 0.0018463938;
                } else {
                    var16 = 0.0004966342;
                }
            }
        } else {
            if (input[2] >= 0.5855719) {
                if (input[4] >= 0.3484843) {
                    var16 = 0.0013795543;
                } else {
                    var16 = -0.00011802406;
                }
            } else {
                if (input[0] >= 0.6859765) {
                    var16 = 0.0007991748;
                } else {
                    var16 = -0.0004598958;
                }
            }
        }
    } else {
        if (input[14] >= 0.52984405) {
            if (input[8] >= 0.3855719) {
                if (input[13] >= 0.52922505) {
                    var16 = 0.0014344332;
                } else {
                    var16 = 0.00023763883;
                }
            } else {
                if (input[11] >= 0.60890305) {
                    var16 = 0.00041751057;
                } else {
                    var16 = -0.0008843286;
                }
            }
        } else {
            if (input[0] >= 0.38692397) {
                if (input[10] >= 0.49885735) {
                    var16 = 0.00028212517;
                } else {
                    var16 = -0.0009082242;
                }
            } else {
                if (input[9] >= 0.43983927) {
                    var16 = -0.0010856226;
                } else {
                    var16 = -0.0024043547;
                }
            }
        }
    }
    double var17;
    if (input[6] >= 0.449794) {
        if (input[1] >= 0.49995235) {
            if (input[12] >= 0.4821756) {
                if (input[8] >= 0.5580831) {
                    var17 = 0.0024909584;
                } else {
                    var17 = 0.0013497629;
                }
            } else {
                if (input[4] >= 0.53044605) {
                    var17 = 0.0013522207;
                } else {
                    var17 = 0.00021744349;
                }
            }
        } else {
            if (input[4] >= 0.64413154) {
                if (input[5] >= 0.6559682) {
                    var17 = 0.002109574;
                } else {
                    var17 = 0.00078550255;
                }
            } else {
                if (input[3] >= 0.5946649) {
                    var17 = 0.00070420996;
                } else {
                    var17 = -0.00045258045;
                }
            }
        }
    } else {
        if (input[9] >= 0.5482652) {
            if (input[2] >= 0.5178121) {
                if (input[1] >= 0.38644007) {
                    var17 = 0.0013785178;
                } else {
                    var17 = -0.00001938969;
                }
            } else {
                if (input[8] >= 0.37375963) {
                    var17 = 0.00022062492;
                } else {
                    var17 = -0.0011337838;
                }
            }
        } else {
            if (input[14] >= 0.62640595) {
                if (input[5] >= 0.60514027) {
                    var17 = 0.00087392994;
                } else {
                    var17 = -0.00045570344;
                }
            } else {
                if (input[8] >= 0.34116948) {
                    var17 = -0.00074702123;
                } else {
                    var17 = -0.0021196613;
                }
            }
        }
    }
    double var18;
    if (input[3] >= 0.49177024) {
        if (input[7] >= 0.4698075) {
            if (input[10] >= 0.5141595) {
                if (input[4] >= 0.62124246) {
                    var18 = 0.002568527;
                } else {
                    var18 = 0.0014856288;
                }
            } else {
                if (input[2] >= 0.6912251) {
                    var18 = 0.0017803758;
                } else {
                    var18 = 0.00048477977;
                }
            }
        } else {
            if (input[6] >= 0.6252774) {
                if (input[4] >= 0.32898712) {
                    var18 = 0.0013843834;
                } else {
                    var18 = -0.00016202751;
                }
            } else {
                if (input[11] >= 0.36002368) {
                    var18 = 0.00019330706;
                } else {
                    var18 = -0.0011059794;
                }
            }
        }
    } else {
        if (input[6] >= 0.35089788) {
            if (input[1] >= 0.47638404) {
                if (input[10] >= 0.44082928) {
                    var18 = 0.0010538454;
                } else {
                    var18 = -0.00010152782;
                }
            } else {
                if (input[2] >= 0.5883101) {
                    var18 = 0.0002772359;
                } else {
                    var18 = -0.000886482;
                }
            }
        } else {
            if (input[12] >= 0.46289125) {
                if (input[11] >= 0.3927243) {
                    var18 = -0.00013471422;
                } else {
                    var18 = -0.0014367166;
                }
            } else {
                if (input[1] >= 0.59501046) {
                    var18 = -0.0009092712;
                } else {
                    var18 = -0.0022306682;
                }
            }
        }
    }
    double var19;
    if (input[0] >= 0.56904066) {
        if (input[10] >= 0.512786) {
            if (input[9] >= 0.53481066) {
                if (input[7] >= 0.6811799) {
                    var19 = 0.0030045956;
                } else {
                    var19 = 0.0017393408;
                }
            } else {
                if (input[13] >= 0.40916395) {
                    var19 = 0.001352907;
                } else {
                    var19 = 0.00017277767;
                }
            }
        } else {
            if (input[8] >= 0.46231845) {
                if (input[13] >= 0.43079752) {
                    var19 = 0.0013451149;
                } else {
                    var19 = 0.00015426426;
                }
            } else {
                if (input[5] >= 0.34917006) {
                    var19 = 0.0001649706;
                } else {
                    var19 = -0.0012140967;
                }
            }
        }
    } else {
        if (input[4] >= 0.4811054) {
            if (input[6] >= 0.52759284) {
                if (input[5] >= 0.39633572) {
                    var19 = 0.001394735;
                } else {
                    var19 = 0.0001401319;
                }
            } else {
                if (input[13] >= 0.48514262) {
                    var19 = 0.0003785626;
                } else {
                    var19 = -0.00070380414;
                }
            }
        } else {
            if (input[11] >= 0.62291586) {
                if (input[13] >= 0.551028) {
                    var19 = 0.00078856543;
                } else {
                    var19 = -0.00039660092;
                }
            } else {
                if (input[5] >= 0.61126864) {
                    var19 = -0.000338161;
                } else {
                    var19 = -0.001382721;
                }
            }
        }
    }
    double var20;
    if (input[14] >= 0.4597718) {
        if (input[11] >= 0.40523088) {
            if (input[7] >= 0.58884025) {
                if (input[0] >= 0.63357234) {
                    var20 = 0.002528264;
                } else {
                    var20 = 0.0013769735;
                }
            } else {
                if (input[2] >= 0.3913001) {
                    var20 = 0.0010766318;
                } else {
                    var20 = -0.000046523983;
                }
            }
        } else {
            if (input[8] >= 0.35032028) {
                if (input[5] >= 0.6202384) {
                    var20 = 0.0011310879;
                } else {
                    var20 = -0.000037888665;
                }
            } else {
                if (input[9] >= 0.60196793) {
                    var20 = -0.000135564;
                } else {
                    var20 = -0.0014319973;
                }
            }
        }
    } else {
        if (input[2] >= 0.45650464) {
            if (input[11] >= 0.5510757) {
                if (input[5] >= 0.5972259) {
                    var20 = 0.0014596776;
                } else {
                    var20 = 0.00025333298;
                }
            } else {
                if (input[13] >= 0.35468805) {
                    var20 = 0.00010160052;
                } else {
                    var20 = -0.0013708058;
                }
            }
        } else {
            if (input[5] >= 0.375704) {
                if (input[0] >= 0.47705024) {
                    var20 = -0.000009109294;
                } else {
                    var20 = -0.0012044392;
                }
            } else {
                if (input[7] >= 0.35277334) {
                    var20 = -0.001350591;
                } else {
                    var20 = -0.002771558;
                }
            }
        }
    }
    double var21;
    if (input[12] >= 0.5788591) {
        if (input[3] >= 0.6536814) {
            if (input[5] >= 0.48305768) {
                if (input[7] >= 0.48613653) {
                    var21 = 0.0026588615;
                } else {
                    var21 = 0.0016206537;
                }
            } else {
                if (input[14] >= 0.42822498) {
                    var21 = 0.0015087564;
                } else {
                    var21 = 0.00022593772;
                }
            }
        } else {
            if (input[4] >= 0.6271955) {
                if (input[1] >= 0.39141065) {
                    var21 = 0.0017338739;
                } else {
                    var21 = 0.00047404636;
                }
            } else {
                if (input[0] >= 0.41329038) {
                    var21 = 0.0006234231;
                } else {
                    var21 = -0.0005294899;
                }
            }
        }
    } else {
        if (input[0] >= 0.51012945) {
            if (input[10] >= 0.46313393) {
                if (input[7] >= 0.60483944) {
                    var21 = 0.0015610767;
                } else {
                    var21 = 0.0004722208;
                }
            } else {
                if (input[8] >= 0.33498552) {
                    var21 = 0.00015279563;
                } else {
                    var21 = -0.0011327082;
                }
            }
        } else {
            if (input[6] >= 0.62516284) {
                if (input[4] >= 0.48554713) {
                    var21 = 0.00071426126;
                } else {
                    var21 = -0.0005270591;
                }
            } else {
                if (input[1] >= 0.36237055) {
                    var21 = -0.00061875704;
                } else {
                    var21 = -0.0017706606;
                }
            }
        }
    }
    double var22;
    if (input[1] >= 0.5736371) {
        if (input[2] >= 0.3782484) {
            if (input[11] >= 0.66979706) {
                if (input[6] >= 0.43159464) {
                    var22 = 0.0024248364;
                } else {
                    var22 = 0.0013551629;
                }
            } else {
                if (input[0] >= 0.5021749) {
                    var22 = 0.0014370391;
                } else {
                    var22 = 0.00035655475;
                }
            }
        } else {
            if (input[7] >= 0.58271945) {
                if (input[12] >= 0.7258224) {
                    var22 = 0.001985697;
                } else {
                    var22 = 0.0004796694;
                }
            } else {
                if (input[10] >= 0.79392457) {
                    var22 = 0.0012076256;
                } else {
                    var22 = -0.00058767933;
                }
            }
        }
    } else {
        if (input[13] >= 0.40038592) {
            if (input[0] >= 0.39818108) {
                if (input[10] >= 0.5125031) {
                    var22 = 0.0011407608;
                } else {
                    var22 = 0.00011874454;
                }
            } else {
                if (input[11] >= 0.41330427) {
                    var22 = -0.0000448499;
                } else {
                    var22 = -0.0011969054;
                }
            }
        } else {
            if (input[10] >= 0.36479586) {
                if (input[12] >= 0.5946196) {
                    var22 = 0.00018950598;
                } else {
                    var22 = -0.00083706196;
                }
            } else {
                if (input[12] >= 0.30378133) {
                    var22 = -0.0013381692;
                } else {
                    var22 = -0.003076895;
                }
            }
        }
    }
    double var23;
    if (input[8] >= 0.65149856) {
        if (input[14] >= 0.60894334) {
            if (input[13] >= 0.6374242) {
                if (input[4] >= 0.6242039) {
                    var23 = 0.003146156;
                } else {
                    var23 = 0.0019750523;
                }
            } else {
                if (input[3] >= 0.5440507) {
                    var23 = 0.0019218487;
                } else {
                    var23 = 0.0008799732;
                }
            }
        } else {
            if (input[12] >= 0.3789336) {
                if (input[3] >= 0.4501958) {
                    var23 = 0.0013970019;
                } else {
                    var23 = 0.00031225348;
                }
            } else {
                if (input[4] >= 0.37975997) {
                    var23 = 0.000273808;
                } else {
                    var23 = -0.0010934403;
                }
            }
        }
    } else {
        if (input[9] >= 0.41753978) {
            if (input[6] >= 0.5746155) {
                if (input[12] >= 0.53127563) {
                    var23 = 0.0014858581;
                } else {
                    var23 = 0.0004585681;
                }
            } else {
                if (input[4] >= 0.66625917) {
                    var23 = 0.0007218931;
                } else {
                    var23 = -0.00035460488;
                }
            }
        } else {
            if (input[7] >= 0.4630205) {
                if (input[4] >= 0.56976914) {
                    var23 = 0.00044858104;
                } else {
                    var23 = -0.00065588055;
                }
            } else {
                if (input[3] >= 0.49993056) {
                    var23 = -0.0008478655;
                } else {
                    var23 = -0.0019374555;
                }
            }
        }
    }
    double var24;
    if (input[10] >= 0.61246777) {
        if (input[1] >= 0.49608558) {
            if (input[5] >= 0.59422415) {
                if (input[3] >= 0.4772539) {
                    var24 = 0.0024923987;
                } else {
                    var24 = 0.0013708625;
                }
            } else {
                if (input[6] >= 0.45229825) {
                    var24 = 0.0013898191;
                } else {
                    var24 = 0.0003150139;
                }
            }
        } else {
            if (input[0] >= 0.5728055) {
                if (input[3] >= 0.2914012) {
                    var24 = 0.0012579089;
                } else {
                    var24 = -0.0002636102;
                }
            } else {
                if (input[8] >= 0.6526333) {
                    var24 = 0.0008614817;
                } else {
                    var24 = -0.00036208236;
                }
            }
        }
    } else {
        if (input[3] >= 0.6532905) {
            if (input[11] >= 0.37245882) {
                if (input[7] >= 0.7110125) {
                    var24 = 0.0019284341;
                } else {
                    var24 = 0.0007135474;
                }
            } else {
                if (input[1] >= 0.72996044) {
                    var24 = 0.0011132325;
                } else {
                    var24 = -0.00048328002;
                }
            }
        } else {
            if (input[13] >= 0.5661154) {
                if (input[14] >= 0.49087238) {
                    var24 = 0.00066017045;
                } else {
                    var24 = -0.0003244585;
                }
            } else {
                if (input[6] >= 0.6567769) {
                    var24 = 0.000015836627;
                } else {
                    var24 = -0.0010502102;
                }
            }
        }
    }
    double var25;
    if (input[9] >= 0.54627466) {
        if (input[12] >= 0.6050929) {
            if (input[4] >= 0.5443444) {
                if (input[14] >= 0.46919155) {
                    var25 = 0.002403868;
                } else {
                    var25 = 0.0013109086;
                }
            } else {
                if (input[10] >= 0.45220476) {
                    var25 = 0.0013055064;
                } else {
                    var25 = 0.0002259706;
                }
            }
        } else {
            if (input[3] >= 0.4173861) {
                if (input[7] >= 0.60526) {
                    var25 = 0.0013880371;
                } else {
                    var25 = 0.00039351243;
                }
            } else {
                if (input[14] >= 0.5744005) {
                    var25 = 0.0004445371;
                } else {
                    var25 = -0.00072736875;
                }
            }
        }
    } else {
        if (input[11] >= 0.38176775) {
            if (input[7] >= 0.46586296) {
                if (input[4] >= 0.5774716) {
                    var25 = 0.001223814;
                } else {
                    var25 = 0.0001742796;
                }
            } else {
                if (input[13] >= 0.61579275) {
                    var25 = 0.00028415374;
                } else {
                    var25 = -0.0007366244;
                }
            }
        } else {
            if (input[1] >= 0.35138997) {
                if (input[2] >= 0.37280536) {
                    var25 = -0.00020852969;
                } else {
                    var25 = -0.0014480423;
                }
            } else {
                if (input[13] >= 0.8029628) {
                    var25 = 0.0000014193209;
                } else {
                    var25 = -0.0020382141;
                }
            }
        }
    }
    double var26;
    if (input[2] >= 0.5896735) {
        if (input[14] >= 0.68041795) {
            if (input[11] >= 0.578092) {
                if (input[12] >= 0.2730657) {
                    var26 = 0.0024967887;
                } else {
                    var26 = 0.0008023519;
                }
            } else {
                if (input[12] >= 0.5208154) {
                    var26 = 0.0017767353;
                } else {
                    var26 = 0.0006061738;
                }
            }
        } else {
            if (input[8] >= 0.5916402) {
                if (input[0] >= 0.55172753) {
                    var26 = 0.0017808186;
                } else {
                    var26 = 0.0006873197;
                }
            } else {
                if (input[1] >= 0.5698799) {
                    var26 = 0.00076777476;
                } else {
                    var26 = -0.00020196567;
                }
            }
        }
    } else {
        if (input[14] >= 0.59721506) {
            if (input[13] >= 0.5509538) {
                if (input[7] >= 0.52471805) {
                    var26 = 0.0015588918;
                } else {
                    var26 = 0.00049060275;
                }
            } else {
                if (input[0] >= 0.61925465) {
                    var26 = 0.0007998035;
                } else {
                    var26 = -0.00037729822;
                }
            }
        } else {
            if (input[9] >= 0.5164895) {
                if (input[3] >= 0.534093) {
                    var26 = 0.0004911867;
                } else {
                    var26 = -0.00049805955;
                }
            } else {
                if (input[13] >= 0.4279312) {
                    var26 = -0.00057659775;
                } else {
                    var26 = -0.0015967109;
                }
            }
        }
    }
    double var27;
    if (input[8] >= 0.38310534) {
        if (input[7] >= 0.55179805) {
            if (input[0] >= 0.4239441) {
                if (input[14] >= 0.4717459) {
                    var27 = 0.0018587426;
                } else {
                    var27 = 0.0008491928;
                }
            } else {
                if (input[1] >= 0.348886) {
                    var27 = 0.00074860215;
                } else {
                    var27 = -0.00056958076;
                }
            }
        } else {
            if (input[9] >= 0.57354045) {
                if (input[3] >= 0.3945161) {
                    var27 = 0.0009876515;
                } else {
                    var27 = -0.000047862934;
                }
            } else {
                if (input[13] >= 0.6435745) {
                    var27 = 0.0005128043;
                } else {
                    var27 = -0.000543771;
                }
            }
        }
    } else {
        if (input[5] >= 0.6058944) {
            if (input[2] >= 0.5564915) {
                if (input[14] >= 0.6208668) {
                    var27 = 0.0015908031;
                } else {
                    var27 = 0.0003421435;
                }
            } else {
                if (input[12] >= 0.6256805) {
                    var27 = 0.000509725;
                } else {
                    var27 = -0.0006862002;
                }
            }
        } else {
            if (input[13] >= 0.5625149) {
                if (input[2] >= 0.33514497) {
                    var27 = 0.000027219958;
                } else {
                    var27 = -0.0011957583;
                }
            } else {
                if (input[10] >= 0.28373486) {
                    var27 = -0.0009493571;
                } else {
                    var27 = -0.0024081732;
                }
            }
        }
    }
    double var28;
    if (input[2] >= 0.5873871) {
        if (input[9] >= 0.45813274) {
            if (input[12] >= 0.60513633) {
                if (input[4] >= 0.46140468) {
                    var28 = 0.0021952908;
                } else {
                    var28 = 0.0011597261;
                }
            } else {
                if (input[7] >= 0.52034324) {
                    var28 = 0.0012613557;
                } else {
                    var28 = 0.0002945692;
                }
            }
        } else {
            if (input[6] >= 0.35541248) {
                if (input[4] >= 0.5617214) {
                    var28 = 0.0010303033;
                } else {
                    var28 = 0.00008428776;
                }
            } else {
                if (input[13] >= 0.3593793) {
                    var28 = -0.0002814502;
                } else {
                    var28 = -0.0018702472;
                }
            }
        }
    } else {
        if (input[6] >= 0.6122446) {
            if (input[1] >= 0.57681644) {
                if (input[8] >= 0.652899) {
                    var28 = 0.0017723553;
                } else {
                    var28 = 0.00068609853;
                }
            } else {
                if (input[14] >= 0.46753705) {
                    var28 = 0.0004953053;
                } else {
                    var28 = -0.0004926023;
                }
            }
        } else {
            if (input[13] >= 0.61487067) {
                if (input[4] >= 0.3431483) {
                    var28 = 0.00048983813;
                } else {
                    var28 = -0.000798672;
                }
            } else {
                if (input[4] >= 0.50626016) {
                    var28 = -0.00033702288;
                } else {
                    var28 = -0.0012685105;
                }
            }
        }
    }
    double var29;
    if (input[5] >= 0.60614336) {
        if (input[7] >= 0.5557946) {
            if (input[0] >= 0.36954388) {
                if (input[12] >= 0.30353224) {
                    var29 = 0.0018181177;
                } else {
                    var29 = 0.00055915717;
                }
            } else {
                if (input[1] >= 0.31794283) {
                    var29 = 0.0008124585;
                } else {
                    var29 = -0.00057042384;
                }
            }
        } else {
            if (input[0] >= 0.601902) {
                if (input[4] >= 0.31615677) {
                    var29 = 0.0012920902;
                } else {
                    var29 = -0.00013660692;
                }
            } else {
                if (input[12] >= 0.6559875) {
                    var29 = 0.0007622765;
                } else {
                    var29 = -0.00031581867;
                }
            }
        }
    } else {
        if (input[14] >= 0.52738667) {
            if (input[1] >= 0.6645162) {
                if (input[4] >= 0.40730175) {
                    var29 = 0.0015004991;
                } else {
                    var29 = 0.00030578795;
                }
            } else {
                if (input[2] >= 0.72428524) {
                    var29 = 0.00096638827;
                } else {
                    var29 = -0.00018071811;
                }
            }
        } else {
            if (input[6] >= 0.3521372) {
                if (input[1] >= 0.371007) {
                    var29 = 0.000023674665;
                } else {
                    var29 = -0.0010508093;
                }
            } else {
                if (input[9] >= 0.4551294) {
                    var29 = -0.00092592597;
                } else {
                    var29 = -0.0019970757;
                }
            }
        }
    }
    double var30;
    if (input[3] >= 0.48380908) {
        if (input[11] >= 0.37658906) {
            if (input[5] >= 0.47807345) {
                if (input[0] >= 0.6952806) {
                    var30 = 0.002071265;
                } else {
                    var30 = 0.0010481454;
                }
            } else {
                if (input[12] >= 0.39924595) {
                    var30 = 0.0006987579;
                } else {
                    var30 = -0.00037944625;
                }
            }
        } else {
            if (input[13] >= 0.43604428) {
                if (input[9] >= 0.37317717) {
                    var30 = 0.0006484509;
                } else {
                    var30 = -0.0005175056;
                }
            } else {
                if (input[7] >= 0.68342996) {
                    var30 = 0.00020326654;
                } else {
                    var30 = -0.0011368855;
                }
            }
        }
    } else {
        if (input[9] >= 0.5735433) {
            if (input[8] >= 0.71986896) {
                if (input[10] >= 0.6647531) {
                    var30 = 0.0020692658;
                } else {
                    var30 = 0.0008511236;
                }
            } else {
                if (input[11] >= 0.3491531) {
                    var30 = 0.00030135334;
                } else {
                    var30 = -0.0008176273;
                }
            }
        } else {
            if (input[8] >= 0.6485111) {
                if (input[12] >= 0.56715375) {
                    var30 = 0.00070260157;
                } else {
                    var30 = -0.00041391863;
                }
            } else {
                if (input[4] >= 0.6443009) {
                    var30 = -0.00025862362;
                } else {
                    var30 = -0.0012715496;
                }
            }
        }
    }
    double var31;
    if (input[10] >= 0.6058502) {
        if (input[12] >= 0.46170872) {
            if (input[1] >= 0.49876055) {
                if (input[9] >= 0.7480998) {
                    var31 = 0.0025510264;
                } else {
                    var31 = 0.001353686;
                }
            } else {
                if (input[13] >= 0.29784933) {
                    var31 = 0.0008545653;
                } else {
                    var31 = -0.00039156928;
                }
            }
        } else {
            if (input[0] >= 0.65421784) {
                if (input[7] >= 0.59522206) {
                    var31 = 0.0017741936;
                } else {
                    var31 = 0.0006081927;
                }
            } else {
                if (input[9] >= 0.58350074) {
                    var31 = 0.0004752263;
                } else {
                    var31 = -0.0005800255;
                }
            }
        }
    } else {
        if (input[12] >= 0.36024725) {
            if (input[5] >= 0.490614) {
                if (input[4] >= 0.70491385) {
                    var31 = 0.0013807367;
                } else {
                    var31 = 0.00028222916;
                }
            } else {
                if (input[9] >= 0.5466702) {
                    var31 = 0.00016492345;
                } else {
                    var31 = -0.0007886129;
                }
            }
        } else {
            if (input[6] >= 0.35193563) {
                if (input[13] >= 0.5638358) {
                    var31 = -0.0000005992746;
                } else {
                    var31 = -0.00095642183;
                }
            } else {
                if (input[1] >= 0.594668) {
                    var31 = -0.0010006869;
                } else {
                    var31 = -0.0021433195;
                }
            }
        }
    }
    double var32;
    if (input[11] >= 0.6199985) {
        if (input[4] >= 0.40275323) {
            if (input[5] >= 0.6328862) {
                if (input[8] >= 0.6696458) {
                    var32 = 0.0024970197;
                } else {
                    var32 = 0.0014675242;
                }
            } else {
                if (input[1] >= 0.63379395) {
                    var32 = 0.0015391014;
                } else {
                    var32 = 0.00044295468;
                }
            }
        } else {
            if (input[13] >= 0.4251286) {
                if (input[0] >= 0.4741357) {
                    var32 = 0.0010290359;
                } else {
                    var32 = -0.0000046212967;
                }
            } else {
                if (input[10] >= 0.69898176) {
                    var32 = 0.0005503911;
                } else {
                    var32 = -0.0008586945;
                }
            }
        }
    } else {
        if (input[0] >= 0.37593484) {
            if (input[3] >= 0.41192383) {
                if (input[12] >= 0.5209663) {
                    var32 = 0.00091432466;
                } else {
                    var32 = 0.00004404476;
                }
            } else {
                if (input[10] >= 0.45470846) {
                    var32 = -0.0000063573943;
                } else {
                    var32 = -0.0010518186;
                }
            }
        } else {
            if (input[4] >= 0.7028079) {
                if (input[2] >= 0.39513838) {
                    var32 = 0.0004401656;
                } else {
                    var32 = -0.00077510596;
                }
            } else {
                if (input[14] >= 0.44102335) {
                    var32 = -0.0007313023;
                } else {
                    var32 = -0.0016822808;
                }
            }
        }
    }
    double var33;
    if (input[2] >= 0.4253526) {
        if (input[11] >= 0.5543275) {
            if (input[14] >= 0.6193577) {
                if (input[9] >= 0.54855716) {
                    var33 = 0.0020286546;
                } else {
                    var33 = 0.0011380281;
                }
            } else {
                if (input[0] >= 0.41758922) {
                    var33 = 0.00096490944;
                } else {
                    var33 = 0.000008672878;
                }
            }
        } else {
            if (input[13] >= 0.32688773) {
                if (input[7] >= 0.7122985) {
                    var33 = 0.0011808714;
                } else {
                    var33 = 0.00011026797;
                }
            } else {
                if (input[0] >= 0.51946795) {
                    var33 = -0.000099583754;
                } else {
                    var33 = -0.0011639583;
                }
            }
        }
    } else {
        if (input[7] >= 0.36805287) {
            if (input[13] >= 0.5220212) {
                if (input[5] >= 0.35477155) {
                    var33 = 0.0006429535;
                } else {
                    var33 = -0.00042305133;
                }
            } else {
                if (input[4] >= 0.42826968) {
                    var33 = -0.00016911377;
                } else {
                    var33 = -0.001197534;
                }
            }
        } else {
            if (input[0] >= 0.6242036) {
                if (input[10] >= 0.34583136) {
                    var33 = -0.00005645297;
                } else {
                    var33 = -0.0012643278;
                }
            } else {
                if (input[11] >= 0.44982898) {
                    var33 = -0.0010941904;
                } else {
                    var33 = -0.0022441044;
                }
            }
        }
    }
    double var34;
    if (input[10] >= 0.41707945) {
        if (input[8] >= 0.61137915) {
            if (input[4] >= 0.70828784) {
                if (input[1] >= 0.65889233) {
                    var34 = 0.0026521177;
                } else {
                    var34 = 0.0014835986;
                }
            } else {
                if (input[0] >= 0.3699716) {
                    var34 = 0.0010898993;
                } else {
                    var34 = 0.000056224915;
                }
            }
        } else {
            if (input[0] >= 0.43021417) {
                if (input[12] >= 0.59364045) {
                    var34 = 0.0010243488;
                } else {
                    var34 = 0.00015862404;
                }
            } else {
                if (input[12] >= 0.41399568) {
                    var34 = -0.000056918845;
                } else {
                    var34 = -0.0010574756;
                }
            }
        }
    } else {
        if (input[7] >= 0.3901711) {
            if (input[5] >= 0.45453537) {
                if (input[12] >= 0.61747235) {
                    var34 = 0.00091931596;
                } else {
                    var34 = -0.000049021004;
                }
            } else {
                if (input[0] >= 0.58229065) {
                    var34 = -0.000049554314;
                } else {
                    var34 = -0.0010804756;
                }
            }
        } else {
            if (input[2] >= 0.6053764) {
                if (input[6] >= 0.6062286) {
                    var34 = 0.0003212798;
                } else {
                    var34 = -0.000867029;
                }
            } else {
                if (input[14] >= 0.38282627) {
                    var34 = -0.0010937165;
                } else {
                    var34 = -0.0021574858;
                }
            }
        }
    }
    double var35;
    if (input[6] >= 0.37235865) {
        if (input[13] >= 0.5655446) {
            if (input[3] >= 0.52898765) {
                if (input[5] >= 0.4230035) {
                    var35 = 0.001690994;
                } else {
                    var35 = 0.0008067181;
                }
            } else {
                if (input[7] >= 0.44809908) {
                    var35 = 0.0008381579;
                } else {
                    var35 = -0.000094678035;
                }
            }
        } else {
            if (input[1] >= 0.45015645) {
                if (input[12] >= 0.5758035) {
                    var35 = 0.0009438197;
                } else {
                    var35 = 0.000053907937;
                }
            } else {
                if (input[4] >= 0.3044818) {
                    var35 = -0.0002121694;
                } else {
                    var35 = -0.0013660253;
                }
            }
        }
    } else {
        if (input[0] >= 0.66831267) {
            if (input[4] >= 0.6777542) {
                if (input[9] >= 0.69384074) {
                    var35 = 0.0021524315;
                } else {
                    var35 = 0.0006201024;
                }
            } else {
                if (input[12] >= 0.5151612) {
                    var35 = 0.0003242696;
                } else {
                    var35 = -0.0006204098;
                }
            }
        } else {
            if (input[5] >= 0.67578447) {
                if (input[7] >= 0.724311) {
                    var35 = 0.00095807033;
                } else {
                    var35 = -0.0002879171;
                }
            } else {
                if (input[11] >= 0.4298395) {
                    var35 = -0.0007034641;
                } else {
                    var35 = -0.0017109165;
                }
            }
        }
    }
    double var36;
    if (input[14] >= 0.42973864) {
        if (input[4] >= 0.47078848) {
            if (input[13] >= 0.6733217) {
                if (input[10] >= 0.30558997) {
                    var36 = 0.0017673422;
                } else {
                    var36 = 0.000495899;
                }
            } else {
                if (input[7] >= 0.35503578) {
                    var36 = 0.00082364556;
                } else {
                    var36 = -0.0001836198;
                }
            }
        } else {
            if (input[13] >= 0.52958727) {
                if (input[6] >= 0.6432166) {
                    var36 = 0.0011248774;
                } else {
                    var36 = 0.00010939295;
                }
            } else {
                if (input[10] >= 0.37599325) {
                    var36 = -0.00015782958;
                } else {
                    var36 = -0.0011696605;
                }
            }
        }
    } else {
        if (input[2] >= 0.74369955) {
            if (input[8] >= 0.37229142) {
                if (input[4] >= 0.7150941) {
                    var36 = 0.0017693833;
                } else {
                    var36 = 0.00054744974;
                }
            } else {
                if (input[9] >= 0.17769264) {
                    var36 = -0.00013136998;
                } else {
                    var36 = -0.002116584;
                }
            }
        } else {
            if (input[6] >= 0.42208105) {
                if (input[4] >= 0.35551807) {
                    var36 = -0.000018675124;
                } else {
                    var36 = -0.0009623698;
                }
            } else {
                if (input[7] >= 0.56978476) {
                    var36 = -0.0005817665;
                } else {
                    var36 = -0.0015357505;
                }
            }
        }
    }
    double var37;
    if (input[9] >= 0.49092382) {
        if (input[1] >= 0.30932683) {
            if (input[8] >= 0.38477153) {
                if (input[3] >= 0.53796935) {
                    var37 = 0.0014193584;
                } else {
                    var37 = 0.0006038937;
                }
            } else {
                if (input[6] >= 0.5185554) {
                    var37 = 0.00055372267;
                } else {
                    var37 = -0.00033779212;
                }
            }
        } else {
            if (input[14] >= 0.57842696) {
                if (input[6] >= 0.639812) {
                    var37 = 0.0010616096;
                } else {
                    var37 = -0.00007707643;
                }
            } else {
                if (input[3] >= 0.39289463) {
                    var37 = -0.00035800642;
                } else {
                    var37 = -0.0015004948;
                }
            }
        }
    } else {
        if (input[8] >= 0.6518562) {
            if (input[2] >= 0.43299928) {
                if (input[5] >= 0.40886277) {
                    var37 = 0.0010664251;
                } else {
                    var37 = 0.00007427694;
                }
            } else {
                if (input[1] >= 0.7609527) {
                    var37 = 0.0009066241;
                } else {
                    var37 = -0.00047231207;
                }
            }
        } else {
            if (input[0] >= 0.4304505) {
                if (input[4] >= 0.3456642) {
                    var37 = 0.00003810904;
                } else {
                    var37 = -0.0010460994;
                }
            } else {
                if (input[12] >= 0.5138427) {
                    var37 = -0.0006476776;
                } else {
                    var37 = -0.0016386928;
                }
            }
        }
    }
    double var38;
    if (input[5] >= 0.55097306) {
        if (input[14] >= 0.5479707) {
            if (input[6] >= 0.61845773) {
                if (input[2] >= 0.5738627) {
                    var38 = 0.002089613;
                } else {
                    var38 = 0.0012100738;
                }
            } else {
                if (input[1] >= 0.4394536) {
                    var38 = 0.0010372791;
                } else {
                    var38 = 0.000073372066;
                }
            }
        } else {
            if (input[10] >= 0.41051713) {
                if (input[12] >= 0.44556028) {
                    var38 = 0.0008335515;
                } else {
                    var38 = -0.00005385685;
                }
            } else {
                if (input[1] >= 0.27943867) {
                    var38 = -0.00018009888;
                } else {
                    var38 = -0.0015942373;
                }
            }
        }
    } else {
        if (input[11] >= 0.48542708) {
            if (input[6] >= 0.7531373) {
                if (input[2] >= 0.69735265) {
                    var38 = 0.0020220436;
                } else {
                    var38 = 0.00072173105;
                }
            } else {
                if (input[12] >= 0.5713978) {
                    var38 = 0.00045950548;
                } else {
                    var38 = -0.00044243742;
                }
            }
        } else {
            if (input[2] >= 0.7133342) {
                if (input[13] >= 0.7302709) {
                    var38 = 0.0010238965;
                } else {
                    var38 = -0.00019178537;
                }
            } else {
                if (input[4] >= 0.66131914) {
                    var38 = -0.00023704763;
                } else {
                    var38 = -0.0012238321;
                }
            }
        }
    }
    double var39;
    if (input[3] >= 0.60700977) {
        if (input[4] >= 0.553334) {
            if (input[10] >= 0.42660865) {
                if (input[7] >= 0.7381527) {
                    var39 = 0.002304292;
                } else {
                    var39 = 0.0011414125;
                }
            } else {
                if (input[5] >= 0.35083878) {
                    var39 = 0.00075779785;
                } else {
                    var39 = -0.00037451944;
                }
            }
        } else {
            if (input[11] >= 0.38688982) {
                if (input[5] >= 0.66453123) {
                    var39 = 0.0011741329;
                } else {
                    var39 = 0.00026636283;
                }
            } else {
                if (input[13] >= 0.563298) {
                    var39 = 0.00022616975;
                } else {
                    var39 = -0.0008650608;
                }
            }
        }
    } else {
        if (input[6] >= 0.64304125) {
            if (input[5] >= 0.63702357) {
                if (input[9] >= 0.41313437) {
                    var39 = 0.0014318263;
                } else {
                    var39 = 0.0003683478;
                }
            } else {
                if (input[2] >= 0.6908025) {
                    var39 = 0.0008611109;
                } else {
                    var39 = -0.00016848995;
                }
            }
        } else {
            if (input[8] >= 0.71936774) {
                if (input[12] >= 0.3147704) {
                    var39 = 0.0005893276;
                } else {
                    var39 = -0.00063009793;
                }
            } else {
                if (input[7] >= 0.551116) {
                    var39 = -0.0002150418;
                } else {
                    var39 = -0.0010222034;
                }
            }
        }
    }
    double var40;
    if (input[0] >= 0.5206606) {
        if (input[5] >= 0.36954287) {
            if (input[2] >= 0.35436806) {
                if (input[10] >= 0.65522224) {
                    var40 = 0.0016044987;
                } else {
                    var40 = 0.00074162724;
                }
            } else {
                if (input[6] >= 0.51431715) {
                    var40 = 0.0005217471;
                } else {
                    var40 = -0.0003920012;
                }
            }
        } else {
            if (input[14] >= 0.73819315) {
                if (input[1] >= 0.3786713) {
                    var40 = 0.001304936;
                } else {
                    var40 = -0.00026449186;
                }
            } else {
                if (input[8] >= 0.49286973) {
                    var40 = 0.000062168685;
                } else {
                    var40 = -0.0008625851;
                }
            }
        }
    } else {
        if (input[12] >= 0.4575295) {
            if (input[6] >= 0.6523629) {
                if (input[14] >= 0.60756105) {
                    var40 = 0.0012741003;
                } else {
                    var40 = 0.0002943434;
                }
            } else {
                if (input[8] >= 0.72633845) {
                    var40 = 0.00063428935;
                } else {
                    var40 = -0.0004127717;
                }
            }
        } else {
            if (input[9] >= 0.596977) {
                if (input[10] >= 0.7453383) {
                    var40 = 0.00076518283;
                } else {
                    var40 = -0.00045921907;
                }
            } else {
                if (input[4] >= 0.44161797) {
                    var40 = -0.0007070824;
                } else {
                    var40 = -0.0017232083;
                }
            }
        }
    }
    double var41;
    if (input[11] >= 0.6246584) {
        if (input[7] >= 0.3555354) {
            if (input[1] >= 0.4999776) {
                if (input[6] >= 0.3503768) {
                    var41 = 0.0014668227;
                } else {
                    var41 = 0.0004565611;
                }
            } else {
                if (input[13] >= 0.41105026) {
                    var41 = 0.00075385807;
                } else {
                    var41 = -0.00015709814;
                }
            }
        } else {
            if (input[3] >= 0.6149558) {
                if (input[5] >= 0.6310183) {
                    var41 = 0.0013991485;
                } else {
                    var41 = 0.00019967133;
                }
            } else {
                if (input[10] >= 0.34794205) {
                    var41 = -0.0001462317;
                } else {
                    var41 = -0.0012905683;
                }
            }
        }
    } else {
        if (input[14] >= 0.43690783) {
            if (input[1] >= 0.3520473) {
                if (input[7] >= 0.6541673) {
                    var41 = 0.00097054755;
                } else {
                    var41 = 0.000104251274;
                }
            } else {
                if (input[3] >= 0.5602148) {
                    var41 = 0.000022926693;
                } else {
                    var41 = -0.00095770106;
                }
            }
        } else {
            if (input[6] >= 0.3500986) {
                if (input[13] >= 0.6104245) {
                    var41 = 0.0001303314;
                } else {
                    var41 = -0.0007334898;
                }
            } else {
                if (input[1] >= 0.6925734) {
                    var41 = -0.00045174477;
                } else {
                    var41 = -0.0016536134;
                }
            }
        }
    }
    double var42;
    if (input[9] >= 0.42078027) {
        if (input[1] >= 0.386363) {
            if (input[8] >= 0.5237297) {
                if (input[7] >= 0.3678118) {
                    var42 = 0.0012993927;
                } else {
                    var42 = 0.0003446552;
                }
            } else {
                if (input[2] >= 0.55388534) {
                    var42 = 0.0006957065;
                } else {
                    var42 = -0.000115216804;
                }
            }
        } else {
            if (input[13] >= 0.40805483) {
                if (input[2] >= 0.35126728) {
                    var42 = 0.000358729;
                } else {
                    var42 = -0.00072177296;
                }
            } else {
                if (input[11] >= 0.31507418) {
                    var42 = -0.0006200517;
                } else {
                    var42 = -0.0016767314;
                }
            }
        }
    } else {
        if (input[7] >= 0.3754955) {
            if (input[13] >= 0.30120802) {
                if (input[2] >= 0.4575602) {
                    var42 = 0.000376928;
                } else {
                    var42 = -0.00044215555;
                }
            } else {
                if (input[2] >= 0.49392265) {
                    var42 = -0.0006106038;
                } else {
                    var42 = -0.0015564676;
                }
            }
        } else {
            if (input[6] >= 0.35579404) {
                if (input[12] >= 0.6383911) {
                    var42 = -0.00017936771;
                } else {
                    var42 = -0.0011193295;
                }
            } else {
                if (input[3] >= 0.4401075) {
                    var42 = -0.0014073892;
                } else {
                    var42 = -0.0025902707;
                }
            }
        }
    }
    double var43;
    if (input[8] >= 0.34643942) {
        if (input[13] >= 0.4090318) {
            if (input[10] >= 0.38419628) {
                if (input[12] >= 0.31445262) {
                    var43 = 0.0010270023;
                } else {
                    var43 = 0.00007540749;
                }
            } else {
                if (input[5] >= 0.67488635) {
                    var43 = 0.00067706034;
                } else {
                    var43 = -0.00025557357;
                }
            }
        } else {
            if (input[12] >= 0.30774912) {
                if (input[5] >= 0.6687213) {
                    var43 = 0.00064824254;
                } else {
                    var43 = -0.0002610874;
                }
            } else {
                if (input[7] >= 0.6594709) {
                    var43 = -0.00022931516;
                } else {
                    var43 = -0.0013570437;
                }
            }
        }
    } else {
        if (input[9] >= 0.6365795) {
            if (input[12] >= 0.62618953) {
                if (input[4] >= 0.4250932) {
                    var43 = 0.0010478738;
                } else {
                    var43 = -0.000033751658;
                }
            } else {
                if (input[13] >= 0.69352823) {
                    var43 = 0.000508322;
                } else {
                    var43 = -0.00058146904;
                }
            }
        } else {
            if (input[11] >= 0.421304) {
                if (input[4] >= 0.42955324) {
                    var43 = -0.00018270174;
                } else {
                    var43 = -0.0010823163;
                }
            } else {
                if (input[6] >= 0.7147814) {
                    var43 = -0.00060984207;
                } else {
                    var43 = -0.0016873861;
                }
            }
        }
    }
    double var44;
    if (input[1] >= 0.6634594) {
        if (input[3] >= 0.59838605) {
            if (input[14] >= 0.46167177) {
                if (input[9] >= 0.3401088) {
                    var44 = 0.00180702;
                } else {
                    var44 = 0.00067877147;
                }
            } else {
                if (input[10] >= 0.30485585) {
                    var44 = 0.00088855496;
                } else {
                    var44 = -0.0001884452;
                }
            }
        } else {
            if (input[13] >= 0.5388267) {
                if (input[0] >= 0.41448468) {
                    var44 = 0.001094637;
                } else {
                    var44 = 0.00018229446;
                }
            } else {
                if (input[11] >= 0.74419373) {
                    var44 = 0.0008854681;
                } else {
                    var44 = -0.00020689431;
                }
            }
        }
    } else {
        if (input[14] >= 0.650592) {
            if (input[0] >= 0.65252495) {
                if (input[4] >= 0.586617) {
                    var44 = 0.0015799545;
                } else {
                    var44 = 0.0006846666;
                }
            } else {
                if (input[11] >= 0.64196265) {
                    var44 = 0.0007606735;
                } else {
                    var44 = -0.00014331732;
                }
            }
        } else {
            if (input[4] >= 0.6445757) {
                if (input[2] >= 0.7547761) {
                    var44 = 0.0010178209;
                } else {
                    var44 = 0.000010423012;
                }
            } else {
                if (input[0] >= 0.36558327) {
                    var44 = -0.00038360848;
                } else {
                    var44 = -0.0012571006;
                }
            }
        }
    }
    double var45;
    if (input[10] >= 0.61264235) {
        if (input[11] >= 0.6799351) {
            if (input[14] >= 0.40718913) {
                if (input[4] >= 0.67522204) {
                    var45 = 0.002277676;
                } else {
                    var45 = 0.0011809788;
                }
            } else {
                if (input[6] >= 0.6328882) {
                    var45 = 0.001233314;
                } else {
                    var45 = 0.00021109558;
                }
            }
        } else {
            if (input[3] >= 0.66085565) {
                if (input[6] >= 0.6135106) {
                    var45 = 0.0014993447;
                } else {
                    var45 = 0.00062029395;
                }
            } else {
                if (input[9] >= 0.63317764) {
                    var45 = 0.0006727848;
                } else {
                    var45 = -0.00016779311;
                }
            }
        }
    } else {
        if (input[2] >= 0.72677195) {
            if (input[0] >= 0.6506932) {
                if (input[5] >= 0.35653815) {
                    var45 = 0.0014521845;
                } else {
                    var45 = 0.00023837737;
                }
            } else {
                if (input[5] >= 0.6761919) {
                    var45 = 0.0009692304;
                } else {
                    var45 = 0.0000052464825;
                }
            }
        } else {
            if (input[9] >= 0.6748048) {
                if (input[14] >= 0.7246767) {
                    var45 = 0.0010279875;
                } else {
                    var45 = 0.00006035748;
                }
            } else {
                if (input[7] >= 0.3300721) {
                    var45 = -0.0003696652;
                } else {
                    var45 = -0.0013405796;
                }
            }
        }
    }
    double var46;
    if (input[5] >= 0.37023282) {
        if (input[4] >= 0.5214113) {
            if (input[12] >= 0.6826852) {
                if (input[3] >= 0.37134868) {
                    var46 = 0.0015926166;
                } else {
                    var46 = 0.00065422093;
                }
            } else {
                if (input[7] >= 0.73826325) {
                    var46 = 0.0012886871;
                } else {
                    var46 = 0.00028548838;
                }
            }
        } else {
            if (input[8] >= 0.6061617) {
                if (input[12] >= 0.31533253) {
                    var46 = 0.00066446734;
                } else {
                    var46 = -0.00049027905;
                }
            } else {
                if (input[7] >= 0.617545) {
                    var46 = 0.00017511054;
                } else {
                    var46 = -0.0006200409;
                }
            }
        }
    } else {
        if (input[14] >= 0.52987754) {
            if (input[13] >= 0.7162454) {
                if (input[1] >= 0.6150994) {
                    var46 = 0.0014392586;
                } else {
                    var46 = 0.00034825716;
                }
            } else {
                if (input[1] >= 0.27521554) {
                    var46 = -0.0001732666;
                } else {
                    var46 = -0.0013218179;
                }
            }
        } else {
            if (input[3] >= 0.41283622) {
                if (input[2] >= 0.32944196) {
                    var46 = -0.00036679095;
                } else {
                    var46 = -0.0013808263;
                }
            } else {
                if (input[11] >= 0.3719889) {
                    var46 = -0.0011598644;
                } else {
                    var46 = -0.0023873434;
                }
            }
        }
    }
    double var47;
    if (input[6] >= 0.44977254) {
        if (input[3] >= 0.63554204) {
            if (input[12] >= 0.45873144) {
                if (input[2] >= 0.55936885) {
                    var47 = 0.0016206189;
                } else {
                    var47 = 0.0008264198;
                }
            } else {
                if (input[7] >= 0.35110307) {
                    var47 = 0.000654905;
                } else {
                    var47 = -0.00038295818;
                }
            }
        } else {
            if (input[2] >= 0.6086538) {
                if (input[5] >= 0.41690803) {
                    var47 = 0.0008592421;
                } else {
                    var47 = -0.0000012093512;
                }
            } else {
                if (input[0] >= 0.6223191) {
                    var47 = 0.00035113044;
                } else {
                    var47 = -0.00045523472;
                }
            }
        }
    } else {
        if (input[7] >= 0.37239337) {
            if (input[13] >= 0.44045568) {
                if (input[0] >= 0.7240681) {
                    var47 = 0.000901234;
                } else {
                    var47 = -0.00004878113;
                }
            } else {
                if (input[10] >= 0.509714) {
                    var47 = -0.00027387633;
                } else {
                    var47 = -0.0010594254;
                }
            }
        } else {
            if (input[9] >= 0.63137615) {
                if (input[2] >= 0.5165465) {
                    var47 = 0.000004021753;
                } else {
                    var47 = -0.0008647469;
                }
            } else {
                if (input[1] >= 0.52533114) {
                    var47 = -0.0008149526;
                } else {
                    var47 = -0.001714473;
                }
            }
        }
    }
    double var48;
    if (input[4] >= 0.34295672) {
        if (input[8] >= 0.48226142) {
            if (input[1] >= 0.63580763) {
                if (input[6] >= 0.421168) {
                    var48 = 0.001418157;
                } else {
                    var48 = 0.0005799127;
                }
            } else {
                if (input[10] >= 0.46734458) {
                    var48 = 0.0006378201;
                } else {
                    var48 = -0.00009323071;
                }
            }
        } else {
            if (input[0] >= 0.55771863) {
                if (input[2] >= 0.55444473) {
                    var48 = 0.00076446193;
                } else {
                    var48 = -0.0000990446;
                }
            } else {
                if (input[7] >= 0.41004467) {
                    var48 = -0.00018222732;
                } else {
                    var48 = -0.0009782909;
                }
            }
        }
    } else {
        if (input[10] >= 0.38078064) {
            if (input[11] >= 0.34930736) {
                if (input[7] >= 0.69305915) {
                    var48 = 0.00060470897;
                } else {
                    var48 = -0.00030466457;
                }
            } else {
                if (input[13] >= 0.59811866) {
                    var48 = -0.00040789807;
                } else {
                    var48 = -0.0014063752;
                }
            }
        } else {
            if (input[12] >= 0.6613289) {
                if (input[7] >= 0.45954734) {
                    var48 = -0.000057061774;
                } else {
                    var48 = -0.0011436866;
                }
            } else {
                if (input[11] >= 0.4650579) {
                    var48 = -0.0011343609;
                } else {
                    var48 = -0.0020704612;
                }
            }
        }
    }
    double var49;
    if (input[6] >= 0.33056152) {
        if (input[12] >= 0.4821756) {
            if (input[1] >= 0.52846014) {
                if (input[14] >= 0.73412967) {
                    var49 = 0.0017229196;
                } else {
                    var49 = 0.0007487674;
                }
            } else {
                if (input[5] >= 0.66817) {
                    var49 = 0.0008283065;
                } else {
                    var49 = -0.000002747523;
                }
            }
        } else {
            if (input[4] >= 0.34724516) {
                if (input[5] >= 0.59413326) {
                    var49 = 0.000527252;
                } else {
                    var49 = -0.00023377941;
                }
            } else {
                if (input[9] >= 0.5784119) {
                    var49 = -0.00021021142;
                } else {
                    var49 = -0.0012158725;
                }
            }
        }
    } else {
        if (input[3] >= 0.35496444) {
            if (input[5] >= 0.6219059) {
                if (input[4] >= 0.70616424) {
                    var49 = 0.0009799657;
                } else {
                    var49 = -0.000072900344;
                }
            } else {
                if (input[9] >= 0.7540463) {
                    var49 = 0.00027897998;
                } else {
                    var49 = -0.000817313;
                }
            }
        } else {
            if (input[11] >= 0.3167787) {
                if (input[4] >= 0.27054283) {
                    var49 = -0.00082452904;
                } else {
                    var49 = -0.0020912199;
                }
            } else {
                if (input[5] >= 0.5775208) {
                    var49 = -0.0014145483;
                } else {
                    var49 = -0.002730369;
                }
            }
        }
    }
    double var50;
    if (input[0] >= 0.6531282) {
        if (input[14] >= 0.6334059) {
            if (input[3] >= 0.36216146) {
                if (input[9] >= 0.55020845) {
                    var50 = 0.0018593181;
                } else {
                    var50 = 0.0009802862;
                }
            } else {
                if (input[2] >= 0.34441957) {
                    var50 = 0.00073653634;
                } else {
                    var50 = -0.00039582603;
                }
            }
        } else {
            if (input[3] >= 0.537928) {
                if (input[7] >= 0.74468267) {
                    var50 = 0.0016422283;
                } else {
                    var50 = 0.00049985835;
                }
            } else {
                if (input[11] >= 0.2597024) {
                    var50 = 0.00011963685;
                } else {
                    var50 = -0.0010913033;
                }
            }
        }
    } else {
        if (input[8] >= 0.38478455) {
            if (input[1] >= 0.30946523) {
                if (input[2] >= 0.4114859) {
                    var50 = 0.0005183314;
                } else {
                    var50 = -0.00025542066;
                }
            } else {
                if (input[6] >= 0.5693208) {
                    var50 = -0.00014630961;
                } else {
                    var50 = -0.0010090157;
                }
            }
        } else {
            if (input[9] >= 0.63355756) {
                if (input[7] >= 0.64392424) {
                    var50 = 0.0005057903;
                } else {
                    var50 = -0.00044157237;
                }
            } else {
                if (input[13] >= 0.2987545) {
                    var50 = -0.0007906132;
                } else {
                    var50 = -0.0018234951;
                }
            }
        }
    }
    double var51;
    if (input[13] >= 0.42784342) {
        if (input[10] >= 0.5953454) {
            if (input[12] >= 0.7087265) {
                if (input[3] >= 0.4157344) {
                    var51 = 0.0017163836;
                } else {
                    var51 = 0.00089225173;
                }
            } else {
                if (input[6] >= 0.5383016) {
                    var51 = 0.00094911375;
                } else {
                    var51 = 0.00021764997;
                }
            }
        } else {
            if (input[14] >= 0.4187641) {
                if (input[3] >= 0.6035762) {
                    var51 = 0.0007882935;
                } else {
                    var51 = 0.000031205458;
                }
            } else {
                if (input[3] >= 0.2910022) {
                    var51 = -0.00025741087;
                } else {
                    var51 = -0.0013545853;
                }
            }
        }
    } else {
        if (input[5] >= 0.3735572) {
            if (input[6] >= 0.6363907) {
                if (input[0] >= 0.6651633) {
                    var51 = 0.00093374465;
                } else {
                    var51 = 0.0001319776;
                }
            } else {
                if (input[12] >= 0.46638697) {
                    var51 = -0.000107714535;
                } else {
                    var51 = -0.0009088923;
                }
            }
        } else {
            if (input[8] >= 0.65222335) {
                if (input[6] >= 0.7511983) {
                    var51 = 0.00060797314;
                } else {
                    var51 = -0.00066564337;
                }
            } else {
                if (input[3] >= 0.4136448) {
                    var51 = -0.0009786149;
                } else {
                    var51 = -0.0018061281;
                }
            }
        }
    }
    double var52;
    if (input[11] >= 0.6199985) {
        if (input[0] >= 0.51444674) {
            if (input[13] >= 0.31962508) {
                if (input[8] >= 0.58437693) {
                    var52 = 0.0015143523;
                } else {
                    var52 = 0.0007697853;
                }
            } else {
                if (input[3] >= 0.3351643) {
                    var52 = 0.00041472586;
                } else {
                    var52 = -0.0007073696;
                }
            }
        } else {
            if (input[8] >= 0.6858417) {
                if (input[6] >= 0.6319387) {
                    var52 = 0.0015328022;
                } else {
                    var52 = 0.000506174;
                }
            } else {
                if (input[7] >= 0.65202487) {
                    var52 = 0.00052163424;
                } else {
                    var52 = -0.0003423751;
                }
            }
        }
    } else {
        if (input[8] >= 0.7261375) {
            if (input[0] >= 0.36948818) {
                if (input[9] >= 0.36400205) {
